{"weights": [[[0.06998287886381149, 0.00916067510843277, -0.03422657400369644, -0.059586040675640106, 0.041236333549022675, -0.03776014968752861, 0.021832376718521118, 0.013203449547290802, -0.019231483340263367, -0.021904118359088898, 0.05294359475374222, -0.07548173516988754, 0.04816359654068947, 0.14172634482383728, -0.006588148884475231, -0.025396199896931648, -0.08188249170780182, -0.06054191291332245, 0.08453380316495895, -0.04737076535820961, -0.03586684167385101, -0.053737275302410126, 0.02573925256729126, -0.05234122648835182, 0.08158358186483383, 0.03702390938997269, -0.06624196469783783, -0.014051839709281921, 0.06061593443155289, -0.0015313699841499329, 0.05465777963399887, -0.011845558881759644, -0.08107621222734451, 0.10704406350851059, 0.48400944471359253, 0.5462387800216675, 0.33615386486053467, 0.5973869562149048, 0.3922909200191498, 0.3664886951446533, 0.2007497102022171, 0.24478907883167267, -0.5543146133422852, -0.37574347853660583, -0.3036015033721924, 0.3689914345741272, 0.5305332541465759, 0.7500747442245483, 0.7377970814704895, 0.6806601285934448, 0.40732839703559875, 0.20159263908863068, -0.06227355822920799, -0.08029663562774658, -0.015309803187847137, 0.052005834877491, 0.028235428035259247, -0.016582444310188293, 0.05936966463923454, -0.005096346605569124, 0.11119899898767471, 0.24482978880405426, 0.5958623886108398, 0.7702169418334961, 0.6334772109985352, 0.7546095252037048, 0.0477893091738224, -0.183262437582016, -0.13109293580055237, -0.3774113059043884, -0.7763189673423767, -0.4295768141746521, -0.09054908901453018, -0.3813552260398865, -0.17957645654678345, -0.5911675691604614, 0.4493231475353241, 0.9309955835342407, 0.2541857659816742, -0.0020123415160924196, -0.5978173017501831, -0.45738914608955383, 0.06790143996477127, -0.054409101605415344, 0.00550244003534317, -0.025434177368879318, -0.3677956759929657, -0.1409272849559784, 0.04757809638977051, -0.641227662563324, 0.2965258061885834, 0.9351549744606018, 0.07707300037145615, -0.18215088546276093, -0.3979569971561432, -1.3216197490692139, -1.2936515808105469, -0.7953184247016907, -0.6081162095069885, -0.4275142550468445, -0.38322386145591736, -0.14743639528751373, -0.04134874418377876, -0.199573814868927, -0.4830673635005951, 0.009566453285515308, -0.03190604969859123, 0.09568697214126587, -0.4183250665664673, 0.14847685396671295, 0.1884416788816452, -0.06541378051042557, 0.024360090494155884, 0.013992434367537498, -0.411327064037323, -0.4281187355518341, -0.021273063495755196, 0.13437114655971527, 0.5167776942253113, -0.43962034583091736, -0.32291653752326965, -1.0144377946853638, -1.8430862426757812, -1.580831527709961, -1.2150765657424927, -1.1809662580490112, -0.6379406452178955, -0.31366539001464844, 0.3635184168815613, 0.45510607957839966, 0.3750098645687103, -0.01230275072157383, 0.2538679540157318, 0.30782461166381836, -0.10124211013317108, -0.2893794775009155, 0.18278031051158905, 0.13080278038978577, 0.6212725639343262, 0.13115248084068298, -0.013122208416461945, 0.07865605503320694, -0.16036176681518555, -0.4275820255279541, -0.25144919753074646, 0.07970487326383591, 0.16851556301116943, 0.06470344960689545, -0.6660792827606201, -0.6056849360466003, -0.6526749134063721, -0.3513306975364685, 0.01378626748919487, 0.0543559193611145, -0.03107127547264099, -0.41602620482444763, -0.2789531648159027, 0.07432457059621811, -0.03650597855448723, 0.11013796180486679, 0.24022623896598816, 0.2818889617919922, 0.0708104595541954, -0.21106114983558655, 0.24454939365386963, -0.16261506080627441, 0.22406820952892303, -0.05887848511338234, 0.06796253472566605, 0.17910869419574738, 0.10736652463674545, 0.04807238280773163, 0.2586934566497803, 0.10757032781839371, -0.5217956304550171, -1.1297231912612915, -1.1422008275985718, -0.556629478931427, -0.23778663575649261, 0.18819937109947205, 0.22971506416797638, 0.08748579770326614, -0.10485987365245819, -0.16813412308692932, 0.010044967755675316, 0.13068154454231262, 0.01904436945915222, 0.20089620351791382, 0.3683164715766907, 0.08562193810939789, -0.29945680499076843, -0.19082526862621307, -0.02443942055106163, 0.2799229919910431, -0.04451151192188263, -0.24264827370643616, -0.09151219576597214, 0.2728692591190338, 0.15257132053375244, 0.10461044311523438, -0.456576943397522, -1.0545127391815186, -0.8375526070594788, -0.7845897078514099, -0.8513243198394775, -0.45819592475891113, 0.0643172487616539, 0.18527516722679138, 0.20801229774951935, -0.09017667919397354, -0.33476975560188293, -0.18315428495407104, 0.012433718889951706, -0.2156684696674347, 0.05024438723921776, 0.35914647579193115, 0.10735949873924255, 0.010701561346650124, -0.03302176296710968, -0.0022380207665264606, -0.03836209699511528, 0.03066994622349739, -0.25284919142723083, -0.5115903615951538, -0.4225500822067261, -0.011657186783850193, -0.1294272392988205, -0.6478931307792664, -1.1112101078033447, -0.7432600855827332, -0.5181912183761597, -0.23070314526557922, -0.0032280313316732645, 0.3092688024044037, 0.13831329345703125, -0.019385885447263718, 0.2655453085899353, 0.12297914177179337, -0.22160805761814117, -0.5760694742202759, -0.17518264055252075, -0.23569372296333313, 0.17267397046089172, -0.04296213388442993, 0.1270635724067688, 0.24012261629104614, 0.44799914956092834, 0.05272447690367699, 0.12248294800519943, -0.0797160342335701, -0.29858142137527466, 0.012922564521431923, -0.34208008646965027, 0.5608983039855957, 0.24307438731193542, -0.20576559007167816, -0.5032492876052856, -0.6920320391654968, -0.6014314293861389, 0.18739396333694458, -0.04707522317767143, 0.24620376527309418, 0.16155213117599487, -0.01491140853613615, 0.09213774651288986, -0.034232161939144135, -0.41198083758354187, -0.09541361778974533, -0.034505922347307205, 0.11891387403011322, -0.03666149824857712, 0.00926030520349741, 0.12562543153762817, 0.1974509209394455, 0.022808745503425598, 0.264995813369751, 0.12122513353824615, -0.3196256458759308, -0.18826590478420258, 0.20331914722919464, -0.3550148904323578, 0.24382555484771729, 0.198449969291687, -0.5337141752243042, -0.586020290851593, -0.6947899460792542, -0.41555550694465637, 0.3708363175392151, 0.12707123160362244, 0.03372921422123909, 0.07405414432287216, -0.10517548769712448, -0.07386169582605362, -0.4501355290412903, -0.4734210968017578, -0.08649791777133942, -0.01783318817615509, -0.42464566230773926, 0.176639586687088, 0.10013043135404587, 0.24877819418907166, -0.1062036082148552, -0.2965512275695801, 0.5587012767791748, 0.019087377935647964, -0.4540361166000366, -0.5690622925758362, -0.01808949001133442, -0.26958906650543213, -0.4690142571926117, 0.1476203352212906, -0.6829062700271606, -0.2475372552871704, -0.31669503450393677, -0.13939833641052246, 0.5400827527046204, 0.3860696852207184, 0.14482508599758148, 0.24640072882175446, 0.07967312633991241, -0.1025906354188919, -0.7223694920539856, -0.14498654007911682, -0.04872889071702957, 0.020819857716560364, 0.15944409370422363, 0.34291455149650574, 0.06569979339838028, 0.5473088026046753, 0.23775453865528107, 0.2668153941631317, 0.3985462784767151, 0.35405611991882324, -0.024904096499085426, 0.3194539248943329, -0.6521996855735779, -0.2711714804172516, -0.3981347382068634, -0.19926781952381134, -0.23253133893013, 0.12997280061244965, -0.018934693187475204, 0.39707112312316895, 0.3662720024585724, 0.20120465755462646, 0.27319541573524475, 0.2972310483455658, -0.04124949127435684, -0.9352818131446838, -0.7568418979644775, 0.18532311916351318, 0.3655337989330292, 0.39989379048347473, 0.3620833456516266, 0.12321315705776215, 0.3042367100715637, 0.499844491481781, 0.7403382062911987, 0.9421246647834778, 1.3684183359146118, 0.5931569337844849, 0.45935946702957153, -0.1796063333749771, -0.057668399065732956, -0.335959792137146, -0.577971875667572, 0.18001125752925873, 0.15088149905204773, 0.22350271046161652, 0.16871891915798187, 0.03165540099143982, 0.22661466896533966, 0.3206840455532074, 0.22714774310588837, 0.09902512282133102, -0.2026304304599762, -0.26715388894081116, 0.3886840045452118, 0.5629828572273254, 0.7480872273445129, 0.2622199058532715, 0.03296861797571182, 0.10456851124763489, 0.7187981009483337, 0.7512487173080444, 0.7970001101493835, 0.866416335105896, 0.08904843777418137, -0.34606873989105225, 0.08105066418647766, -0.4503580927848816, 0.3314497470855713, -0.1986052542924881, 0.12104558199644089, 0.7251195311546326, 0.4506359398365021, 0.23410846292972565, -0.3399777114391327, -0.037399135529994965, -0.06181732565164566, 0.14271441102027893, -0.11999572068452835, -0.4331952929496765, -0.158956378698349, 0.3082917332649231, 0.7721133828163147, 0.9943754076957703, 0.5608081817626953, 0.02715696394443512, -0.06799685955047607, -0.04107411205768585, 0.09699960052967072, 0.1856805384159088, 0.38406941294670105, 0.2843669652938843, 0.37877118587493896, -0.37396883964538574, -0.31419381499290466, -0.6634328365325928, 0.08592970669269562, -0.0703202486038208, 0.2676944434642792, -0.6305139064788818, -0.2823897898197174, -0.29618704319000244, -0.055164437741041183, 0.05874621123075485, -0.20134994387626648, -0.05024029314517975, -0.2703525424003601, -0.29913315176963806, -0.11925172060728073, 0.42595067620277405, 0.4982169270515442, 0.6101326942443848, 0.46332234144210815, 0.04034896567463875, -0.17343288660049438, 0.07247288525104523, -0.35225191712379456, -0.35219836235046387, -0.34147173166275024, -0.009573861956596375, 0.22029606997966766, -0.6260026693344116, -1.1056458950042725, -0.3263978660106659, -0.44628381729125977, 0.062452077865600586, -0.2043001800775528, -0.6546819806098938, -0.7430840134620667, 0.18348786234855652, -0.1869048923254013, -0.08225611597299576, -0.14597292244434357, -0.006539592519402504, -0.10354337096214294, 0.40427541732788086, 0.19756047427654266, 0.2934896647930145, 0.3231198787689209, 0.3903401494026184, 0.22157400846481323, 0.24554699659347534, 0.04890505224466324, -0.2959367036819458, -1.138216257095337, -1.3179118633270264, -0.8046423196792603, -0.2782735824584961, -0.19429834187030792, -0.5280580520629883, -0.7428011894226074, -0.6678474545478821, -0.47273871302604675, -0.013481609523296356, -0.251710444688797, -0.3404156565666199, -0.2855379283428192, 0.0750545859336853, -0.3488609492778778, -0.3768596351146698, -0.3507564067840576, 0.07794298231601715, 0.24597923457622528, 0.20335794985294342, 0.3608282208442688, 0.5802932381629944, 0.5615161061286926, 0.5738263726234436, 0.6266230344772339, 0.34673136472702026, -0.04887539520859718, -0.7636512517929077, -0.9673800468444824, -0.9393430948257446, -0.6705220937728882, -0.3959992527961731, -0.3649307191371918, 0.020860819146037102, -0.5694872140884399, -1.0345202684402466, -0.44052472710609436, 0.7980057597160339, -0.1782766431570053, 0.285766065120697, -0.6009917855262756, -0.4881046414375305, -0.49762478470802307, -0.36106833815574646, -0.6025882959365845, -0.5254445672035217, -0.11098626255989075, 0.28215834498405457, 0.23249000310897827, 0.3428739011287689, 0.5295635461807251, 0.8895999193191528, 0.49827176332473755, -0.015789031982421875, -0.4095973074436188, -0.7560951113700867, -0.901576578617096, -0.5967200398445129, -0.5069385170936584, -0.8457348346710205, -0.7057205438613892, -0.6911439895629883, -0.41783568263053894, -0.8754042983055115, -0.6988699436187744, -0.5280333757400513, 0.5021694898605347, 0.25264644622802734, -1.0284960269927979, -0.529849112033844, -0.7402616143226624, -0.446896493434906, -0.30867335200309753, -0.411777138710022, -0.4393458068370819, 0.024710752069950104, -0.2979518473148346, -0.1034548431634903, -0.10026326030492783, 0.3291299343109131, -0.00606811186298728, -0.06845393776893616, -0.3475779891014099, -0.43764954805374146, -0.4261667728424072, -0.8607520461082458, -0.7345433235168457, -0.6773832440376282, -0.06740478426218033, -0.3232646584510803, 0.05173437297344208, -1.0170973539352417, -0.3952063024044037, -0.03710867464542389, 0.019602319225668907, 0.12579797208309174, -0.3995424211025238, -0.6079736351966858, -0.5000849962234497, -0.31099948287010193, -0.375580370426178, -0.6615572571754456, -0.4106544554233551, -0.43381744623184204, -0.7534264922142029, -0.7614766359329224, -0.2556489109992981, -0.3323071300983429, -0.20533810555934906, -0.4037824869155884, -0.23282620310783386, -0.34839728474617004, 0.26369836926460266, -0.6388622522354126, -0.6890128254890442, -0.13796430826187134, -0.20942309498786926, -0.13226519525051117, 0.04668315872550011, -0.9935085773468018, -0.34163591265678406, -0.339265376329422, -0.06809843331575394, 0.14728164672851562, 0.049332763999700546, -0.38048088550567627, -0.1467825323343277, 0.30470001697540283, -0.17250357568264008, -0.13225729763507843, -0.44077402353286743, -0.46754807233810425, -0.7744438052177429, -0.4641439616680145, -0.3332752585411072, -0.3618355691432953, -0.513917088508606, -0.5486376881599426, -0.7378434538841248, -0.4943520426750183, -0.2465379238128662, -0.382865309715271, -0.24754442274570465, 0.15095414221286774, -0.4939272999763489, -0.21167615056037903, 0.3071271479129791, -0.440883606672287, -0.012684972956776619, -0.33650827407836914, -0.20265819132328033, -0.2859531044960022, -0.2982044517993927, 0.18509940803050995, 0.5084189176559448, 0.5246319770812988, 0.007856654934585094, 0.04892228543758392, -0.29469823837280273, -0.34023982286453247, -0.612011194229126, -0.355781614780426, -0.013983888551592827, 0.2500099837779999, -0.17793749272823334, -0.6298596858978271, -0.46770694851875305, -0.35090410709381104, -0.6458882689476013, -0.741468071937561, -0.2943120002746582, -0.22112050652503967, 0.1193767786026001, 0.31182101368904114, 0.33284711837768555, -0.5654477477073669, -0.04161042720079422, 0.0011296644806861877, 0.03811197727918625, 0.20504160225391388, -0.7272028923034668, -0.20473594963550568, -0.35679346323013306, -0.11531385779380798, 0.02680417150259018, -0.01473192684352398, -0.22932179272174835, -0.4291229248046875, -0.6235525012016296, -0.45344725251197815, -0.1268399953842163, -0.0303734689950943, -0.17532354593276978, -0.08703967183828354, -0.2832159101963043, -0.5434803366661072, -0.5673453211784363, -0.2309683859348297, -0.08046048879623413, 0.375162810087204, 0.3426883816719055, 0.5593553185462952, 0.1280747950077057, -0.3499535322189331, 0.04727762192487717, 0.01152365654706955, 0.00715947151184082, 0.7415514588356018, -0.09681302309036255, -0.19041012227535248, 0.0403655543923378, 0.22418607771396637, -0.35492709279060364, -0.2621391713619232, -0.19508162140846252, -0.410665363073349, -0.7888591289520264, -0.3013208508491516, 0.1522248089313507, -0.2595589756965637, -0.25292956829071045, -0.31052085757255554, -0.5284087061882019, -0.37339553236961365, -0.4101702868938446, -0.10005141794681549, 0.00509254727512598, 0.31521865725517273, 0.1586323231458664, -0.086723692715168, -0.6127032041549683, -0.3662113845348358, -0.08215387910604477, 0.06401384621858597, 0.049020715057849884, 0.38453882932662964, 0.23908980190753937, -0.27997899055480957, 0.627310574054718, 0.152876079082489, -0.12843471765518188, 0.2601574957370758, -0.3037506341934204, -0.042070548981428146, -0.2319342941045761, -0.04614434763789177, -0.10618957132101059, 0.27114957571029663, -0.16674979031085968, 0.21497350931167603, 0.05032368749380112, -0.15674324333667755, 0.11593300849199295, 0.05374784395098686, 0.3875221312046051, 0.5320301055908203, -0.07270605117082596, 0.031657397747039795, -0.1575741171836853, -0.054611727595329285, -0.08253204822540283, -0.05703367665410042, 0.02926233410835266, 0.011532314121723175, 0.28712746500968933, 0.7194992899894714, 0.6315750479698181, 0.8541567325592041, 0.6686080694198608, 0.3604587912559509, 0.4841158092021942, 0.602620542049408, 0.299701452255249, 0.5541079044342041, 0.749114990234375, 1.7222626209259033, 0.9731340408325195, 0.43936118483543396, 0.573255717754364, 0.6668030023574829, 0.2850802540779114, 0.8042771816253662, 0.9481463432312012, 0.25225287675857544, 0.2008618861436844, -0.008138170465826988, -0.29371002316474915, 0.08016651123762131, -0.0662989541888237, -0.04292844980955124, -0.007659517228603363, 0.08520317822694778, 0.07255987077951431, -0.2684217691421509, -0.6274331212043762, 0.30771970748901367, -0.08052996546030045, -0.13057419657707214, -0.49592021107673645, 0.21043862402439117, 0.14778998494148254, -0.11104876548051834, 0.4177325367927551, 1.4361270666122437, 1.1752183437347412, 0.8413425087928772, 1.1508444547653198, 0.9987974166870117, 0.7425369620323181, 0.4320545196533203, 0.6875940561294556, 0.132921040058136, -0.25962144136428833, 0.047760896384716034, -0.05734828859567642, 0.03955977410078049, -0.06545854359865189], [-0.04333896189928055, 0.04635370522737503, -0.04178912937641144, -0.011791273951530457, 0.06702739745378494, -0.046110838651657104, -0.02376924455165863, -0.008035644888877869, 0.008133180439472198, 0.04997511953115463, 0.06683535128831863, -0.06954368948936462, -0.0020393668673932552, -0.009197101928293705, 0.03857582062482834, -0.01184950303286314, 0.05260350555181503, 0.019244663417339325, 0.047590069472789764, 0.029685884714126587, -0.07197295129299164, -0.0011378079652786255, 0.017511487007141113, 0.01717851310968399, -0.014624863862991333, 0.012573547661304474, 0.07937823981046677, -0.006108678877353668, 0.07232532650232315, -0.014311887323856354, 0.06777364760637283, -0.014746159315109253, -0.07620763778686523, -0.05507752299308777, -0.29788637161254883, -0.1462872177362442, -0.2671787738800049, -0.2023283988237381, -0.2969610393047333, -0.20508024096488953, -0.5069437623023987, -0.3580961525440216, 0.34727320075035095, -0.35868510603904724, -0.6409978270530701, -0.6828426718711853, 0.7546329498291016, 0.39563876390457153, -0.2915409207344055, -0.3316185176372528, -0.19577768445014954, -0.28608348965644836, -0.06317175179719925, -0.00322144478559494, -0.03332563489675522, -0.024274427443742752, -0.017442651093006134, 0.047246985137462616, 0.057173945009708405, -0.040115825831890106, -0.04037058353424072, 0.03554345667362213, 0.19471703469753265, -0.3294908404350281, -0.6278756260871887, -0.828430712223053, -1.1174269914627075, -0.9735665321350098, -1.3154007196426392, -1.4391857385635376, -1.1335166692733765, -0.9240384697914124, -1.4477934837341309, -1.0050907135009766, -0.17981022596359253, 0.09955284744501114, 0.024699853733181953, 0.9313405752182007, 0.8412965536117554, 0.182735875248909, 0.41870954632759094, 0.11842811852693558, 0.042295150458812714, 0.06766440719366074, 0.08025530725717545, -0.03844693675637245, 0.5206509828567505, 0.361126571893692, -0.22998255491256714, -0.3544773757457733, 0.0025113422889262438, 0.3232952654361725, -0.25183960795402527, -0.3129386007785797, -0.4967940151691437, -0.7402810454368591, -1.4432199001312256, -1.5942050218582153, -1.6614387035369873, -1.8595398664474487, -1.0135877132415771, -0.35212644934654236, -0.24443136155605316, 0.0802650973200798, 0.0382796935737133, -0.4667825400829315, 0.1197817325592041, -0.5343829393386841, 0.05751492455601692, -0.042819514870643616, 0.3115759491920471, 0.017353035509586334, 0.012960277497768402, -0.03947121649980545, 0.41797149181365967, 0.29881349205970764, 0.10945665091276169, -0.30156847834587097, 0.4125748574733734, -0.022044843062758446, -0.02447831630706787, -0.46860775351524353, -0.7231774926185608, -0.9263647198677063, -0.9563778042793274, -0.8097711801528931, -0.6698591113090515, -0.2281653732061386, 0.18526451289653778, -0.12202861905097961, -0.3205052316188812, -0.34285488724708557, 0.12529177963733673, -0.25349944829940796, 0.31026706099510193, 0.08237630873918533, -0.5474264025688171, -0.4495247006416321, -0.20097462832927704, -0.1154525876045227, 0.0483081117272377, 0.05560482293367386, 0.4186249375343323, 0.487565279006958, -0.09021919965744019, -0.26565447449684143, -0.47364136576652527, 0.1899813711643219, 0.17651309072971344, -0.6681926250457764, -1.0634589195251465, -0.07886684685945511, -0.40620601177215576, -1.0905838012695312, -0.36471274495124817, 0.1207227036356926, -0.06825589388608932, -0.009524719789624214, -0.22616548836231232, -0.27703186869621277, -0.4438702166080475, -0.4559558928012848, 0.16662554442882538, 0.030561786144971848, 0.2789490520954132, 0.13424980640411377, -0.2652949392795563, 0.0509246401488781, -0.045303259044885635, -0.24504496157169342, -0.5868591070175171, -0.36823683977127075, 0.2322782427072525, -0.2648249566555023, -0.6905365586280823, -0.11385826766490936, 0.2670564353466034, -0.8929771184921265, -0.3942164182662964, 0.09644487500190735, -0.11636094748973846, -0.37273702025413513, 0.008267116732895374, 0.23363472521305084, 0.20403413474559784, 0.2811063826084137, 0.01720023900270462, -0.2171018272638321, -0.2636866569519043, 0.05615624040365219, 0.5096933245658875, -0.183778315782547, 0.3540608584880829, -0.17996348440647125, 0.3018350303173065, 0.3882291615009308, 0.03248114511370659, -0.18559598922729492, -0.5973106026649475, -0.09735256433486938, -0.2923034131526947, -0.09576018154621124, -0.9043888449668884, 0.09484099596738815, 0.19936834275722504, 0.014446101151406765, -0.22768381237983704, -0.014891699887812138, -0.16071437299251556, 0.17010386288166046, 0.3315495550632477, 0.21360808610916138, 0.28583720326423645, 0.4921450614929199, -0.13338220119476318, -0.03700264170765877, 0.1330845206975937, 0.006036264821887016, -0.03458547964692116, 0.19145013391971588, 0.0547042191028595, -0.06318293511867523, 0.056260671466588974, 0.3434806168079376, -0.475465327501297, -0.2371423840522766, -0.3917994797229767, -0.4188019335269928, -0.2753864824771881, -0.39471763372421265, -0.6259515881538391, 0.03612377494573593, 0.6133347749710083, 0.08237431943416595, -0.23866775631904602, -0.26888296008110046, -0.2194797843694687, -0.21452763676643372, 0.39930278062820435, 0.5850753784179688, -0.17386160790920258, -0.00990210846066475, -0.2385759800672531, -0.06609397381544113, 0.006879074033349752, -0.28383758664131165, 0.16980218887329102, 0.03702988848090172, -0.2339916229248047, 0.574842631816864, -0.5414060950279236, -0.2692514955997467, -0.06727781146764755, -0.5541236400604248, 0.032466743141412735, -0.4065563976764679, -0.48194754123687744, -0.8293133974075317, -0.35953107476234436, 0.25063931941986084, 0.280958354473114, -0.047732848674058914, 0.14820685982704163, 0.06675657629966736, -0.4909736216068268, -0.40406665205955505, 0.43690553307533264, 0.42310166358947754, 0.2870422899723053, -0.02737451158463955, -0.31523481011390686, -0.30156001448631287, -0.08119680732488632, -0.45316481590270996, -0.004722215700894594, -0.358095645904541, 0.17065870761871338, -0.4179168939590454, -0.3259313702583313, 0.20415149629116058, -0.18625901639461517, -0.3201446235179901, -0.29928356409072876, -0.24046942591667175, -0.4822745621204376, -0.4191488027572632, -0.6171554923057556, -0.2668503224849701, -0.5481895208358765, -0.013336721807718277, 0.043569762259721756, -0.28647613525390625, -0.43414196372032166, -0.13252446055412292, 0.567987859249115, 0.7809970378875732, 0.27829810976982117, -0.16219007968902588, -0.3741950988769531, -0.09181196987628937, -0.19315069913864136, -0.4699151813983917, -0.1893654465675354, -0.11213519424200058, -0.049587443470954895, -0.12905023992061615, -0.06805669516324997, 0.15605051815509796, -0.10471665859222412, -0.5291934013366699, 0.2668767273426056, -0.4016275107860565, 0.06556501239538193, -0.29259130358695984, -0.5969099998474121, -0.7752317786216736, -0.22104400396347046, 0.36475592851638794, 0.0917680412530899, -0.31185412406921387, -0.13007362186908722, 0.13809967041015625, 0.6443914771080017, 0.7171432375907898, 0.4392790198326111, -0.4862660765647888, 0.0023496232461184263, 0.19835208356380463, -0.25396639108657837, -0.1229136735200882, 0.23393133282661438, 0.025254400447010994, -0.40399548411369324, -0.6235476732254028, -0.43243953585624695, -0.11200805753469467, 0.009388245642185211, 0.10962619632482529, -0.22340776026248932, 0.2240414321422577, -0.31273722648620605, -1.2645570039749146, -0.6834529042243958, -0.6962607502937317, -0.05679275840520859, 0.06104687601327896, -0.46624627709388733, -0.3763335049152374, 0.23699894547462463, 0.591721773147583, 0.5737569332122803, 0.7324067950248718, 0.34638023376464844, -0.3343110680580139, 0.1374400109052658, -0.02668275125324726, -0.001010532258078456, 0.5198861956596375, 0.45462796092033386, 0.3274165391921997, 0.2170223444700241, -0.11446410417556763, -0.596476674079895, -0.232880637049675, -0.12333140522241592, 0.026379603892564774, -0.2660183012485504, 0.1329919546842575, -0.6437110900878906, -0.7931706309318542, -0.7697305083274841, -0.28149065375328064, -0.32851266860961914, -0.29644161462783813, -0.1386876106262207, 0.13133034110069275, 0.10491970181465149, 0.5453724265098572, 0.6447060704231262, 0.6553425788879395, 0.30957338213920593, -0.09406007081270218, -0.052575062960386276, -0.10997428745031357, 0.18312259018421173, -0.08347300440073013, 0.041845910251140594, -0.2766363322734833, -0.516937792301178, -0.27374380826950073, -0.6683500409126282, -0.3933534026145935, -0.2200930267572403, 0.22544102370738983, -0.5539692640304565, -0.23541000485420227, 0.347886323928833, -0.627911388874054, -0.17797835171222687, -0.10152482986450195, 0.21270962059497833, -0.3386598229408264, -0.25931695103645325, -0.051728755235672, 0.26392948627471924, 0.5945319533348083, 0.4264075458049774, 0.40796512365341187, 0.2159152776002884, -0.4340822398662567, -0.20072826743125916, 0.08338040858507156, -0.3902800977230072, -0.15288235247135162, 0.28406399488449097, -0.03315592184662819, -0.33877551555633545, 0.18607844412326813, -0.4736151099205017, -0.4983397126197815, -0.16913636028766632, 0.06824448704719543, -0.38092610239982605, 0.12263093143701553, 0.4355611801147461, -0.7384441494941711, -0.027778349816799164, 0.09716922789812088, -0.03235062584280968, -0.297996461391449, -0.045759279280900955, 0.09491480886936188, 0.1481371968984604, 0.46407392621040344, 0.37917083501815796, 0.18991121649742126, -0.037200797349214554, -0.07406114041805267, -0.2894749343395233, -0.39023908972740173, -0.2648690938949585, 0.00277279713191092, 0.11537422984838486, 0.07523905485868454, -0.395256906747818, -0.1640930026769638, -0.43096935749053955, -0.5139591693878174, 0.2720060348510742, 0.44386613368988037, -0.5434594750404358, 0.2476426064968109, 0.5693034529685974, -0.3804848790168762, -0.7667206525802612, -0.7871772050857544, -0.20895777642726898, -0.4842011034488678, -0.1661367565393448, 0.043156880885362625, 0.01841830648481846, 0.45803359150886536, 0.3587512969970703, 0.04130033776164055, 0.29897627234458923, -0.10510977357625961, -0.4476611316204071, -0.0003573415451683104, 0.004760958254337311, -0.11447646468877792, -0.38396790623664856, 0.27019640803337097, 0.033262621611356735, -0.892953634262085, -1.0484974384307861, -0.6311286091804504, -0.029932640492916107, 0.5809633731842041, -0.1565529704093933, 0.12282602488994598, -0.3767026960849762, -0.4246508479118347, -1.3914231061935425, -0.7390585541725159, -0.8996522426605225, -0.5021815299987793, 0.11375248432159424, 0.12685967981815338, 0.15793436765670776, 0.6617642045021057, 0.35130494832992554, -0.26646435260772705, -0.3978912830352783, -0.7374029755592346, -0.014779687859117985, 0.10741036385297775, 0.034595243632793427, -0.046422217041254044, 0.0318782702088356, 0.35086584091186523, 0.03456375002861023, 0.05677687004208565, -0.11757317185401917, -0.5925152897834778, -0.3700716495513916, 0.41552242636680603, -0.8066938519477844, -0.19579562544822693, -0.8376508355140686, -0.6606847643852234, -1.6553552150726318, -0.9084150791168213, -0.5533148050308228, -0.20404097437858582, 0.11268243193626404, 0.2933450937271118, 0.5346908569335938, 0.536267101764679, 0.14403267204761505, -0.7851323485374451, -1.217312216758728, -0.7552371025085449, -0.2010660022497177, -0.14980243146419525, -0.15959835052490234, -0.5318444967269897, -0.5941476821899414, -0.27782949805259705, -0.3389647603034973, 0.26381179690361023, 0.6944648623466492, 0.30212169885635376, 0.456792414188385, -0.6486958861351013, -0.20259113609790802, 0.03517817333340645, -0.18738391995429993, -0.7391986846923828, -0.543025553226471, -0.05318194627761841, -0.42744866013526917, -0.2079165130853653, -0.29323601722717285, 0.20983149111270905, 0.25807857513427734, 0.12374596297740936, -0.3701188862323761, -0.9942314624786377, -1.2457112073898315, -0.8402941823005676, -0.8937276601791382, -0.8151947259902954, -0.14945970475673676, -0.5774521231651306, -0.5748645663261414, -0.4727153480052948, -0.12462832033634186, 0.3201218545436859, 0.22809690237045288, 0.41659578680992126, 0.020588375627994537, -0.4582444131374359, -0.19760707020759583, -0.5965036153793335, -0.005836937110871077, 0.14090286195278168, 0.15730607509613037, -0.33275479078292847, -0.01346204336732626, -0.004303786903619766, -0.3453758656978607, 0.019995948299765587, 0.025719616562128067, -0.28244343400001526, -0.39929068088531494, -0.8505123257637024, -0.6449111104011536, -0.7004286050796509, -0.8264764547348022, -0.9212064146995544, -0.39415308833122253, -0.2746925354003906, -0.2013826221227646, -0.05108014494180679, 0.04306671395897865, 0.28125327825546265, 0.22810520231723785, 0.3369467556476593, 0.3281250298023224, -0.2714588940143585, -0.1590021401643753, -0.1652737855911255, -0.17322853207588196, 0.3597618341445923, 0.22933579981327057, -0.3027702569961548, -0.11770254373550415, 0.0441349558532238, -0.19216293096542358, -0.4190090298652649, -0.6420612335205078, -0.5597414970397949, -0.3455735445022583, -0.4080990254878998, -0.6358451247215271, -0.568618655204773, -0.9180523753166199, -0.4934438169002533, -0.4526379704475403, 0.275196373462677, 0.15124665200710297, 0.22211557626724243, 0.11130407452583313, -0.026705849915742874, -0.33750951290130615, 0.009495416656136513, 0.3255990147590637, 0.3597109615802765, -0.11358101665973663, 0.09059125185012817, 0.21935294568538666, 0.45015954971313477, 0.19025103747844696, 0.13040216267108917, -0.052760787308216095, 0.0036555638071149588, -0.24451874196529388, -0.7775065302848816, -0.5728133916854858, -0.2574741542339325, -0.20805825293064117, -0.5366497039794922, -0.07361206412315369, -0.30277219414711, -0.7590821981430054, -0.19304069876670837, -0.038088150322437286, -0.10099753737449646, 0.02316880039870739, 0.2497294694185257, -0.1480725109577179, -0.24555011093616486, 0.04940718039870262, -0.056531354784965515, 0.05333579331636429, 0.05965056270360947, -0.9269461035728455, -0.8313457369804382, -0.05011193826794624, -0.0028596294578164816, 0.19519788026809692, -0.18314717710018158, -0.28195786476135254, -0.08072275668382645, -0.20469218492507935, -0.3643341660499573, 0.09327567368745804, 0.055048439651727676, -0.39662808179855347, -0.7085438966751099, -0.14885325729846954, 0.024238407611846924, -0.198892280459404, -0.2429928332567215, -0.22016452252864838, -0.34043601155281067, -0.4674054980278015, 0.002890401054173708, 0.5014486908912659, 0.07516846060752869, 0.4216035306453705, 0.012498997151851654, 0.08159784227609634, 0.03729476034641266, -0.8156847357749939, -0.6382725238800049, -0.018504541367292404, -0.1439722627401352, 0.07659778743982315, 0.39900848269462585, -0.27631354331970215, -0.21449947357177734, -0.03470083698630333, -0.429545134305954, -0.27437812089920044, -0.30179563164711, -0.09037362039089203, -0.786196231842041, -0.35492467880249023, 0.1057850643992424, 0.01105538010597229, -0.23996417224407196, 0.10945840924978256, 0.5353490710258484, -0.14021961390972137, -0.10718550533056259, -0.09453870356082916, 0.5640039443969727, 0.5172246694564819, 0.01671801507472992, -0.08366383612155914, 0.0019192025065422058, -0.2071974277496338, 1.023678183555603, -0.06187071651220322, -0.3074905276298523, -0.27066007256507874, -0.05957043170928955, -0.20507001876831055, 0.0068258680403232574, -0.6188459396362305, -0.652129054069519, -0.6902468204498291, -0.547230064868927, -0.22967208921909332, -1.0400060415267944, -1.1568515300750732, -0.5866118669509888, -0.11556380242109299, 0.05338435620069504, -0.24686746299266815, 0.18266747891902924, -0.04502293840050697, 0.18262949585914612, 0.19126954674720764, -0.19524922966957092, -0.2707221508026123, 0.04785726219415665, -0.0025682225823402405, -0.06420841813087463, -0.08333148062229156, -0.12356188893318176, -0.7163558006286621, -0.6526711583137512, -0.5217801928520203, -0.5836150050163269, -0.5152021646499634, -0.48406678438186646, -0.5659123659133911, -0.7768935561180115, -1.4183547496795654, -1.5743707418441772, -0.6115298867225647, -0.9241290092468262, -0.9503247737884521, -0.27351394295692444, -0.4921240210533142, -0.125046044588089, -1.1189086437225342, -1.1678375005722046, -0.8784864544868469, -0.3203815519809723, -0.14617867767810822, 0.20783764123916626, -0.062298838049173355, 0.03324441611766815, -0.01788056641817093, 0.049060650169849396, 0.04663296788930893, -0.07232800871133804, 0.1425507515668869, 0.16221371293067932, -0.08677846938371658, -0.279018759727478, -0.41507408022880554, -0.19908247888088226, -0.420797735452652, -0.5233134627342224, -0.7077471017837524, -0.9533967971801758, -0.7975507378578186, 0.605478048324585, 0.18477806448936462, -0.44689518213272095, -0.7740200757980347, -0.5994722843170166, 0.009928464889526367, 0.011081242933869362, -0.06932919472455978, 0.3786557614803314, -0.07800740748643875, 0.049345992505550385, -0.06561310589313507, 0.03640531003475189], [0.052214644849300385, -0.0777038037776947, -0.06272711604833603, 0.08205238729715347, -0.04204307124018669, -0.07426679879426956, 0.048995308578014374, 0.032030992209911346, -0.05749579519033432, -0.044087015092372894, 0.05336790531873703, 0.006685182452201843, 0.1258477121591568, 0.1440940648317337, -0.06323851644992828, 0.08418817818164825, -0.06726805120706558, 0.07875043898820877, -0.019238173961639404, 0.04831183701753616, 0.042823709547519684, -0.06880450248718262, 0.023634105920791626, 0.024478711187839508, 0.011240541934967041, 0.048853568732738495, 0.011161044239997864, 0.08098036795854568, 0.04408340901136398, -0.08364856988191605, 0.07485192269086838, -0.05976465344429016, 0.04918568208813667, -0.024867238476872444, 0.13883623480796814, -0.0475255623459816, 0.3304402828216553, 0.28985053300857544, 0.3314151465892792, 0.3333433270454407, 0.6470824480056763, 0.610873281955719, -0.5162561535835266, -0.5911990404129028, -0.6224918365478516, -0.2726687490940094, 0.14866118133068085, 0.14954274892807007, -0.3302680552005768, -0.1422349214553833, -0.039899587631225586, -0.010545345023274422, 0.07127412408590317, -0.021606557071208954, 0.05300673097372055, 0.007503911852836609, -0.08353735506534576, 0.025639258325099945, 0.00045277128810994327, 0.15951193869113922, 0.1479872167110443, 0.13720576465129852, -0.031148577108979225, 0.24646112322807312, 0.7015972137451172, 1.0350251197814941, 1.2692967653274536, 0.8557351231575012, 0.742828905582428, 0.740938663482666, 0.4066098630428314, -0.21049602329730988, -0.6314536333084106, -0.07247642427682877, -0.0840979814529419, -0.17184767127037048, -0.2903556525707245, 0.04353702813386917, -0.10178767889738083, -0.1588902473449707, -0.24055935442447662, -0.10271558910608292, 0.030374981462955475, 0.01474190503358841, 0.06847140938043594, 0.018673919141292572, -0.34587082266807556, -0.25241395831108093, -0.15890823304653168, 0.38047996163368225, 0.7189363837242126, 0.6015290021896362, 0.9165128469467163, 1.479934811592102, 1.3074638843536377, 1.6689960956573486, 0.5225977301597595, -0.029602253809571266, 0.2032669484615326, -0.26088523864746094, -0.22935810685157776, -0.10756555199623108, -0.5410743355751038, -0.11124827712774277, -0.014996785670518875, -0.33932021260261536, -0.26611432433128357, -0.006687301676720381, -0.26934194564819336, 0.08855348825454712, 0.0025969238486140966, -0.044736362993717194, -0.0025498420000076294, -0.026246562600135803, -0.2252819985151291, -0.15887783467769623, 0.2306426763534546, -0.17705975472927094, 0.3813231587409973, 0.47581246495246887, 0.9648878574371338, 0.6912642121315002, 0.23450392484664917, 0.14272244274616241, 0.11445633322000504, 0.042144548147916794, 0.09810128062963486, -0.06596171855926514, -0.21033960580825806, 0.029456045478582382, -0.19026847183704376, 0.026219384744763374, -0.09029438346624374, -0.16005417704582214, -0.22430507838726044, -0.6173915863037109, -0.36656755208969116, -0.6084519624710083, -0.6655429005622864, 0.3629474639892578, 0.048195548355579376, -0.05464189872145653, 0.06902030855417252, -0.10792791843414307, 0.36317166686058044, 0.3441489636898041, 0.7477197647094727, 0.4820154905319214, 0.5306254029273987, 0.28764140605926514, 0.30362364649772644, -0.08705663681030273, -0.1500045210123062, -0.013696841895580292, 0.11499517410993576, 0.37150809168815613, -0.00568335922434926, -0.027623260393738747, 0.2536899149417877, 0.16707219183444977, -0.339816689491272, 0.15243616700172424, -0.013264250010251999, -0.07029969245195389, -0.2282056361436844, -0.49298006296157837, -0.6989303827285767, -0.30267781019210815, -0.021299131214618683, 0.1005973070859909, -0.48178672790527344, 0.031583480536937714, -0.2114463895559311, 0.9175282716751099, 0.405849426984787, 0.09544581919908524, 0.23517583310604095, 0.19441749155521393, 0.22990140318870544, -0.5094001293182373, -0.4132714867591858, -0.1306893527507782, 0.19703364372253418, 0.232357919216156, 0.1781431883573532, 0.02751265838742256, -0.0070551615208387375, -0.21401378512382507, -0.1578863263130188, -0.3575000464916229, -0.13918472826480865, -0.26352736353874207, -0.38077181577682495, -0.5579738020896912, -0.05752074345946312, -0.17894518375396729, -0.03517305478453636, 0.1646212339401245, -0.36335426568984985, 0.14405453205108643, 0.9296709895133972, 0.479971319437027, 0.6150720715522766, 0.2604861855506897, 0.0870639979839325, -0.15188716351985931, -0.3123966455459595, -0.31035009026527405, -0.33048775792121887, -0.02288695238530636, 0.17641080915927887, 0.07608344405889511, -0.12102322280406952, -0.28949087858200073, -0.2844347655773163, -0.273619145154953, -0.43516576290130615, -0.49627524614334106, -0.28419455885887146, -0.38033658266067505, -0.16589465737342834, -1.20830500125885, -0.5363850593566895, -0.014665878377854824, 0.03991313651204109, 0.3395148813724518, 0.454954594373703, 1.0130058526992798, 1.007954478263855, 0.32614681124687195, -0.1353527307510376, 0.33439916372299194, 0.17157115042209625, 0.01627638377249241, -0.16338597238063812, -0.44161495566368103, -0.31331270933151245, 0.06061897054314613, 0.062344636768102646, -0.14669868350028992, -0.4215744137763977, -0.2807445824146271, -0.6846342086791992, -0.664693295955658, -0.770160436630249, -0.8930842280387878, -0.47782188653945923, -0.47964948415756226, -0.3156866431236267, -0.42446789145469666, -0.9352216720581055, -0.31002989411354065, 0.035928722470998764, -0.0783335268497467, 0.5714309215545654, 0.6128873229026794, 0.5609337091445923, 0.08289118111133575, -0.08446962386369705, 0.25702163577079773, -0.14340609312057495, -0.050099145621061325, 0.14427433907985687, -0.3947807848453522, -0.31934264302253723, 0.01372311357408762, 0.28875964879989624, 0.6450878977775574, 0.7501872181892395, 0.8778802156448364, 0.2941291630268097, -0.19428394734859467, -0.12348096072673798, -0.7978377342224121, -0.875450074672699, -0.5952114462852478, -1.0093650817871094, -1.0993787050247192, -0.06632430106401443, -0.8413829803466797, 0.12104681134223938, 0.0021583151537925005, 0.13752683997154236, 0.48828160762786865, -0.49972522258758545, -0.08438900858163834, 0.13005930185317993, -0.21138513088226318, -0.384345144033432, -0.21863938868045807, 0.1971552073955536, -0.12123215198516846, -0.14135293662548065, 0.2868001461029053, 0.9512216448783875, 1.6265416145324707, 2.0934970378875732, 2.4582011699676514, 2.706362247467041, 2.3361737728118896, 1.6062620878219604, 0.15031741559505463, -0.020152734592556953, 0.7691858410835266, -0.6050130724906921, -0.0032383082434535027, -0.7379099726676941, -0.5204054713249207, 0.02856486476957798, 0.1970808506011963, -0.19618721306324005, 0.07110372930765152, -0.912948727607727, 0.07284721732139587, 0.3476179242134094, -0.038827523589134216, 0.03723292052745819, 0.19337458908557892, -0.09522590786218643, 0.18433737754821777, 0.1507662832736969, 0.09819064289331436, 0.2549627721309662, 0.5496259927749634, 0.7981672883033752, 1.758048176765442, 2.1839616298675537, 2.6666178703308105, 3.1148195266723633, 2.3482773303985596, 1.5704642534255981, 1.491292953491211, 0.5577275156974792, 0.23829728364944458, -0.7443196773529053, -0.5817573666572571, 0.17934253811836243, 0.5332830548286438, 0.04038939252495766, -0.6697692275047302, -0.17458476126194, 0.4537753760814667, 0.27571189403533936, 0.1833055019378662, -0.09613748639822006, 0.0451292023062706, -0.00657259626314044, 0.05257198214530945, 0.005456999875605106, -0.13285276293754578, -0.17043472826480865, -0.2108582705259323, 0.07909858226776123, 0.7131902575492859, 0.5515072345733643, 0.8607989549636841, 1.6050423383712769, 2.759688377380371, 2.84175968170166, 2.418808698654175, 1.3955748081207275, 1.2608813047409058, 0.6263951063156128, 0.42642852663993835, -0.184492826461792, 0.5060204267501831, 0.6835642457008362, -0.29497602581977844, -0.0043182820081710815, 0.17359548807144165, 0.165732741355896, 0.03921165317296982, 0.33692649006843567, 0.0536554716527462, -0.041638605296611786, -0.25968262553215027, -0.1821434050798416, -0.18614862859249115, -0.17900589108467102, -0.22467781603336334, 0.05325518175959587, 0.23376864194869995, 0.36056703329086304, 0.11406943202018738, 0.06584970653057098, 1.081634759902954, 2.50950026512146, 2.8727805614471436, 2.256702184677124, 1.3326070308685303, 0.8518020510673523, 0.34334370493888855, -0.4857988655567169, 0.008956599980592728, 0.8253355622291565, 0.15992188453674316, -0.2961023151874542, 0.021400008350610733, -0.06595034897327423, 0.027263963595032692, 0.45477721095085144, 0.30376341938972473, -0.20026178658008575, 0.1312885880470276, 0.14555105566978455, 0.09299330413341522, -0.18068622052669525, 0.03892907872796059, 0.4357107877731323, 0.575912356376648, 0.2122768759727478, -0.27853673696517944, -0.36126965284347534, 0.17120565474033356, 1.0143558979034424, 1.9108390808105469, 1.7255847454071045, 1.2297555208206177, 0.6577560305595398, 0.3650553524494171, -0.23108185827732086, -0.1814192235469818, 0.014965865761041641, 0.5462049841880798, 0.18965643644332886, 0.8289497494697571, 0.11648296564817429, 0.5344944000244141, 0.5928287506103516, 0.14990608394145966, 0.03241550177335739, 0.2524019777774811, 0.32290536165237427, 0.26935139298439026, -0.004299443680793047, 0.1352868229150772, 0.32261279225349426, 0.3716709315776825, 0.052272506058216095, -0.25908342003822327, -0.03470563888549805, 0.05795396491885185, 0.08414926379919052, 0.7981383800506592, 1.1392006874084473, 1.391089677810669, 0.6515289545059204, 0.31034722924232483, 0.2170531004667282, -0.3316740393638611, 0.6791633367538452, 0.027088139206171036, 0.6989994049072266, 0.7729311585426331, 0.6632871031761169, 1.0072497129440308, 1.1991596221923828, 0.1617642194032669, 0.01103865634649992, 0.2824614346027374, -0.04913504421710968, -0.16403990983963013, -0.5845931172370911, -0.31602203845977783, 0.21176856756210327, -0.03180248662829399, 0.1825299710035324, -0.056327491998672485, 0.3306293487548828, -0.2334422767162323, 0.10187040269374847, 1.0329334735870361, 0.5680513381958008, 1.3046540021896362, 0.9282074570655823, 0.34195294976234436, -0.010898075997829437, -0.18831150233745575, 1.0003451108932495, 0.10949841886758804, 0.056355055421590805, 0.3921109437942505, 0.20219990611076355, 0.5714182257652283, 1.2480621337890625, 0.6286841630935669, 0.697458028793335, 0.37234604358673096, 0.4989619255065918, 0.17635151743888855, -0.05246303230524063, 0.08412788808345795, 0.07657212764024734, -0.1601475477218628, -0.21521586179733276, 0.09546469897031784, -0.01291158702224493, -0.08280076086521149, -0.017102032899856567, 0.12843073904514313, 0.5208903551101685, 0.6902468800544739, 1.0448802709579468, 0.5736615061759949, 0.08315536379814148, 0.21540658175945282, 1.704535722732544, -0.0371774397790432, 0.10397998988628387, -0.12977857887744904, -0.1137896478176117, -0.3133136034011841, 0.3761826455593109, 0.3204399049282074, 0.619570791721344, 0.9834460020065308, 1.0199702978134155, 0.716938853263855, -0.111351877450943, 0.3440687656402588, 0.1676742434501648, -0.228462815284729, 0.18050725758075714, 0.07430442422628403, -0.2236083745956421, 0.07381751388311386, 0.017738040536642075, 0.21362581849098206, 0.5917783975601196, 0.031175747513771057, 0.777267336845398, 0.3711569011211395, -0.24320147931575775, 0.381162166595459, -0.20590150356292725, 0.3659973740577698, 0.09207907319068909, -0.2907610535621643, -0.5049322843551636, -0.008455263450741768, -0.5050493478775024, -0.26933738589286804, -0.20344649255275726, -0.06893107295036316, 0.33724063634872437, 0.18112727999687195, 0.03145793452858925, 0.05591859295964241, 0.023625008761882782, -0.0525214821100235, 0.1696540117263794, -0.135153666138649, -0.23450513184070587, -0.018725067377090454, -0.2006760984659195, -0.457254022359848, 0.19039954245090485, -1.039064884185791, 0.7370266914367676, 0.38642919063568115, 0.08142273873090744, 0.7605518698692322, 0.03436042740941048, 0.17570610344409943, -0.2981036305427551, -0.10721065104007721, -0.15044540166854858, 0.24820609390735626, -0.3321279287338257, -0.06975159794092178, -0.42781785130500793, -0.47907328605651855, 0.11571140587329865, 0.21612942218780518, 0.14254577457904816, -0.14613275229930878, 0.03647831827402115, -0.19777943193912506, -0.1199292540550232, -0.3581942319869995, -0.09285180270671844, -0.20597028732299805, -0.6406257748603821, -0.006671488750725985, 0.09218776971101761, -0.2325231283903122, 0.8648619651794434, -0.2275083214044571, -0.1561945676803589, 0.4506894648075104, 1.567101001739502, -0.17811748385429382, -0.29827791452407837, -0.2400057166814804, 0.19859322905540466, -0.4266319274902344, -0.24189189076423645, -0.21475335955619812, -0.223983034491539, -0.21088196337223053, -0.20755988359451294, -0.10567893087863922, -0.14243358373641968, 0.11898630112409592, 0.04876231029629707, -0.037821415811777115, -0.05293908715248108, -0.10236936062574387, -0.3340698182582855, -0.547395646572113, -0.4524979591369629, 0.02646285854279995, -0.7409536838531494, -0.410393625497818, 0.49043506383895874, 0.06542892009019852, -0.14023393392562866, -0.051039136946201324, 0.8429182767868042, -0.22741596400737762, -0.41708576679229736, -0.2645336985588074, 0.219319149851799, -0.07862205058336258, -0.46617206931114197, -0.10243025422096252, -0.04581110551953316, -0.018126230686903, 0.2827151119709015, 0.33560046553611755, 0.32317405939102173, 0.2629491984844208, 0.31344932317733765, 0.08510537445545197, 0.03295200690627098, -0.08331406861543655, -0.34707310795783997, -0.1505606472492218, -0.0029854110907763243, -0.7137188911437988, -0.0652572363615036, -0.14708037674427032, -0.30967196822166443, -0.09420847147703171, -0.0396050289273262, 0.02386244386434555, -0.0017080436227843165, -0.2123969942331314, -0.5515134930610657, -0.5644465684890747, -0.35601767897605896, -0.1437387317419052, 0.027500446885824203, -0.017238464206457138, -0.11646880209445953, 0.3265434503555298, 0.44090116024017334, 0.06776560097932816, 0.049591995775699615, 0.09020446240901947, 0.26848500967025757, 0.27790310978889465, 0.5168474316596985, 0.544989824295044, 0.15773630142211914, -0.47614577412605286, -0.40037450194358826, -0.06563750654459, 0.5460677742958069, 0.20138326287269592, -0.16407470405101776, -0.04065195471048355, -0.01622939109802246, 0.06863751262426376, -0.18188409507274628, 0.06692098826169968, 0.0048475489020347595, -0.4340522289276123, -0.08258181810379028, 0.005902476608753204, -0.08337244391441345, -0.3141951858997345, 0.08406593650579453, -0.07633954286575317, -0.10315992683172226, -0.033074941486120224, -0.025134585797786713, 0.15800349414348602, -0.002383686602115631, -0.10328428447246552, 0.022200634703040123, 0.49332478642463684, 0.06285670399665833, -0.501794695854187, -0.30246812105178833, 0.10536950826644897, 0.2380058616399765, 0.9066257476806641, 0.523404598236084, 0.06816785782575607, -0.06724827736616135, 0.0672391876578331, -0.5267559885978699, -0.19321152567863464, -0.15353518724441528, -0.4049818217754364, -0.6908797025680542, -0.4034436047077179, -0.24870657920837402, -0.5063254833221436, -0.3991281986236572, -0.4871779680252075, -0.5577356219291687, -0.6636142730712891, -0.5084520578384399, -0.35485580563545227, -0.24182899296283722, -0.09397902339696884, -0.1722157746553421, 0.11796712130308151, 0.2275363653898239, -0.20036427676677704, -0.6584842801094055, -0.5134285092353821, -0.4918515384197235, 0.18477863073349, 0.1851537674665451, 0.011457748711109161, -0.0858071818947792, -0.05699963867664337, -0.055395107716321945, -0.08621793240308762, 0.033449724316596985, 0.37630966305732727, 0.4135623872280121, 0.42006149888038635, 0.09323715418577194, 0.10137567669153214, 0.19829367101192474, 0.044089075177907944, 0.3146832287311554, -0.02969016693532467, 0.24115388095378876, -0.06762059032917023, -0.43258166313171387, -0.2734486162662506, -0.017433473840355873, -0.08816604316234589, 0.029238317161798477, -0.3295578062534332, -0.40459442138671875, -0.28465116024017334, -0.046699490398168564, 0.12371030449867249, -0.008338138461112976, 0.02830234169960022, 0.06489791721105576, -0.02338685840368271, -0.018039941787719727, 0.03217245638370514, -0.08140925318002701, 0.08331330120563507, 0.114243283867836, 0.19903132319450378, 0.09102240949869156, 0.05105875805020332, -0.26593539118766785, -0.40168219804763794, -0.2885391414165497, -0.07573431730270386, 0.7268226146697998, 0.4534256160259247, 0.6924111247062683, 0.577118456363678, 0.16346651315689087, 0.04096291586756706, 0.20700430870056152, 0.13283288478851318, -0.07238529622554779, 0.01717287488281727, 0.029349982738494873, 0.06677531450986862, 0.08214341849088669, 0.019000321626663208], [-0.06100202351808548, -0.07988325506448746, -0.02506900578737259, -0.0822707787156105, -0.08147722482681274, 0.017443381249904633, 0.08312345296144485, -0.06504473835229874, -0.048226483166217804, 0.07191766053438187, 0.06634338945150375, 0.0033986419439315796, -0.3464239835739136, -0.5617911219596863, -0.44248297810554504, -0.05360977351665497, 0.040806643664836884, -6.601214408874512e-05, -0.03445965796709061, 0.019976116716861725, 0.009897187352180481, 0.041663430631160736, 0.022498778998851776, 0.08249302953481674, -0.05972126126289368, -0.020480193197727203, -0.05866678059101105, -0.07167499512434006, 0.0516432449221611, -0.07608546316623688, 0.007817134261131287, -0.07757265865802765, -0.03134792670607567, -0.44583314657211304, -0.6628262996673584, -1.056631326675415, -0.5905569195747375, -1.089022159576416, -1.030739188194275, -1.3911343812942505, -1.3921486139297485, -1.0794073343276978, 0.24258743226528168, -0.9224708080291748, -0.8683261275291443, -1.3810315132141113, -1.3988392353057861, -1.289609432220459, -0.9578452110290527, -1.1679325103759766, -0.935671865940094, -0.5322635173797607, 0.07917960733175278, -0.05753146857023239, -0.0585549995303154, 0.08289175480604172, -0.04454614222049713, -0.005653910338878632, -0.45909014344215393, -0.4997115433216095, -0.6803734302520752, -0.5002437829971313, -1.0968902111053467, -1.5402750968933105, -1.3460899591445923, -1.5089367628097534, -1.6794273853302002, -2.2989511489868164, -1.1438814401626587, -0.4418477714061737, -0.22290436923503876, -0.7176803946495056, -0.5636984705924988, -0.44356027245521545, -0.6203821301460266, -0.6466671228408813, -0.6549267172813416, -1.6700506210327148, -1.2795957326889038, -0.9576102495193481, -0.8420014381408691, -0.251584529876709, 0.024914421141147614, -0.053771235048770905, 0.054789744317531586, -0.08243049681186676, -0.24843564629554749, -0.641381025314331, -0.2994692325592041, -0.3424578011035919, -1.3193074464797974, -1.8737258911132812, -1.4783364534378052, -1.4620157480239868, -1.1507201194763184, -0.4012033939361572, -0.9167513847351074, -0.935476541519165, -0.3848065435886383, -0.16018961369991302, -0.2057041972875595, 0.04543028771877289, -0.4768182933330536, -0.4535004198551178, -0.2436344176530838, -0.19788597524166107, -0.13278333842754364, -0.5348622798919678, 0.0443912036716938, -0.552412211894989, -0.3256177604198456, -0.010973811149597168, 0.0762556865811348, -0.02523748390376568, -0.33418330550193787, -0.4519428014755249, -0.08651413768529892, 0.12402404099702835, -0.3310488760471344, -0.21443364024162292, -0.24829187989234924, -0.6951188445091248, -0.35800060629844666, -0.5728439688682556, -0.3681911528110504, 0.05850294232368469, -0.09717563539743423, -0.27203962206840515, 0.07598531246185303, -0.11546226590871811, 0.10517921298742294, 0.2363191843032837, 0.14773216843605042, 0.14383547008037567, -0.079515740275383, 0.047652341425418854, 0.5454280972480774, -0.1391586810350418, -0.5131695866584778, -0.3463262915611267, 0.05949307233095169, -0.03057132288813591, -0.7279394268989563, 0.2568782866001129, -0.12712955474853516, 0.017089087516069412, -0.14729753136634827, -0.10877158492803574, 0.1850171834230423, -0.18610507249832153, -0.44757363200187683, -0.5402064323425293, -0.5099967122077942, -0.2528175115585327, -0.22765015065670013, -0.0907188355922699, -0.13278897106647491, 0.0948677659034729, 0.40491244196891785, 0.02784915454685688, 0.4995976388454437, -0.16383017599582672, -0.14545129239559174, -0.09493651986122131, -0.048197947442531586, 0.1745595932006836, -0.5552996397018433, -0.304232120513916, -0.0485597662627697, -0.3300763964653015, -0.11779610067605972, -0.6640845537185669, -0.13812831044197083, -0.10181046277284622, -0.19598837196826935, -0.195409893989563, 0.07649026066064835, -0.20733746886253357, -0.5243794322013855, -0.6832068562507629, -0.6315507292747498, -0.6174379587173462, -0.3453323543071747, -0.24104338884353638, -0.25484389066696167, 0.05666899308562279, 0.24511484801769257, 0.05434754490852356, 0.030315358191728592, -0.15299850702285767, -0.3441789746284485, 0.07111342251300812, -0.26139381527900696, -0.580909013748169, -0.10512156039476395, -0.38871055841445923, 0.06404440850019455, -0.4056086838245392, 0.3100297749042511, -0.4799363613128662, 0.055428482592105865, 0.13684731721878052, -0.3478565514087677, -0.001876230351626873, -0.2955414056777954, -0.560745358467102, -0.4862375259399414, -0.3612898290157318, -0.4993096590042114, -0.5024438500404358, -0.4323018789291382, -0.5818179845809937, -0.42242366075515747, 0.04487426578998566, -0.19053637981414795, -0.15238267183303833, -0.23413024842739105, -0.47600385546684265, -0.4163641035556793, -0.06388089805841446, -0.08167323470115662, -0.32720473408699036, -0.12396647036075592, -0.32361820340156555, -0.4889683127403259, -0.7695416808128357, -0.4078435003757477, -0.6219869256019592, -0.47067224979400635, -0.1563475877046585, -0.10289517045021057, -0.3237304389476776, -0.7357676029205322, -0.5323521494865417, -0.3956119418144226, -0.3039173483848572, -0.3442864418029785, -0.3351937532424927, -0.5945899486541748, -0.42683932185173035, -0.35643377900123596, -0.017012886703014374, 0.023461805656552315, 0.057633284479379654, -0.08802755177021027, 0.0489923469722271, -0.13100318610668182, -0.10708127915859222, 0.08349885046482086, -0.008590489625930786, -0.15080593526363373, -0.3323497474193573, -0.19392547011375427, -0.6209081411361694, -0.24326930940151215, -0.2903531491756439, -0.14067955315113068, -0.49963676929473877, -0.10160882771015167, 0.06950704008340836, -0.03876238688826561, -0.04137340933084488, -0.012218233197927475, -0.009381037205457687, -0.14818502962589264, -0.3115403950214386, -0.7266684770584106, -0.726283073425293, -0.24355250597000122, 0.29924067854881287, 0.28929492831230164, 0.0693884864449501, 0.07662351429462433, -0.16581431031227112, -0.3381745517253876, -0.021129056811332703, -0.22267962992191315, -0.40068256855010986, -0.6016178131103516, -0.255822092294693, -0.14643855392932892, -0.2728702425956726, -0.395328551530838, -0.20943684875965118, 0.25805914402008057, -0.15158233046531677, 0.030846983194351196, -0.2037813812494278, 0.08081316947937012, 0.2131945937871933, 0.22401262819766998, -0.008234662935137749, -0.15260931849479675, -0.8405487537384033, -1.4249463081359863, -0.5472978949546814, -0.12882579863071442, 0.36036592721939087, 0.2593742609024048, 0.3948829174041748, 0.4327974319458008, -0.018409552052617073, -0.037829771637916565, 0.2923455536365509, -0.08188963681459427, 0.4105636477470398, -0.08321070671081543, -0.5305687189102173, -0.12161524593830109, -0.459672212600708, -0.2807264029979706, -0.9479482769966125, -0.4751911461353302, -0.10383651405572891, -0.06957037001848221, -0.012351167388260365, 0.2976064085960388, -0.05874478444457054, 0.06791207939386368, -0.10828238725662231, -0.39358291029930115, -0.8424548506736755, -1.0181962251663208, -0.3813748061656952, 0.13353323936462402, 0.23168247938156128, 0.1902993768453598, 0.35675927996635437, 0.2706115245819092, 0.07815836369991302, -0.12877576053142548, 0.1872531622648239, -0.2754199802875519, 0.36568310856819153, -0.35259613394737244, -0.5868123173713684, -0.056500084698200226, -0.8502350449562073, -0.8965612053871155, -0.3743809759616852, 0.35595110058784485, -0.2846498489379883, -0.046224962919950485, -0.08058717101812363, 0.2047615498304367, 0.20783613622188568, 0.4984683394432068, 0.5026845335960388, 0.6230043768882751, 0.42508214712142944, 0.24010571837425232, 0.31162530183792114, 0.24873673915863037, 0.15498566627502441, 0.2204461246728897, 0.38531431555747986, 0.40920475125312805, -0.2662010192871094, 0.10422800481319427, -0.23362186551094055, -0.22139626741409302, 0.2591157555580139, 0.15221542119979858, -0.6134029030799866, -0.007391281891614199, -0.5258609652519226, -0.6927689909934998, 0.33717551827430725, 0.7363231778144836, -0.02333437092602253, 0.2799072563648224, 0.4864880442619324, 0.3678784966468811, 0.3681318163871765, 0.6590257883071899, 0.7854380011558533, 0.7718446850776672, 0.5012345314025879, 0.4802776873111725, 0.42867928743362427, 0.15128782391548157, 0.2104586511850357, 0.33908727765083313, -0.049808356910943985, -0.0812222808599472, -0.1485034078359604, -0.2178139090538025, -0.13812799751758575, 0.04947858676314354, 0.46666982769966125, 0.023851711302995682, -0.0008711957489140332, 0.06777770072221756, -0.10999015718698502, -0.7582694888114929, 0.6035367250442505, 0.6325681209564209, 0.23647913336753845, 0.08899852633476257, 0.5921080112457275, 0.32918649911880493, 0.37826913595199585, 0.09769001603126526, 0.47683480381965637, 0.4823273718357086, 0.13738825917243958, 0.09080103784799576, -0.05015433579683304, 0.32864537835121155, 0.4942149519920349, 0.22845491766929626, 0.11931052058935165, -0.0583440326154232, -0.11998522281646729, 0.1371445655822754, -0.22658541798591614, 0.16411809623241425, 0.4106158912181854, -0.03367162495851517, 0.06403398513793945, 0.09389617294073105, -0.07687272131443024, 0.31487318873405457, 0.3530369699001312, 0.47467708587646484, 0.19093181192874908, 0.27864494919776917, 0.23161055147647858, 0.00359827047213912, 0.07233782112598419, 0.08845403045415878, 0.11471802741289139, 0.12941795587539673, -0.04985462501645088, 0.11539619415998459, 0.19533605873584747, 0.3702472448348999, 0.7671653032302856, 0.48798272013664246, 0.3582381010055542, -0.3363752067089081, -0.1236015260219574, 0.19574369490146637, -0.09087567031383514, -0.20175088942050934, -0.3325182795524597, 0.14372749626636505, -0.2513152062892914, -0.06995490193367004, -0.3782477378845215, 0.005880477838218212, 0.2985629439353943, 0.12890374660491943, -0.03431398421525955, -0.23855435848236084, 0.03999248892068863, -0.07470700889825821, -0.10862622410058975, 0.0036681212950497866, 0.18407341837882996, 0.16864502429962158, 0.012317966669797897, 0.2951013147830963, 0.42341920733451843, 0.6596182584762573, 1.017500877380371, 0.7055313587188721, -0.14419160783290863, -0.1552627980709076, 0.02575027383863926, 0.20322567224502563, 0.09989425539970398, -0.20733921229839325, -0.23620642721652985, -0.031334031373262405, -0.47115379571914673, -0.004975229501724243, -0.023546725511550903, 0.2154436856508255, 0.0018652630969882011, -0.25756800174713135, -0.037211909890174866, -0.06449343264102936, 0.30687659978866577, 0.0018621054477989674, 0.11183285713195801, 0.40916183590888977, 0.3504839837551117, 0.05731577053666115, 0.23110342025756836, 0.3713369071483612, 0.669684886932373, 0.8562495708465576, 0.5953640937805176, 0.0997282937169075, -0.49119505286216736, -0.5668655037879944, 0.028788872063159943, -0.22657938301563263, 0.07543753832578659, -0.6780610680580139, -0.216042160987854, 0.11201556771993637, -0.5466302037239075, -0.5371425151824951, 0.44083115458488464, 0.17295502126216888, 0.12327177077531815, -0.34901705384254456, 0.16935491561889648, -0.011969056911766529, -0.1842964142560959, 0.1533137857913971, 0.3504619300365448, 0.3339897692203522, 0.4006386399269104, 0.11298927664756775, 0.27471059560775757, 0.18987135589122772, 0.587421715259552, 0.4818306863307953, -0.2744669020175934, -0.5654485821723938, -0.4924822747707367, -0.2943195104598999, 0.2067309468984604, 0.20953145623207092, 0.022633586078882217, -0.45399799942970276, -0.7956676483154297, -0.07382949441671371, 0.711408793926239, 0.5165656208992004, -0.6714739799499512, -0.5101934671401978, 0.2677062451839447, -0.3741692304611206, 0.2899424731731415, -0.2579837143421173, -0.2087835669517517, 0.008871627040207386, -0.04339613765478134, 0.07293905317783356, 0.10522166639566422, -0.38852888345718384, -0.26472795009613037, -0.15030217170715332, 0.12339240312576294, -0.19407449662685394, -0.8158420324325562, -0.5335405468940735, -0.6785117983818054, -0.5364775061607361, -0.22817611694335938, -0.6082987785339355, -0.7276992201805115, -0.529987096786499, -0.8207945823669434, 0.16566087305545807, 0.4468424916267395, 0.05712268501520157, -0.5013830661773682, -0.23067405819892883, -0.13980531692504883, -0.39526671171188354, -0.24152305722236633, -0.04662228003144264, -0.24073804914951324, -0.347140908241272, -0.41177815198898315, -0.47829335927963257, -0.39143306016921997, -0.5465487837791443, -0.33900177478790283, -0.5079256892204285, -0.7300079464912415, -0.3752836287021637, -0.18382194638252258, -0.35076358914375305, -0.28369805216789246, -0.4308300018310547, -0.23417945206165314, -0.5061278343200684, -0.4527660608291626, -0.12790443003177643, -0.17577145993709564, -0.437048077583313, 0.5037919282913208, 0.1515251100063324, -0.0070742168463766575, -0.23198115825653076, -0.343482106924057, -0.99908047914505, -0.18252038955688477, -0.19515550136566162, -0.5609392523765564, -0.22240997850894928, -0.2756171226501465, -0.2946840524673462, -0.3733896315097809, -0.5171111226081848, -0.6177869439125061, -0.8899663686752319, -0.939983606338501, -0.5239183306694031, -0.4359971880912781, -0.24483250081539154, 0.06657331436872482, -0.17639701068401337, 0.03556181862950325, -0.15736603736877441, -0.3299502432346344, -0.655401349067688, -0.12110833078622818, -0.40265825390815735, -0.06343220174312592, 0.20333494246006012, 0.11643629521131516, -0.009080911986529827, -0.695986270904541, -0.8900876045227051, -0.5705230832099915, 0.06481742113828659, -0.33062851428985596, 0.017691336572170258, -0.348114013671875, -0.17056407034397125, -0.3073509633541107, -0.5595324635505676, -0.7464545965194702, -1.040501594543457, -0.6703736782073975, -0.3649573028087616, -0.3843325674533844, -0.25687146186828613, 0.3988744020462036, -0.04744108021259308, -0.026970641687512398, 0.28358781337738037, -0.2291264683008194, -0.2727164030075073, -0.1724204421043396, -0.18879075348377228, -0.022886676713824272, 1.539289951324463e-05, 0.04957520216703415, 0.1599860042333603, 0.21145151555538177, -0.4233614504337311, 0.319943904876709, 0.2540310323238373, 0.31501296162605286, 0.19056226313114166, 0.0023013646714389324, 0.027371911332011223, -0.5525619983673096, -0.5450108051300049, -0.7859614491462708, -0.398954838514328, -0.8039985299110413, -0.6138395071029663, -0.45078539848327637, -0.28007450699806213, 0.423545241355896, 0.07999300956726074, 0.12244902551174164, 0.1130482405424118, -0.3294980525970459, -0.07694385945796967, 0.1038842722773552, 0.17471882700920105, 0.0706210657954216, 0.07899200171232224, 0.07094626873731613, -0.5432619452476501, 0.28756219148635864, -0.28774479031562805, 0.3063965141773224, -0.3142487704753876, 0.0712476521730423, -0.017355985939502716, 0.13987688720226288, -0.11254037916660309, -0.4691823422908783, -0.24675549566745758, -0.41922247409820557, -0.4059888422489166, -0.688965916633606, -0.777630090713501, -0.419703871011734, -0.012767464853823185, 0.6375604271888733, 0.5999584794044495, 0.6196944713592529, 0.17311790585517883, 0.08850835263729095, 0.17445367574691772, 0.3311448097229004, -0.45826268196105957, -0.02552792802453041, -0.08445204794406891, 0.031004436314105988, 0.184217631816864, 0.06336570531129837, -0.45435860753059387, -0.4428212642669678, -0.2996898889541626, -0.4251171946525574, -0.46811434626579285, -0.6117899417877197, -0.5137500166893005, -0.4610252380371094, -0.5398907661437988, -0.5016902685165405, -0.7339859008789062, -0.533667266368866, -0.1787811666727066, 0.22759026288986206, 0.14155098795890808, 0.409162700176239, 0.6529014110565186, 0.9610458016395569, 0.5099306106567383, 0.20848605036735535, 0.14352042973041534, -0.24436034262180328, -0.4247870445251465, -0.0758705735206604, -0.0701785460114479, 0.04370059818029404, 0.07390912622213364, 0.1892760545015335, 0.02254427969455719, -0.26695573329925537, -0.15124377608299255, -0.14080409705638885, -0.024436768144369125, 0.03273393586277962, -0.346655011177063, -0.3141559362411499, -0.16367410123348236, -0.512791633605957, -0.41920986771583557, -0.16356274485588074, 0.029761988669633865, 0.2255798876285553, -0.41118454933166504, 0.11166420578956604, 0.14792393147945404, 0.22036641836166382, 0.14378473162651062, -0.12008266150951385, -0.052267078310251236, 0.27536454796791077, 0.03202652931213379, 0.026258625090122223, -0.08182808756828308, -0.049402326345443726, 0.021294809877872467, 0.009137362241744995, 0.08349225670099258, 0.08493173122406006, -0.060923945158720016, -0.24356183409690857, -0.43348032236099243, -0.1800248920917511, -0.984647810459137, -0.3376060128211975, -0.26591378450393677, -0.947782039642334, -1.0358481407165527, -0.15291136503219604, -0.01166643388569355, -0.8358787298202515, -0.7036755084991455, -0.4353588819503784, 0.28787827491760254, 0.45844390988349915, 0.04941720515489578, -0.1373315453529358, -0.06862078607082367, -0.010617338120937347, -0.06866608560085297, 0.007223606109619141], [0.07216339558362961, 0.06392870098352432, -0.06451018154621124, -0.044665660709142685, -0.07449761033058167, -0.019448965787887573, -0.058092065155506134, 0.032313838601112366, -0.05894888937473297, -0.02060730755329132, 0.0640193447470665, 0.007888756692409515, -0.28794050216674805, -0.15465281903743744, 0.2785678803920746, 0.04470670223236084, 0.07780452817678452, -0.0459585040807724, -0.08382263779640198, -0.0761578381061554, 0.06578726321458817, -0.06047334522008896, 0.06717293709516525, -0.030047185719013214, 0.011902913451194763, 0.008560150861740112, -0.05834965035319328, 0.058679185807704926, -0.0340520516037941, 0.03642002493143082, -0.037974197417497635, -0.007599562406539917, 0.17727647721767426, 0.20018331706523895, 0.5355213284492493, 0.6635344624519348, 0.5057132840156555, 0.8804991841316223, 0.7412236928939819, 0.9649858474731445, 0.9899070858955383, 0.845406174659729, -0.023082979023456573, 1.091998815536499, 0.9032653570175171, 0.8435878157615662, 0.3155730366706848, 0.6126764416694641, 0.7286831736564636, 0.6908541917800903, 0.6348769664764404, 0.5061182975769043, -0.013502918183803558, -0.04081720486283302, 0.03572642058134079, -0.04601733386516571, -0.07681353390216827, -0.02740570157766342, 0.19289721548557281, 0.5986838340759277, 0.5918088555335999, 0.5467371940612793, 0.8657804727554321, 1.1588499546051025, 0.8363604545593262, 1.342254877090454, 1.4538027048110962, 1.680079698562622, 1.3566609621047974, 0.7205711007118225, 0.5775741338729858, 1.3609105348587036, 1.4546699523925781, 1.0496495962142944, 1.33165442943573, 0.7603510022163391, 0.5150209069252014, 1.0307164192199707, 0.3303620517253876, 0.7350719571113586, 0.3021164834499359, -0.13677537441253662, 0.034851402044296265, -0.04815863072872162, 0.04482131451368332, -0.05763690918684006, 0.08757981657981873, 0.5821337103843689, 0.3631083071231842, 0.5010983943939209, 0.7870610356330872, 1.2240725755691528, 1.1827030181884766, 0.9338877201080322, 0.3666988015174866, -0.14841096103191376, 0.3680567443370819, 0.8427056670188904, 0.5745177865028381, 1.1731444597244263, 1.4515889883041382, 0.5976502895355225, 0.52344810962677, 0.0834202840924263, 0.39191320538520813, 0.24466361105442047, 0.4094276428222656, 0.49283257126808167, 0.6518828868865967, 0.3627963662147522, -0.25549617409706116, 0.03276866674423218, -0.06874120980501175, -0.08969512581825256, 0.06208810955286026, -0.03345301374793053, -0.2723366320133209, 0.10513082146644592, 0.3303912580013275, 0.6119144558906555, 0.38789793848991394, 0.5794939398765564, 0.6953395009040833, 0.3793317675590515, 0.489879846572876, 0.24679474532604218, 0.9427582621574402, 1.5770400762557983, 1.32343590259552, 0.7729442119598389, 0.6104185581207275, 0.1916130930185318, 0.04788622260093689, -0.019952446222305298, -0.016988025978207588, 0.024118147790431976, -0.6848844885826111, -0.2532889246940613, 0.15885910391807556, 0.26585498452186584, 0.031931616365909576, 0.03490496426820755, 0.2143610268831253, -0.023176684975624084, 0.20596355199813843, -0.2608884572982788, 0.19817474484443665, 0.6671391725540161, -0.02041194774210453, 0.23946546018123627, 0.04106902703642845, -0.03280695527791977, 0.33246052265167236, 0.6571957468986511, 0.4775509536266327, 0.22702543437480927, 0.676778256893158, 0.15782982110977173, -0.055366918444633484, -0.17391493916511536, -0.29015377163887024, 0.4277951121330261, 0.2015565037727356, 0.1081097200512886, -0.16310760378837585, 0.1294655203819275, 0.24784313142299652, -0.11363445967435837, 0.05321647971868515, 0.4348981976509094, -0.1132216528058052, 0.31831708550453186, -0.19907234609127045, -0.15324024856090546, 0.5524916052818298, 0.3646077811717987, 0.29446956515312195, 0.1607382446527481, 0.07439333200454712, -0.06054479628801346, -0.08690079301595688, -0.2119411677122116, -0.46063217520713806, -0.3532900810241699, -0.4996988773345947, -0.5543723106384277, -0.30435171723365784, -0.14281681180000305, 0.004737294744700193, 0.028085628524422646, -0.00021075305994600058, -0.11593341827392578, 0.032870419323444366, 0.3836628496646881, -0.2199782133102417, 0.08854670822620392, 0.021721795201301575, 0.19851037859916687, -0.023669365793466568, 0.05244757607579231, -0.016475621610879898, -0.33196815848350525, 0.4494887590408325, 0.35017797350883484, 0.33974677324295044, -0.28370562195777893, -0.3600468039512634, -0.27953460812568665, -0.36480429768562317, -0.6413155794143677, -0.3083372414112091, -0.5180600881576538, -0.9273315072059631, -0.6544449329376221, -0.4386117160320282, -0.3759535551071167, -0.37283292412757874, -0.23904390633106232, -0.1925276219844818, -0.5180703401565552, 0.3707812428474426, 0.13355489075183868, -0.4780901074409485, 0.17402072250843048, 0.3270661532878876, 0.20643967390060425, 0.030531421303749084, 0.4174579083919525, -0.37661847472190857, -0.6187790632247925, 0.2657487094402313, 0.14338095486164093, 0.07515193521976471, -0.2891448736190796, 0.04242706298828125, -0.37372520565986633, -0.35908007621765137, -0.012454514391720295, -0.012493674643337727, -0.4526000916957855, -0.7066563367843628, -0.6283969283103943, -0.7279594540596008, -0.41718414425849915, -0.043185580521821976, -0.4679664671421051, -0.39445391297340393, -0.2044323980808258, -0.19719856977462769, -0.5075849294662476, -0.15087170898914337, 0.469876766204834, 0.11857285350561142, 0.11112342774868011, 0.028951721265912056, 0.46411797404289246, 0.1177181676030159, 0.043502386659383774, 0.1414676010608673, -0.06655972450971603, -0.07843730598688126, -0.12947756052017212, -0.2605628967285156, -0.3659414052963257, -0.09409485757350922, 0.2435954213142395, 0.07537179440259933, -0.4136859178543091, -0.6370097398757935, -0.7609159350395203, -0.8551158308982849, -0.4962642192840576, 0.011963828466832638, -0.06297455728054047, -0.37944018840789795, -0.1704375147819519, 0.2817874848842621, -0.29929041862487793, 0.13715031743049622, -0.2963021993637085, 0.05464904382824898, -0.2523256540298462, 0.40404805541038513, 0.17709864675998688, 0.3436516225337982, 0.2715853154659271, 0.1511991173028946, -0.12373258918523788, -0.06543944776058197, -0.23254455626010895, 0.05296715721487999, 0.29711902141571045, 0.5723147988319397, 0.8800458312034607, 0.5468840599060059, -0.2727782726287842, -0.4640669524669647, -0.08919195085763931, -0.4779067635536194, -0.04272608831524849, -0.09948346763849258, 0.045688480138778687, 0.22606949508190155, 0.3485834300518036, 0.7917323112487793, -0.5502181649208069, 0.34343621134757996, -0.06120000407099724, -0.3174620568752289, 0.6164629459381104, -0.19960586726665497, 0.4482322633266449, 0.4834107458591461, 0.06263913214206696, 0.2793336808681488, 0.11917781829833984, 0.14551487565040588, 0.04155341908335686, 0.41321808099746704, 0.8677799105644226, 0.7180108428001404, 1.0674560070037842, 0.6851657629013062, 0.12686140835285187, -0.29024314880371094, -0.1776857078075409, -0.044079530984163284, -0.025271685793995857, -0.20716041326522827, -0.08911389112472534, 0.02654418535530567, 0.7810587882995605, 1.1386202573776245, 0.27582573890686035, 0.010039407759904861, 0.28629574179649353, -0.09848532825708389, 0.24927768111228943, -0.0482676662504673, 0.19756528735160828, 0.3080960512161255, 0.5296730399131775, 0.30848491191864014, 0.27402305603027344, 0.15100480616092682, 0.491275817155838, 0.6571555733680725, 0.7052295207977295, 0.7524845004081726, 0.47986260056495667, 0.4069135785102844, -0.2477177381515503, -0.27229031920433044, -0.06631240993738174, -0.008283216506242752, 0.08645977824926376, 0.2711484432220459, 0.04145410656929016, -0.014938228763639927, 0.4242056608200073, 0.2977697253227234, 0.02398989535868168, 0.019548609852790833, 0.4723127484321594, 0.34176501631736755, 0.4815662205219269, 0.2517794966697693, 0.44921430945396423, 0.334291011095047, 0.8442258238792419, 0.44982606172561646, -0.22464968264102936, -0.06650517880916595, -0.0060982294380664825, 0.19999217987060547, 0.04153183847665787, 0.24678291380405426, -0.03798079490661621, -0.15177659690380096, -0.4201175570487976, -0.5256937742233276, -0.3000057637691498, -0.30514225363731384, 0.42779505252838135, -0.2118830531835556, -0.1454750895500183, 0.2507915496826172, 0.8137103915214539, 0.5268126726150513, -0.2583516538143158, -0.03097637929022312, 0.41561996936798096, 0.29284119606018066, 0.06254658102989197, 0.4610370099544525, 0.1388750523328781, 0.038667310029268265, 0.5193289518356323, 0.187224879860878, -0.7202035188674927, -0.4023008644580841, -0.43449270725250244, -0.48568660020828247, -0.043253861367702484, -0.11639345437288284, -0.18432502448558807, -0.09773986041545868, -0.2051081359386444, -0.5811426043510437, -0.5252311825752258, -0.07194020599126816, -0.12193997204303741, -0.11502024531364441, 0.24112990498542786, 0.4210367500782013, 0.25122979283332825, 0.3874094486236572, -0.24076592922210693, 0.2879152297973633, 0.6478882431983948, -0.18792571127414703, -0.3140699863433838, 0.10907566547393799, -0.06705334037542343, 0.1520642340183258, -0.2004481852054596, -0.5230141282081604, -0.807106077671051, -0.6915103793144226, -0.17180748283863068, -0.5282957553863525, -0.5906710624694824, 0.0024952422827482224, 0.30195093154907227, 0.33941614627838135, -0.16588199138641357, -0.30827125906944275, -0.4139224588871002, -0.0073393299244344234, 0.21376214921474457, 0.4440034031867981, 0.09993945062160492, 0.27124840021133423, 0.3582627475261688, 0.5685554146766663, 0.36704832315444946, 0.008576453663408756, 0.06429462134838104, -0.3853534758090973, 0.43520793318748474, 0.12345464527606964, 0.00260646129027009, -0.09236873686313629, -0.3942236304283142, -0.3560634255409241, -0.4479292035102844, -0.5872191786766052, -0.09184976667165756, -0.13506026566028595, -0.15513591468334198, -0.3173716366291046, 0.09849932044744492, 0.1935553401708603, -0.014790616929531097, -0.42320993542671204, -0.43882444500923157, -0.14168806374073029, 0.29928475618362427, 0.20703744888305664, 0.1660315990447998, 0.2547876536846161, 0.18379032611846924, 0.4643843472003937, 0.4829057455062866, 0.49455147981643677, 0.27085426449775696, 0.08168923109769821, 0.1678200215101242, -0.10841389745473862, -0.12577718496322632, 0.2597080171108246, -0.32815462350845337, 0.06962141394615173, -0.3274623155593872, -0.3218104839324951, -0.14494088292121887, -0.023817287757992744, 0.10603106021881104, -0.016126159578561783, -0.1106676384806633, -0.2390965223312378, -0.30356499552726746, -0.37455517053604126, -0.3165459930896759, -0.21100382506847382, 0.2401994913816452, 0.33175361156463623, 0.171519935131073, 0.3410104215145111, 0.22183257341384888, 0.5063039064407349, -0.02288428507745266, -0.2375870943069458, 0.593190610408783, -0.2558206021785736, 0.04839369282126427, -0.04920443519949913, 0.04532676190137863, -0.135755717754364, -0.07131519913673401, -0.05153171718120575, -0.26903441548347473, 0.1106162816286087, 0.11268215626478195, 0.26337283849716187, 0.3025931417942047, 0.23093290627002716, 0.16150519251823425, -0.08427939563989639, -0.2191368192434311, -0.418041467666626, -0.13425864279270172, -0.05758429318666458, -0.15217778086662292, -0.05832228437066078, -0.25970613956451416, 0.05861159414052963, 0.22696088254451752, 0.49912041425704956, 0.12414701282978058, -0.6792294979095459, -0.43601927161216736, -0.500391960144043, 0.6404565572738647, 0.3215410113334656, -0.07233196496963501, 0.04277273640036583, -0.05475512146949768, -0.24668900668621063, -0.005338897462934256, -0.06454653292894363, 0.4573478102684021, 0.7905049920082092, 0.32744601368904114, 0.6233636140823364, 0.6169136166572571, 0.24279548227787018, 0.01262563094496727, -0.40192392468452454, -0.16217200458049774, -0.041601721197366714, -0.021028690040111542, 0.06989903748035431, -0.021544380113482475, 0.39408186078071594, 0.22792036831378937, 0.7320230007171631, 0.5119983553886414, 0.8105208873748779, -0.5768064856529236, -0.06966642290353775, 0.36041495203971863, 0.49115046858787537, 0.24846822023391724, 0.3951374888420105, 0.15992437303066254, 0.40945732593536377, 0.6322459578514099, 0.01941605657339096, 0.41525042057037354, 0.7539597749710083, 0.6971144080162048, 0.9854270219802856, 0.864483118057251, 0.4111114740371704, -0.02554391324520111, -0.1819591522216797, -0.2700696587562561, 0.07979284226894379, 0.35468292236328125, 1.0053184032440186, 0.6135300397872925, 0.4821988642215729, 0.7558109760284424, 0.24686996638774872, 0.013293650932610035, 0.8713237643241882, -0.37454453110694885, -0.125702902674675, 0.47959938645362854, -0.12371222674846649, -0.001465800916776061, 0.2284773886203766, 0.2618814706802368, 0.7909554839134216, 0.2725427448749542, 0.013769536279141903, 0.37235525250434875, 0.44317352771759033, 0.5133009552955627, 0.704371988773346, 0.7348269820213318, 0.5099059343338013, 0.33309194445610046, 0.2627667784690857, 0.337680846452713, 0.2582106292247772, 0.15826007723808289, 0.24471817910671234, -0.21966853737831116, -0.28132596611976624, 0.6040844321250916, -0.0023055649362504482, 0.33173513412475586, 0.6365014314651489, 0.0018731324234977365, -0.019080445170402527, -0.034010160714387894, 0.37016937136650085, -0.024863436818122864, -0.2424708604812622, 0.3085189759731293, 0.4104532301425934, -0.11172054708003998, -0.15787632763385773, 0.10561636835336685, -0.17741455137729645, -0.11749604344367981, 0.24088120460510254, 0.209287628531456, -0.035643480718135834, 0.2931217551231384, 0.15575385093688965, 0.1580769568681717, 0.07885459065437317, -0.139962300658226, 0.02162477746605873, -0.09659816324710846, -0.541327714920044, -0.10288262367248535, -0.20936167240142822, 0.4028085172176361, 0.23477202653884888, 0.07356469333171844, 0.078964002430439, 0.06818798929452896, 0.7410491704940796, 0.15896765887737274, -0.30087411403656006, 0.18259231746196747, -0.09553008526563644, -0.20444355905056, -0.06582362949848175, 0.08586424589157104, -0.5042229890823364, -0.23811188340187073, -0.4168437123298645, -0.1538633108139038, -0.4560790956020355, -0.21477533876895905, -0.3787011206150055, -0.21421073377132416, -0.3132975697517395, -0.5772111415863037, -0.4802907705307007, -0.4232766628265381, -0.5490314960479736, -0.35380223393440247, -0.43459445238113403, 0.665055513381958, -0.06873791664838791, -0.035521071404218674, 0.04084993153810501, -0.06549303233623505, -0.2075435370206833, -0.019789233803749084, -0.6367536783218384, -0.5785374641418457, -0.4021119475364685, -0.7113706469535828, -0.3169316351413727, -0.22584599256515503, -0.5085753798484802, -0.39952313899993896, -0.29155051708221436, -0.08265818655490875, 0.03044406697154045, -0.35098907351493835, -0.7573012113571167, -1.1304080486297607, -0.6487515568733215, -0.760995626449585, -1.0951006412506104, -0.29988327622413635, -0.02950475737452507, -1.1398595571517944, -0.10304629057645798, 0.545477569103241, -0.015359160490334034, 0.015746474266052246, 0.005293615162372589, 0.07357154041528702, 0.11248952895402908, -0.5452239513397217, -0.5077452659606934, -0.1352117359638214, -0.11168888956308365, -0.37569761276245117, -0.7737236618995667, -1.0579513311386108, -0.8043179512023926, -0.6455265283584595, -0.3009481430053711, 0.11439958214759827, -0.20164525508880615, -0.47615352272987366, -0.5513104796409607, -0.9196313619613647, -0.9147298336029053, -0.7195122838020325, -0.6065863966941833, -1.085401177406311, -0.9200161099433899, -0.9811694622039795, -0.22841385006904602, 0.19372104108333588, 0.33028116822242737, -0.05776166915893555, 0.012335389852523804, -0.0612940788269043, -0.02869105339050293, -0.06905405223369598, -0.49779877066612244, 0.28081023693084717, -0.3494073450565338, -1.2389812469482422, -1.2748825550079346, -1.3376966714859009, -0.4295805096626282, -0.33669498562812805, -0.26889607310295105, 0.29526135325431824, -0.6356199383735657, -1.210305094718933, -0.722865104675293, -0.7247508764266968, -0.5386220216751099, -0.1678743213415146, -0.04643969237804413, -0.5989159941673279, -0.1170978918671608, -0.5133441686630249, -0.13645194470882416, -0.020324548706412315, 0.0824088379740715, -0.030469346791505814, -0.024560999125242233, -0.024904843419790268, -0.07606302201747894, -0.020785227417945862, -0.31589362025260925, -0.1276865154504776, -0.48586711287498474, 0.02134997770190239, 0.28199639916419983, 0.17244592308998108, 0.3754449486732483, 0.12098006159067154, 0.16570989787578583, 0.19775377213954926, -0.5652431845664978, -0.9578447937965393, -0.4028346836566925, -0.26484307646751404, -0.4852641224861145, -0.325345516204834, -0.14697396755218506, -0.3469822108745575, -0.018887948244810104, -0.36381787061691284, 0.058421723544597626, -0.07958295196294785, 0.04266468435525894, -0.06998617202043533], [0.035550735890865326, 0.036073602735996246, 0.06477480381727219, -0.014829985797405243, 0.013357952237129211, 0.07580859214067459, 0.016745254397392273, -0.0782659724354744, 0.061789460480213165, 0.013739600777626038, -0.06957507133483887, 0.011414393782615662, -0.495574414730072, -0.3948575258255005, -0.04641268774867058, 0.0014599418500438333, -0.06433406472206116, 0.0505143478512764, -0.048461902886629105, 0.030906490981578827, -0.014657653868198395, -0.03317051753401756, 0.023067496716976166, -0.0856960341334343, -0.05097967013716698, 0.04874008148908615, -0.04483502358198166, -0.023904096335172653, 0.08453292399644852, -0.03270541504025459, -0.052681099623441696, -0.013783082365989685, -0.1832185983657837, -0.23469680547714233, -0.8749454021453857, -1.0306233167648315, -0.8373997211456299, -1.187294602394104, -0.9801652431488037, -0.5115419030189514, -0.5305109024047852, -0.6786351799964905, -0.47435006499290466, -0.5329671502113342, -0.44970041513442993, -1.2001396417617798, -1.1688672304153442, -1.302781105041504, -1.1078050136566162, -1.4084734916687012, -0.7759376764297485, -0.31365659832954407, 0.04436282068490982, 0.06914383918046951, 0.04266703873872757, 0.05258385092020035, -0.06955467909574509, 0.003708980977535248, -0.4516145884990692, -0.15883271396160126, -0.4103184938430786, -0.9503818154335022, -0.7788561582565308, -1.0880897045135498, -0.8751423954963684, -0.662599503993988, -0.5741751194000244, -0.9983441829681396, -1.1979122161865234, -0.8909962177276611, -0.7906602025032043, -1.0229510068893433, -0.8045995831489563, -1.0207445621490479, -0.9396829605102539, -1.661697506904602, -1.2254947423934937, -1.8003836870193481, -1.8300293684005737, -1.2883788347244263, -0.40129876136779785, 0.09449929744005203, 0.014958493411540985, 0.03415212780237198, -0.020613551139831543, 0.03881274163722992, 0.20072908699512482, 0.09917514771223068, 0.23734933137893677, -0.2566527724266052, -0.9572064280509949, 0.0516611784696579, 0.061129115521907806, -0.4531824290752411, -0.49667754769325256, -0.5685271620750427, -0.7259699702262878, -0.27181461453437805, -0.7153868675231934, -0.7293119430541992, -1.0743447542190552, -1.1929996013641357, -0.590242326259613, -0.3805316090583801, -0.19893690943717957, -0.7113833427429199, -0.7398943305015564, -0.7141989469528198, -0.19284385442733765, -0.18286149203777313, -0.25652799010276794, 0.03334628790616989, 0.040335021913051605, -0.003037253627553582, 0.38001778721809387, 0.6848788261413574, 0.394399493932724, -0.17040914297103882, -0.13616333901882172, 0.4364211857318878, 0.1672334223985672, -0.4164494574069977, 0.31509634852409363, 0.450979620218277, 0.11483576893806458, 0.2652975618839264, 0.12212527543306351, 0.0023157652467489243, -0.07895954698324203, -0.23577800393104553, 0.28751271963119507, 0.39789122343063354, 0.25921618938446045, 0.23622539639472961, 0.14864908158779144, 0.06458968669176102, -0.22208866477012634, -0.31018996238708496, -0.33144643902778625, -0.4950297772884369, 0.08326631039381027, -0.061674319207668304, -0.11208700388669968, 0.800166666507721, 0.44901517033576965, -0.11399863660335541, 0.19610582292079926, 0.021793942898511887, -0.10298147052526474, 0.2980762720108032, 0.21958206593990326, 0.06320233643054962, -0.2732602059841156, -0.2061411738395691, -0.36952972412109375, -0.1444631665945053, 0.10229790955781937, 0.1194058358669281, 0.6152994632720947, 0.38137075304985046, 0.7946178913116455, 0.7307950854301453, 0.7431763410568237, -0.06079068034887314, -0.1074395477771759, -0.37013623118400574, 0.10294415801763535, -0.3593428134918213, -0.019127890467643738, 0.34731948375701904, -0.03409482538700104, -0.33346042037010193, 0.10803698003292084, -0.42964619398117065, -0.22860132157802582, -0.4239458739757538, -0.09093034267425537, -0.08212248980998993, -0.09651340544223785, -0.20990322530269623, -0.30652061104774475, -0.15881185233592987, -0.21769219636917114, -0.19027669727802277, 0.09295923262834549, -0.1886042356491089, 0.546720027923584, 0.6249634027481079, 0.12986737489700317, 0.17829468846321106, 0.4765978157520294, 0.263393372297287, -0.31172192096710205, -0.20595237612724304, -0.27700546383857727, -0.08630149811506271, -0.19100068509578705, -0.5594732165336609, -0.16776329278945923, -0.9514785408973694, -0.03248821943998337, -0.08073662221431732, -0.2114429473876953, 0.2612079083919525, 0.2547057867050171, -0.18059617280960083, -0.43660736083984375, -0.4052215814590454, -0.2787030339241028, -0.23743924498558044, 0.20290832221508026, 0.021825460717082024, 0.20293280482292175, 0.16646616160869598, 0.22265690565109253, 0.3330608904361725, -0.25974756479263306, -0.058173876255750656, 0.32420653104782104, -0.04915052652359009, 0.17086650431156158, 0.1674380898475647, -0.21901081502437592, -0.030496133491396904, -0.3624417185783386, -0.40924322605133057, -0.6468590497970581, -0.4431479871273041, 0.07314487546682358, 0.20286870002746582, 0.2657446563243866, 0.1644459366798401, -0.20617426931858063, -0.29738518595695496, -0.24424773454666138, -0.5661190748214722, -0.29957160353660583, -0.029878899455070496, 0.3000018000602722, 0.2794763743877411, 0.17460957169532776, 0.2977339029312134, -0.14375104010105133, 0.03570156171917915, -0.13622881472110748, -0.24052618443965912, 0.012091360054910183, -0.04859519004821777, 0.015848122537136078, -0.11721620708703995, 0.3460121750831604, 0.5112543702125549, -0.1919190138578415, -0.737399160861969, 0.0017969792243093252, 0.2311854362487793, 0.3140142858028412, 0.09881602227687836, 0.20660345256328583, 0.21546456217765808, 0.16503000259399414, -0.22664874792099, -0.21417710185050964, -0.3498619496822357, -0.2353719025850296, 0.2045450210571289, 0.27798140048980713, 0.51868736743927, 0.3836163878440857, -0.03518681973218918, -0.13655315339565277, -0.16947481036186218, -0.19408877193927765, -0.20055104792118073, -0.179391011595726, 0.33222174644470215, 0.11334165930747986, 0.12449288368225098, 0.2882468104362488, -0.5510681867599487, -0.22256630659103394, -0.6656395196914673, -0.22074714303016663, -0.17427454888820648, 0.2119169533252716, -0.19642029702663422, 0.4476670026779175, 0.19775691628456116, 0.3483935296535492, 0.15992215275764465, 0.1718493103981018, 0.10203801095485687, 0.09455420821905136, 0.41322487592697144, 0.5129161477088928, 0.420148640871048, 0.024072127416729927, -0.009601403027772903, -0.1232781708240509, 0.12374100089073181, -0.06963241845369339, -0.046117495745420456, -0.012128212489187717, -0.04044587165117264, -0.05782247707247734, 0.26275700330734253, 0.6948994994163513, -0.18044626712799072, -0.35079509019851685, -0.5260740518569946, -0.6427620649337769, -0.36860010027885437, 0.1193615272641182, 0.29279711842536926, 0.3345073163509369, -0.16357655823230743, 0.4763045907020569, 0.20286303758621216, 0.1601516753435135, 0.208195760846138, -0.00814819149672985, 0.08681044727563858, 0.492046058177948, 0.11227460950613022, -0.4104784429073334, -0.24677033722400665, -0.0011483542621135712, 0.1463012546300888, -0.10683003813028336, -0.04068848118185997, -0.5179784297943115, -0.43003222346305847, 0.01959843561053276, 0.9873347878456116, 0.7296106219291687, -0.18748779594898224, -0.21070602536201477, -0.8454803228378296, -0.5179815292358398, 0.26856282353401184, -0.13223467767238617, -0.28302001953125, -0.1312752068042755, 0.5537642240524292, 0.4597778022289276, 0.394248902797699, 0.23826026916503906, 0.05801227688789368, 0.11634687334299088, 0.11854493618011475, 0.5330798625946045, -0.2888229489326477, -0.3962678015232086, -0.09542512148618698, 0.07496730238199234, 0.1661122739315033, -0.148811474442482, -0.2720664143562317, -1.3989161252975464, -1.6362180709838867, -0.9165679216384888, 0.8095845580101013, 0.7001563310623169, -0.2969696819782257, 0.2620195150375366, -0.5686825513839722, -0.4342110753059387, 0.1845318078994751, 0.1531696617603302, -0.351452112197876, -0.19881078600883484, -0.10780294984579086, 0.6560003161430359, 0.31148818135261536, 0.12171991914510727, 0.28068360686302185, -0.03947671875357628, 0.14153991639614105, 0.24962735176086426, -0.4475078284740448, -0.4121221899986267, 0.13824111223220825, 0.04321630671620369, -0.17183077335357666, -0.42339450120925903, -0.933066725730896, -1.8517178297042847, -1.7456480264663696, -0.8234778642654419, 0.6514608263969421, 0.6788704991340637, -0.0026515249628573656, 0.2063198685646057, -0.3617420792579651, -0.9575487971305847, 0.13939820230007172, -0.2977267801761627, -0.12353307753801346, -0.1687144935131073, -0.17157411575317383, 0.2645914852619171, 0.009130218997597694, 0.05059576407074928, 0.06288803368806839, -0.026982175186276436, -0.2445477545261383, -0.10993336886167526, -0.22630710899829865, -0.3149741590023041, 0.122503861784935, 0.007115605752915144, -0.35960111021995544, -0.578342616558075, -0.5307472348213196, -0.6707941293716431, -0.4450666308403015, -0.0003782359999604523, 0.45932629704475403, 0.751383900642395, 0.261237770318985, -0.18454119563102722, -0.01087601576000452, 0.2176940143108368, -0.08360111713409424, -0.3949894905090332, -0.035511117428541183, -0.33637040853500366, 0.13874775171279907, 0.24161168932914734, -0.009771836921572685, 0.07268335670232773, 0.2541646361351013, 0.38892415165901184, 0.1516329050064087, -0.10226701945066452, -0.08043564110994339, 0.03684478625655174, -0.007207157090306282, 0.032830338925123215, 0.25353357195854187, -0.08832862973213196, -0.1078590452671051, -0.3243635892868042, -0.10742850601673126, 0.08482091873884201, -0.21837718784809113, 0.8350870609283447, 0.46103283762931824, -0.3770122528076172, 0.3899715840816498, 0.23974062502384186, -0.1847328543663025, -0.36122527718544006, -0.21603959798812866, -0.21946494281291962, 0.15198813378810883, 0.3220047652721405, 0.21999679505825043, 0.24430851638317108, 0.45563048124313354, 0.25190916657447815, 0.4062480330467224, 0.061083026230335236, -0.1318773478269577, -0.32025617361068726, -0.027768975123763084, 0.11829089373350143, 0.2279326319694519, 0.2960135340690613, 0.2914355397224426, 0.11222828179597855, 0.2754668593406677, -0.3252090513706207, 0.13350655138492584, 0.6216928958892822, 0.009340922348201275, -0.0198746919631958, 0.5715395212173462, -0.14725792407989502, 0.001426271046511829, -0.27512431144714355, 0.14552059769630432, 0.4555972218513489, 0.7161825895309448, 0.15144768357276917, 0.29732295870780945, 0.4015677869319916, 0.16078267991542816, -0.09036100655794144, 0.24554868042469025, 0.20439475774765015, 0.2656993567943573, -0.10733640193939209, 0.250230997800827, 0.014085705392062664, 0.23778660595417023, 0.02168712578713894, 0.057721443474292755, -0.1804206222295761, 0.10136392712593079, -0.3161233961582184, -0.563605010509491, 0.03917183354496956, -0.09077274799346924, -0.3335248827934265, 0.5523822903633118, 0.07476463913917542, -0.12250658869743347, 0.2628779411315918, 0.9257288575172424, 0.9748843312263489, 0.6491791009902954, 0.797235369682312, 0.45054706931114197, 0.21193020045757294, -0.30457526445388794, -0.29471153020858765, 0.21640199422836304, 0.36879947781562805, 0.603086531162262, 0.26978179812431335, 0.2164795845746994, 0.025224197655916214, 0.24079202115535736, 0.44459185004234314, 0.13652721047401428, 0.07015791535377502, 0.2516529858112335, 0.09134092181921005, -0.21208295226097107, -0.30182144045829773, 0.5529652237892151, 0.455583781003952, -0.5555026531219482, 0.31628546118736267, -0.1464681327342987, 0.31099221110343933, 1.263465404510498, 0.8002890348434448, 0.6658637523651123, 0.6178881525993347, 0.005803706124424934, -0.3296157717704773, -0.5182933807373047, -0.37239304184913635, 0.16600775718688965, 0.06617318838834763, 0.5488997101783752, 0.2759612798690796, 0.1258552074432373, -0.0670483335852623, 0.19561628997325897, 0.0978626236319542, 0.10809595882892609, -0.1710978001356125, 0.42549335956573486, -0.23209059238433838, -0.01071580033749342, 0.8349472284317017, 0.3274151086807251, 0.07015303522348404, -0.4716377556324005, -0.44945937395095825, 0.4008423686027527, 0.8185296058654785, 0.8055879473686218, 0.8411496877670288, 0.7477280497550964, 0.5425228476524353, -0.038499247282743454, -0.689095139503479, -0.3681526780128479, -0.5673637986183167, -0.2819459140300751, -0.1262287050485611, 0.03755410760641098, 0.24535587430000305, 0.019116342067718506, 0.09576597809791565, 0.25396373867988586, 0.6615787148475647, 0.23811905086040497, 0.7020866274833679, 0.3979403078556061, 0.27669453620910645, -0.030995460227131844, 0.6162298321723938, 0.28632789850234985, 0.18602131307125092, 0.6083344221115112, 0.06790521740913391, 0.9744102358818054, 0.740483820438385, 0.29887470602989197, 0.5008848309516907, 0.6503756642341614, -0.413515567779541, 0.006991147063672543, -0.2305091768503189, -0.3476068079471588, -0.3054594397544861, -0.20096027851104736, -0.13531966507434845, -0.007416445761919022, -0.23771971464157104, -0.10406436026096344, -0.034658417105674744, 0.14800575375556946, 0.2780270278453827, 0.4216228723526001, 0.7488439083099365, 0.9153989553451538, -0.15282432734966278, 0.6858189702033997, 0.07252328097820282, -0.03504582867026329, 0.051189620047807693, 0.18327946960926056, 0.40246522426605225, 0.7839657068252563, 0.35446467995643616, 0.006761954631656408, 0.5755236744880676, 0.0983097106218338, -0.11192373186349869, -0.028423810377717018, -0.04520199075341225, 0.15081030130386353, 0.3052784502506256, 0.2635980248451233, 0.06352461129426956, 0.011439322493970394, 0.08826401084661484, -0.014047901146113873, 0.2887490689754486, 0.5326892733573914, 1.1485906839370728, 0.665535032749176, -0.1785980761051178, 0.39346128702163696, 0.10262014716863632, 0.7483027577400208, 0.38288646936416626, -0.02773839794099331, 0.04886388033628464, 0.08438730984926224, 1.274906039237976, 0.566071629524231, 0.002600810257717967, 0.22482985258102417, 0.17071828246116638, 0.20923694968223572, 0.3204694092273712, 0.16388355195522308, 0.1032172441482544, 0.4400756359100342, 0.3641447126865387, 0.45458880066871643, 0.15486478805541992, 0.4528982639312744, 0.09235037118196487, 0.28251421451568604, 0.4129623472690582, 0.5718722939491272, 1.068143367767334, -0.10567686706781387, -0.46023598313331604, 0.3576023280620575, 0.08946800976991653, 0.5789086222648621, 0.9349533319473267, -0.03849422186613083, -0.03434797748923302, -0.011498868465423584, -0.15096400678157806, 0.21144722402095795, -0.1591641753911972, -0.29527539014816284, -0.08100206404924393, 0.36344170570373535, 0.4375942051410675, -0.0025048970710486174, -0.02387239970266819, 0.16396835446357727, 0.12325923144817352, -0.15572546422481537, 0.2521227300167084, 0.08463609963655472, -0.16041412949562073, 0.31254369020462036, 0.9141742587089539, 0.7626186013221741, 0.8057031631469727, 0.02204577997326851, -0.15410608053207397, -0.14679163694381714, 0.09221263974905014, -0.04539236053824425, -0.3795658051967621, 0.0731673315167427, 0.05273737758398056, 0.06395170837640762, 0.5724724531173706, -0.6570345163345337, 0.012955996207892895, -0.07994340360164642, 0.07759089767932892, 0.07365085184574127, 0.3607872426509857, 0.4219984710216522, 0.27807536721229553, -0.04641161113977432, 0.40708014369010925, 0.6435102820396423, 0.24655792117118835, 0.1792704164981842, 0.07995226979255676, 0.4433719515800476, 0.6135162115097046, 0.4771634042263031, 0.3467195928096771, 0.21935120224952698, 0.4214637577533722, -0.036414582282304764, -0.10744952410459518, -0.07037520408630371, 0.0133646409958601, -0.017463304102420807, 0.008576586842536926, -0.03387269750237465, -0.08031164109706879, 0.21702276170253754, 0.2086937427520752, -0.028538275510072708, -0.42163848876953125, -0.17568287253379822, -0.22826407849788666, -0.1305677890777588, 0.05153273791074753, -0.07002134621143341, 0.2838801443576813, 0.29355624318122864, -0.30587634444236755, -0.14356276392936707, -0.23410888016223907, -0.1677524745464325, -0.29444727301597595, -0.45897477865219116, -0.37950780987739563, -0.17009085416793823, -0.4919079542160034, -0.5310050249099731, 0.25470420718193054, -0.24008315801620483, -0.07380890101194382, 0.01844588667154312, 0.05535279959440231, 0.021354645490646362, 0.01152803748846054, -0.013294212520122528, -0.4308469891548157, -0.7394664883613586, -0.17527128756046295, -0.5460525155067444, -0.4872131645679474, -0.8250607848167419, -0.7044511437416077, -0.10538920015096664, -0.1578531414270401, -1.0327744483947754, -0.9152941703796387, -0.5057066679000854, -1.3364938497543335, -1.2783482074737549, -0.45877161622047424, -0.47491756081581116, -0.29736918210983276, -0.680739164352417, -0.7429429292678833, -0.5004703402519226, 0.08466654270887375, 0.08474380522966385, -0.07778342813253403, -0.032156940549612045], [0.034063100814819336, -0.02487907186150551, -0.08078163117170334, -0.013769164681434631, 0.05309709161520004, -0.009806588292121887, 0.01999257504940033, 0.07345222681760788, 0.043016158044338226, 0.05225374549627304, -0.04073147848248482, 0.07656063884496689, 0.2972742021083832, 0.31223762035369873, 0.1789274364709854, 0.0020662201568484306, -0.02835627645254135, 0.037434399127960205, -0.025933485478162766, 0.004007279872894287, 0.013252615928649902, -0.06518411636352539, 