{"sizes": [784, 30, 20, 10], "weights": [[[-0.005827667591025265, -0.007614984854518996, -0.0035166268969447794, 0.0056389006588240176, -0.0006998418890134483, -0.0006814219044658435, 0.009005754772489436, -0.012233582152580996, -0.00021852155732228788, -0.007064521987452616, -0.01867652973824967, 0.00881294050071303, -0.012857402428362249, 0.0006067200618996044, 0.0003329088371174531, -0.007623928098703511, -0.005664201612835071, 0.008465958415913242, 0.015167345999142445, 0.002236610163050277, -0.00374641918264889, -0.005031322387620069, -0.0011872124218081082, 7.636063171526946e-05, -0.01582759266034195, 0.003654235617790267, 0.008108998489672753, 0.008724198947956655, -0.0021561468027881123, 0.010491979218353044, -0.0008997071817702983, 0.006466540452786251, -0.010303931307134355, -0.01218651760219646, -0.002702583504423387, -0.014014685983794298, -0.02135980950792455, -0.0038134434885613838, -0.007028196366028888, -0.006235604621570883, -0.011368028878782781, 0.003846882457652912, -0.05909672862739924, -0.13772368049237993, -0.01146579660192133, -0.015226413392191437, -0.01160218737486555, 0.0035521194998405577, -0.010345535944897555, -0.04614606627189954, -0.027839089390462347, 0.004759567197845, -0.0017565888342890763, -0.004524391358630988, 0.002410231377355661, -0.01433229319904837, 0.002148647838425324, 0.006067583102151048, 0.01024999589707296, -0.004675145647335331, -0.00302433617693436, -0.005641045562624606, -0.006764015874149845, -0.023283514312432547, -0.040788932612341566, -0.03329600184804575, -0.06950960844418097, -0.02536100449350159, -0.03223874142352703, 0.024210401917895804, -0.00293402690487043, -0.19979527261987212, -0.12365987472775601, -0.007198955524294182, -0.014001331087752986, -0.042208524865330485, -0.030448372183733557, -0.05525202554671482, -0.06586201905444783, -0.008824733172829146, -0.00618792516483549, -0.0010969547370907088, 0.004358243315079703, 0.00391404285798355, 0.014795760530050026, 0.0009029213079974544, 0.004619581606252353, -0.01655794646130904, 0.0002571199775228858, 0.011864232512981467, -0.033684968615199685, -0.008369446327902524, -0.0144927035637389, -0.07820056663676407, -0.1436563416646385, -0.07935002097278687, -0.019205423636215198, 0.20063333247748194, 0.2922796295343353, 0.17759354589910947, 0.16613108571632587, 0.2953449998244656, 0.30087495688973165, 0.22626367335824293, 0.1212926523900172, -0.025806054493136672, -0.013484115370421068, -0.03767988628573767, -0.010843503383026958, -0.0037263428168978503, 0.008449330680315358, -0.0032546938402065206, 0.013070935185958255, -0.0044872762501370475, -0.0021207553932565282, -0.004113635515331286, -0.015468144236582467, 0.0036124150758502743, -0.006129342574931735, 0.008166195157232709, 0.03744714123176003, 0.006143097948490134, -0.07697954341022603, 0.011149757468793231, 0.14454082736299131, 0.13057296766762938, 0.2435261189271287, 0.2948675731366581, 0.12792555106765624, 0.044725421441285836, 0.1981584650143151, 0.08885439194011674, 0.003913555804695167, 0.09245253979091163, 0.17846469210622107, 0.03206048336622496, -0.0010861797489586345, 0.05655213437093126, 0.048176269629552994, 0.008582452907365304, 0.0034382147189262855, 0.005281620279449378, -0.009591024122853436, -0.009084340601124596, -0.031786754886463535, -0.01839235109639019, -0.0007868611742679111, 0.010304182254507717, 0.09809037105965605, 0.07423578182173965, 0.14818117800029296, 0.21030374779400976, 0.2129394835694439, 0.2312363718211281, 0.2607562545780105, -0.10797768511623143, -0.07133743653740825, 0.012886416255497524, 0.13373641889667634, 0.23041865985997284, 0.1342964095312614, 0.0979667932610013, 0.15925229451250728, 0.051671540348030794, 0.01955587475588147, 0.14734568332882922, 0.015755014263721296, -0.00964050553096041, 0.004801082802758497, -0.009954387265252586, -0.007550359762966161, -0.014175285376970754, -0.033324634329190035, -0.026384955806031618, 0.08366647891029207, 0.17651565662578944, 0.22419267881898877, 0.09664654128560099, 0.10124493894168533, 0.04223418050088772, 0.20405872865515517, 0.24442096933943594, 0.07074865385058504, 0.22202442298649613, 0.18040458835226236, 0.24198636269093088, 0.17991465871464893, 0.2626521783163101, 0.25681024208520836, 0.3782133811687626, 0.297206528006861, 0.23438830420343976, 0.1575350243241814, 0.17239402447778124, 0.024226023429940895, 0.005216234038270727, 0.0023564679395959077, -0.0017208473302043046, 0.0011534372847613837, 0.015757207499766397, -0.04265312995208043, 0.04514754696028312, -0.015945186673490444, -0.0518907641840225, 0.3149423619645346, 0.20002327438006362, 0.23643474024313132, 0.46454613243460674, 0.5517680513249519, 0.3733027798081383, -0.05334110061498616, 0.3360684104925602, 0.34010926863148283, 0.4608372391325005, 0.5830344105983529, 0.43536864903189343, 0.41727718096296607, 0.3291233621198924, 0.12791178051861476, 0.17491202867679922, 0.3659401886581461, 0.2630457781042153, 0.04788452062767238, 0.008354770596817523, 0.005396051590004339, -0.008928066630303103, 0.031727103514355356, 0.03495215771168644, -0.042005168812726396, 0.030879320729282757, -0.0981032618477632, -0.09315494852158647, 0.011481429676649408, -0.01318521804152231, 0.27844630696161954, 0.44016319273734533, 0.4197632941407721, 0.36926038920807136, 0.062164654763384036, 0.35733954474332, 0.5013135518911822, 0.04551956676612728, -0.008120071883469865, 0.16208896422441124, 0.16359488952241208, -0.009318511908321782, -0.0971727397980002, 0.011637203167724663, 0.025314187432804783, 0.12571655523243733, 0.04128725461842576, 0.001205903611650777, -0.0032991426042320643, 0.0004945757040567396, 0.02595845759850641, 0.017614331598872202, -0.12789477575897726, -0.10212408288378769, -0.18321224018601723, -0.09556799283759074, -0.005590211517881793, 0.04413357167581624, 0.14514128612876112, 0.27128429012972766, 0.2100928033884411, 0.06481557667729687, -0.21474437731077758, -0.3047614606939822, -0.5376319209932303, -0.584887552206251, -0.5807311988414358, -0.01644219264659422, -0.1620440404728326, -0.19375206487395893, -0.09238283365462167, 0.033753909388463066, 0.06499361042813713, 0.029612731884981806, -0.000411501739142546, -0.05110962139924477, -0.009293817114859717, -0.0025741239155327223, -0.018486685446983075, 0.024135117350339772, -0.2049193637516818, -0.11487924284974464, -0.14168256876153318, 0.0361252238894292, 0.15805937088994557, -0.0553550639735253, -0.2916540799205229, 0.1274423531789461, 0.041575684912605604, -0.15801745408908963, -0.2540087222334309, -0.32314376321796545, -0.7099758959376763, -0.6470905836617644, -0.599825640748822, -0.38262964276752415, -0.4823486149532038, -0.32152622873636355, -0.16672188081420244, -0.0851824462290457, 0.03954407324796131, -0.14061718709132773, -0.04156587039085127, -0.020599531179422773, -0.0024391442399016128, -0.0006106144078156828, -0.05066038919469777, -0.024935305892049526, -0.3872093720124301, -0.19148960783929866, -0.11651057691299001, -0.09170558344089014, -0.05189328507192756, -0.20635482239640823, -0.17334034539442822, -0.28159976061106434, 0.07241025658230993, -0.417684118459596, -0.30787939461440555, -0.33098702907350785, -0.0964406806961553, -0.024891784936026284, -0.4310267297006843, -0.31387831305623504, -0.6485105608016843, -0.4723058283927583, -0.2692946707105062, -0.2773461390087172, -0.12281445435878476, -0.012264921859368472, 0.025720778584671117, -0.0072892301127819, 0.005891192870950529, -0.003560677413451674, 0.01265033777434153, -0.15562710612704134, -0.4162209029001198, -0.07896473005983635, -0.004854192445883433, -0.14964935182855246, -0.1783244590258796, -0.19543041199858419, 0.06232375520002724, 0.22039875174664353, 0.06008053171052229, -0.21814854526801244, -0.3107809550868139, -0.15187420578486707, -0.09941518278169763, 0.07118829048791403, 0.06053527736609505, 0.0785494186101099, -0.2881317458168405, -0.22959075040578272, -0.15901609888167287, 0.0827574467692797, 0.07377279302438293, 0.05135890055599218, -0.009899915131722161, -0.00971575152036303, -6.800494529996277e-05, -0.00703217355846322, -0.006999464105246571, -0.06905474656660798, -0.2510494380862938, -0.21112462717925537, -0.14330540263614885, 0.018446753744669697, 0.14828960523872162, 0.07211092858270707, 0.1076453023415565, 0.12172635697187995, -0.006545970018906079, -0.08328080387108108, -0.11408084560460537, 0.18419207495834333, 0.16136585654141292, 0.04409980222857638, 0.3048930483080146, 0.17636618922055586, -0.16555412640029019, -0.29729890439445456, -0.051738604413730904, -0.07655250150262664, -0.10163363511221854, -0.018100878033068923, 0.02735497416094554, 0.045021422499515025, 0.004151089297210229, 0.0001611990143203611, -0.015391838948847865, -0.02480783994492849, 0.008847115802413309, -0.08246500756502641, 0.09904464311731383, 0.45576367782446936, 0.20786490697725243, 0.02721052796386055, 0.020188656787076313, -0.10817032688159003, 0.08032027711842268, -0.004195955990160116, -0.0698202463880275, 0.3633632011430838, 0.3297100186427764, 0.2097401056015107, 0.407840582946677, 0.1691221927012038, -0.1484033880635904, -0.2011284533191231, -0.09268751257281854, -0.12136591494947609, 0.014300725384223676, 0.09225529463454617, 0.05484220134008487, 0.009785728074517521, 0.0035980610288185665, 0.007801021101862454, 0.003051391545460032, 0.031082941883534703, 0.10229917046416925, 0.05483498783921681, 0.05476402075673105, 0.19550131031412718, -0.2069711460660416, -0.14146832217402278, 0.05836050070852803, -0.11361765409291821, -0.10730506400164526, -0.08401436224790779, 0.23618801445566115, 0.4315367503751056, 0.38506472594009433, 0.26554326091799124, 0.12564459306306724, 0.16365331705856812, -0.007169512277266983, -0.14993351767815674, -0.09546130779376447, -0.09750968158668358, 0.12851664496595244, 0.20354699218461833, 0.07131480411404899, 0.0033044794122971755, -0.013444779224496503, 0.008829791789563866, 0.014520161330269054, 0.09401759575791681, 0.0016345497630643482, -0.17180645299364716, -0.10711590804961466, -0.06113133394776756, -0.2893163281239759, -0.09878123663844599, 0.1823235945979407, -0.0520579011431898, -0.11402639548320967, -0.3319557723024755, 0.40374413063223075, 0.29658126946124447, -0.17407442846001553, 0.06597778691965674, -0.011833334983400895, -0.08129121349708858, 0.08028200248907114, -0.14229109133511125, -0.16957364609193493, 0.10385973064361365, 0.34700443911888923, 0.15313413234258239, 0.021107523927455688, 0.008251513516792264, -0.013085596150382666, 0.009385887821126659, 0.033407281642551065, 0.10823434791785733, 0.12032629487564268, -0.07410647224009023, -0.1659600929456698, 0.06437018178533803, 0.12352200871503977, 0.0437115348772205, -0.17907621883795782, -0.0573970454325487, -0.1622797159108386, -0.22876873848584434, 0.3904792873455914, 0.12135244445194185, -0.12243535166634174, 0.05452472755701233, -0.1372322134240524, 0.1262068523041112, 0.04284079601286941, 0.13867988515571134, 0.043975146741405007, 0.11491046682083987, 0.06533346339119338, -0.05829178111125503, -0.010461543248637536, -0.013275886988055803, -0.00941437294539556, 0.001225627417735805, 0.0034823923956060487, 0.07604497403742541, 0.18148672552543946, 0.17846803359882638, 0.2837179955690005, 0.28317415464516027, 0.019513264982504865, -0.05160453299888669, -0.07848539118915951, -0.11750986915576549, -0.03643136260715841, -0.10730623538235204, 0.1328022067363209, -0.18284056433349313, 0.12691900932132055, 0.007208940424057105, -0.11695479376664634, 0.04816466530777868, 0.25871616569705264, 0.18913160558972006, 0.0930312838296678, 0.11384058117001408, 0.05503530840832738, -0.09245066568333385, -0.027440238497946873, -0.006442956446037289, 0.0035482840231867646, -0.006379710210238161, -0.0220429089976594, 0.11548172166595122, 0.16705890954190636, 0.1751775695631966, 0.19141558421763166, 0.10480663885971446, -0.16983165075374257, -0.2020217223427622, 0.034845832524971705, -0.08212338015710603, -0.1998178010548183, -0.3844577393724624, 0.13045601139362278, 0.2384867272287973, 0.2739382506901038, 0.10014599937372295, 0.15104326927575024, -0.0801062109589848, 0.19972359942697274, 0.15570854769104808, 0.1099949667586213, 0.009848651017017715, -0.09217396267586105, -0.0899610249439195, -0.007667980925763398, -0.002238938319389024, 0.009885261308515688, -0.010538985030049856, 0.016775784723400744, 0.12893000719047967, 0.1648657669286432, -0.008630170989698427, -0.032701435072733966, 0.12990690042995262, -0.12065354349415952, -0.14302301487918562, 0.0554110928978088, -0.060371798452901484, -0.27823461009566214, -0.20916474899596088, 0.23770098955760724, 0.34763865400456967, 0.19197919481772013, -0.10490035873298591, 0.030451035017991117, 0.04478706636708743, 0.28947161901802526, 0.28582410538679337, 0.103167900922541, -0.003116634228732053, -0.14906631213980032, -0.06867341674582307, -0.002847395351821903, -0.009756742957372543, 0.003122957009170269, 0.015153976597311797, 0.05356089988509878, 0.11348980747605784, 0.25176323337397394, 0.04153612968456084, 0.04952829161372072, 0.2696058993868752, 0.10042180940527802, -0.04123908396787548, -0.08123906443978449, 0.01486441488368304, -0.18779241211565018, -0.19984407149115943, 0.260981277092054, 0.4068145463650834, 0.42176466896219145, 0.12479491651648424, 0.038801273119183015, 0.21950212846249528, 0.19665060840793752, 0.18667835555326512, 0.22565137933658655, 0.037175533937852126, -0.1931904205644811, -0.021456487337837518, -0.0029361444799121377, -0.0029577957392180245, 0.011755939301549266, 0.002214514195529691, 0.015443763699547775, 0.028204308763661538, 0.06581748404704034, -0.10932804964513054, -0.14266053469179008, 0.13267346910665054, 0.05736816572950916, -0.06984475700060418, 0.03247638370647767, 0.21142645796647871, 0.0883464429616353, -0.13686894050481568, -0.1625321227266776, 0.10678778786817252, 0.08212367152132613, 0.04132111239601646, -0.011543530668681974, 0.19151892968592077, 0.12972578886000946, 0.08420086960121378, 0.11901675112508325, 0.01082718213913221, -0.029766990358797953, -0.0038218549385698646, -0.012130311475871635, -0.0018208862640970746, 0.01037885033272696, -0.004864715097129169, 0.009516174886536477, 0.02401438939778487, -0.04316349263785051, -0.18764890876417395, -0.15597935862590656, -0.05262353291532839, 0.09452373554510615, 0.04801817303884277, 0.21623784870469817, 0.06345783256349752, -0.26650644691966496, -0.2942600870439912, -0.17591867281948087, 0.11285326793259493, 0.061480613752734815, -0.09687355665393554, 0.006035017198898806, 0.21698663834278645, 0.10761555688810095, 0.13332514904609055, 0.03610713469609532, -0.07055821687533152, -0.05370533924836262, 0.0017455043592176753, 0.00018962186327807826, 0.0009764588801654475, -0.0019455012801560642, 0.0005103940621765218, -0.0011642034827173968, 0.010110936056279926, -0.00637584236856896, -0.08606326946762193, 0.0016788938385441882, 0.08759411121782965, 0.24618502284608734, 0.22058382567994475, -0.057489293395979205, 0.14057206152678026, 0.06358383354380916, -0.020531114962815265, -0.03871067046015584, -0.10017437026411724, 0.07193666878735397, -0.2512165373982009, 0.0995821236920921, 0.1241702793711305, 0.137758767111606, 0.10326082054918365, 0.012435540909513371, -0.07328221369566905, -0.05651027825020589, 0.010866904909562458, 0.0010947741685883488, 0.00924475016404699, -0.0073593758498898525, 0.0025739413160977198, -0.002606210657483593, -0.021580664082280192, -0.03738145782663936, 0.0008429755045013193, 0.07927950878198653, 0.09303030050534575, 0.10577157539919382, 0.20946086348191417, 0.22687999136051534, 0.21287309182130662, 0.06991640146000509, -0.026196786875760037, -0.3116062708500147, -0.21308749582763806, -0.24061356842133846, -0.21498229346931363, 0.050422140402601824, -0.09864376856647022, -0.08586361973934409, -0.06103417936470361, -0.03664232954571998, -0.01970236336404561, -0.022031449048036594, 0.0011337274150865636, 0.007129634538381282, 0.006064124080791363, -0.003801546722903227, 0.002677093103332835, 0.015909966151035466, -0.010273180789118139, 0.023669361356412146, 0.04729243441973777, 0.05349240581929739, 0.014023186013516797, 0.009062380059350261, 0.029874070997928114, 0.10215560790765435, 0.05362010172801608, -0.004566848162986787, 0.0205046890098693, 0.04935272975358494, -0.0609971063105691, -0.10781291529366364, -0.12247181293538086, -0.07955376872869055, -0.19499404903276873, -0.1298161048934077, -0.04596615534106801, -0.016883160017517242, -0.005558178265950763, 0.002317490712305366, 0.002820814313554094, -0.005645025287404953, 0.0006687822077144363, 0.010271620868983124, -0.002876534121697206, -0.0025240590862921123, -0.011826088538265323, -0.010905670786709218, -0.010907908618468921, 0.015161137095614561, -0.003143129702372142, -0.007521874319118283, -0.01057804555238306, -0.014969935794858455, 0.00850878621864751, 0.009060647825645207, 0.020252706089081564, -0.004533416755601942, 0.04727215189509138, -0.002568795638297529, 0.010361650963677948, 0.010113838670797052, 0.005239120733435239, 0.005485730646083482, -0.029434488499068812, -0.013304777451552166, -0.0033564235415890855, -0.0014125306345103591, -0.0032764758548760676, 0.0024247062694665003, 0.0008066018544405348], [-0.005961884777321578, 0.01184792691830684, -0.014118781623961059, -0.002187241344938756, 0.010068587687455065, 0.00828689060309324, 0.0015045328604062263, 0.0010092889986003507, 0.003880576192921261, -0.006885522336024778, -0.0005199311968362933, 0.0003743901164259357, -0.020434731817333844, 0.01176255106588286, -0.007449281066384864, -0.0007997724101767305, -0.004274867843719476, -0.00401116029493949, 0.0034027767526901647, -0.006742025946774641, 0.0026321368017366608, -0.00383821286946751, 0.0047515437350534795, 0.007199361476410065, -0.0030706403852043484, 0.01231848049044777, 0.016923056776626505, -0.003267202641778404, 0.00016553318838974227, 0.0034235325609231378, -0.013672705978369705, 0.003090188685580318, 0.0031011621300963627, -0.0044045728508273554, 0.001728802746344905, -0.008429031941727465, -0.003631126535229631, -0.00041176944398739034, 0.0069000048766946495, -0.02140818262724993, 0.009369624809320371, 0.0025746957374454434, -0.003487384324695457, -0.012902573861908734, 0.010580373855154798, 0.007281746414799258, 0.01044243992370027, 0.006495362970717048, -0.0017493678351249663, 0.015565257522134328, -0.005776840403951924, -0.00747941133473315, -0.005238816750411756, 0.004982679705041468, -0.010478420496546504, 0.008585666372600833, 0.006716588346285809, 0.012995729339234409, -0.0023798500521888693, 0.012447196642273487, -0.00019132311231291366, 0.003033741919771831, 0.001010906451879292, -0.0026358546519135366, -0.010385949156434534, 0.0034099100611080825, -0.005743427703927684, -0.025603561571533935, -0.033842199086057026, -0.04484503569141896, -0.0444867972122597, -0.05936258848176831, -0.02125275713979748, -0.009016885055562687, -0.006427948516993733, 0.014893813706732963, 0.03518334796608896, 0.029575921792219823, 0.018404078339973397, 0.003381990484136752, 0.0031671537856016846, -0.0007687951192183077, -0.0009382345929124599, -0.009889631229879972, -0.022747010387565544, -0.009182033384875577, -0.002699608131207612, -0.004132860422382853, -0.006577760002715343, -0.013584917163146975, -0.004839752788345087, -0.006779166847681714, -0.023887837302102453, -0.037309701747196194, -0.05393685300556321, -0.09368133549138015, -0.0666662267311759, -0.12434283128013436, -0.2990141689894345, -0.2654104581740294, -0.12872193843071827, -0.11160434349299504, 0.0737053328035932, 0.15857882994499783, 0.1544927513822184, 0.11417645692912577, 0.03967114759231998, 0.024265309150901748, 0.004091128747525573, 0.010039728205095882, 0.008996048151662984, 0.0015996568203534955, -0.00021043883820535996, -0.012037576444314673, 0.002119499865099134, 0.003175099609332197, -0.014869417169741429, -0.04872024960069923, -0.07914006886403063, -0.14106203430564732, -0.2579019442028771, -0.2698008849375259, -0.24695084543257723, -0.24171540682484216, -0.2859910505043669, -0.310263491389475, -0.5567044512305546, -0.3140384723667282, -0.19928228244318202, 0.043167072547848316, 0.1882611343406191, 0.2811140299658317, 0.23043608310070943, 0.0240764575274072, 0.026303892483140155, 0.12010399345732252, 0.03276821600447685, 0.016415162258894805, 0.003317595188569721, 0.008210502231722105, 0.005229138134906412, -0.009209817892250107, 0.0019133635020329711, -0.016879066120975856, -0.010562422914345367, -0.06764847105343239, -0.16105898834428933, -0.23231600908864153, -0.19807291329172036, -0.18063915961774085, -0.14188663510377758, -0.07155769899970786, -0.33981973338213806, -0.1936501697892827, -0.07196528165714407, -0.2742426250496807, -0.06578078897023225, 0.12592044788571402, 0.27602680818735004, 0.19808374590721292, 0.046835990111692455, 0.14025514284110355, 0.20295297808213617, 0.32228646583138226, 0.13091651296084095, 0.023521816716201124, 0.014060231547234344, 0.0010941922195642354, 0.021819246031591143, 0.009444026413863557, 0.0001338695456574708, -0.02095178033901384, -0.011934669439383446, -0.08243691458364283, -0.2805667470971592, -0.22700921587344233, -0.22733599390551018, -0.20590783807972415, -0.11742408576327881, -0.17729743178278842, -0.14168645561594048, -0.21289828531142688, 0.23442441703345832, 0.054754513017686114, -0.10124322736743963, 0.0141191006780224, 0.14634293781839483, 0.30867633862567095, -0.0510752639264228, 0.13944146766024307, 0.15038514847473725, 0.0272749540852528, 0.16737146685454277, 0.033612792751702876, 0.03214587025515518, 0.006240706040888548, -0.0004034015301055198, -0.004596438092680538, -0.023589132134274972, -0.03109753838208436, -0.12319371185840339, -0.17225372133141842, -0.3599307052001128, -0.2525908609374607, -0.14454449038348416, -0.11810294433680826, -0.09288487976578354, 0.12285643811757328, 0.07843575058765806, 0.1449316698339903, 0.2117654780445169, 0.08382004177256286, 0.38284483606156133, 0.4759700080955705, 0.3575430562983753, 0.3321538262369521, 0.08735428359296785, 0.04975236227462501, 0.3096447589557699, -0.03383720849057929, 0.0033284407968023452, 0.06521313151281748, 0.02888763660454935, 0.004816234117462386, 0.020173387717164704, 0.0042394941356638585, -0.009057200002194923, -0.0628610379888275, -0.1574210296020172, -0.18198469240140908, -0.2880375702785567, -0.2466593880936987, -0.16317050901760083, -0.10569860823324326, 0.03806120686823686, 0.12165983869907146, 0.1576259460466889, 0.175399032783488, 0.2940425393850677, 0.308077259390408, 0.593814051552656, 0.3728279076664912, 0.15204182281888606, 0.22721575294035282, 0.10726322081431881, -0.02391941992906696, 0.14791107748225044, 0.27332665015048874, 0.14568746161939386, 0.14529338353266408, -0.003903725991373781, -0.0025797699714496165, 0.010083298961207975, 0.008431343467458961, 0.008009623560985805, -0.04211888152167042, -0.09192706723665772, -0.015993526775443436, -0.08775041854576097, -0.16456646640390973, -0.12652076509129281, -0.03011696299695844, 0.06431282026497674, 0.19499634557428475, 0.004901633278850086, 0.1539590950372681, 0.09461653121202186, -0.1165905058281397, -0.07949555357405828, 0.006522299396725058, 0.07342008056210332, 0.015664041609398046, -0.20714287575260926, -0.13393362583469995, 0.08323703999892486, 0.16324301860397405, 0.13167329533784186, 0.11305910891357691, -0.01146657139265222, -0.0035878544460221317, -0.008208560583522616, 0.016873066254083142, 0.004169980943042082, -0.030470965615312238, 0.022817481622030598, 0.16766892142894274, -0.009809370996696026, -0.10384969138340071, 0.04887935416433181, -0.05526529385279249, -0.027849376014592576, 0.024336094873355234, 0.2811403348983544, 0.20821429560705837, 0.00043133003142612863, -0.27470913458941404, -0.9238178132880049, -0.5818662100214903, -0.10885314300314106, -0.3999978956775782, -0.17773130859505235, -0.11431792826897247, -0.07819901911390843, -0.18490526657630274, -0.04108272778680723, 0.07863071760791528, 0.03859931969047492, 0.011856939339851963, -0.0018154087996180253, 0.02087509831769179, 0.012729229565341888, -0.028179255710072255, 0.021990617424431008, 0.12238474154126977, 0.03370349967468719, -0.11557955449542841, -0.08031933645296907, -0.10615152271591004, -0.10429653042684511, -0.157140332438816, 0.1318477357237202, 0.3346951727450918, -0.007494476227730674, -0.18531278679262567, -0.6892651568849171, -0.6321886246005636, 0.06526742566119915, -0.2563107495196361, -0.5287636017822243, -0.33400523964535284, -0.3535003102672048, -0.1585786778417592, -0.12749579230603642, 0.012712332255879751, 0.036424360327386045, -0.0029403215978642296, -0.0029337906486017083, 0.008303350670301345, 0.010126092552462752, -0.028619553983596537, -0.01898662710712538, -0.032513593115984764, 0.03459122533049629, 0.09536628538824832, 0.2177648883480665, 0.1667457831857007, 0.21490873773205837, 0.11425872997740567, 0.2850002107209582, 0.46900936963668693, 0.15331521898926304, -0.30510347730738013, -0.42402979130255314, -0.16828728165973933, 0.01282161160260255, -0.12283448401104569, -0.32268544568425345, -0.3365076552541785, -0.17293913075712483, -0.06529223228619176, -0.10738834005958971, -0.02513933604766988, -0.003462944075783599, -0.0035246621488563964, -0.0015105304498781752, 0.004975754926221214, -0.002284874403100958, -0.04298562942799095, -0.018101280833402445, 0.06832698868275455, 0.08978192720066322, 0.18333551170161697, 0.2206024106477512, -0.025992110718060808, 0.2983855276254081, 0.22619385725542768, 0.36342628102267865, 0.2404013289020525, -0.09431290267766168, -0.35716777626684826, -0.4694335452592604, -0.1342905028410366, -0.12804860462602483, -0.17009018667733627, -0.20726055583339134, -0.30147923228937074, -0.16499462388682493, 0.06985033517308434, 0.0308189847794137, 0.023202526328941202, -0.0040785013562770304, -0.011904344427420216, 0.0028852593040586566, -0.006542515811352648, 0.011891822380849312, -0.04181644228456006, -0.024729834006144272, 0.104429529594914, 0.07313690288034612, 0.29061115814523153, 0.2608015882750978, -0.024703355638500762, 0.14941348115747818, -0.035080100283905, 0.06562448525985112, -0.08381973754685418, -0.3067148063873456, -0.4218967593086738, -0.47898075197836143, -0.2984857932695754, -0.18861805809811066, -0.2323781788264463, -0.189099007239362, -0.22128375208495513, -0.07019401650518635, 0.22287828556972475, 0.18783010567596373, 0.016171811480214474, -0.040288785527656024, 0.00018198145530219667, 0.009828220093954631, -0.001047444974958254, 0.004733280095923222, -0.02179367002765798, 0.009613399609076657, 0.022901828165796313, 0.009591161001137301, 0.3412314637575093, 0.08171179818926268, 0.23140338073372593, -0.015719646559475713, 0.1164461117909884, -0.031593359978524, -0.34003534613432296, -0.6458317300029254, -0.3179252581088047, -0.13481538635801846, -0.025381943243782266, -0.08433057097197647, -0.2545361376065924, -0.09774945058339282, 0.032705085102704104, -0.24592969052697086, 0.14455117079522664, 0.17543866695183863, -0.013542340422471134, -0.05061235087213843, 0.014622853782687193, 0.007152601317340157, 0.006001279025287006, -0.027967732989988267, -0.027314920125460725, 0.04673023740242926, 0.053764048394197066, 0.09335982766829197, 0.037057356166047745, 0.31136796558601104, 0.14262507497981572, -0.05401741106823109, -0.14230005505321916, -0.19407179047136588, -0.4284826841070496, -0.3268031493053654, -0.12219727066090831, -0.16240021115333655, 0.07353720832807714, -0.11031432936852442, 0.10351509792535821, 0.046889227777855674, -0.0892009638008493, 0.03984482967129311, 0.04117837808893143, 0.017425956631710173, -0.01972281272700977, -0.01820621949788285, -0.011602421248006914, 0.006543434577032407, 0.00044138604090815224, -0.04659244849638704, -0.020331133549213315, 0.07946395624352066, 0.19158557844219168, 0.08545217864349393, -0.09523012141027923, 0.12534968025997684, 0.14442100423965254, 0.06397548038479539, -0.06115236425867689, -0.19873861639702287, -0.32323720219418883, -0.07123173673586476, 0.08864503432861538, -0.29277683699551177, 0.09500328072002029, 0.24462342673894355, 0.11966033238210393, 0.1288278446094604, -0.03582641622465587, 0.15155391656674494, -0.003915777254435527, -0.012028245261019541, -0.03304189213640378, -0.005479065245847388, 0.0040211011506536935, -0.001372471073149885, 0.009163019990573331, -0.0238292775072445, -0.10347520717593742, 0.1586000361318566, 0.26483081172872447, 0.18737888233970504, -0.044412696664348945, -0.10602945778847907, 0.022487969002913628, -0.4787956862209541, -0.4963887655402101, -0.5926040091606629, -0.39953127441110714, -0.20866246678215367, 0.17411975614381833, 0.013361584588565921, -0.21556657971800958, -0.26802602648200985, 0.04182224625261937, 0.11564416466009739, 0.007459306990306624, 0.08804836180315125, -0.1627104794437059, -0.10595295701148416, -0.025231093104968686, -0.0016183922270253076, -0.006288422542354084, 0.00813252710294844, -0.0017335396612110216, -0.008965547502222167, -0.170960379496904, 0.20061265916133172, 0.1947755215810705, 0.26351558000510666, -0.03876205048449072, 0.06016920739743546, -0.033424896391261734, -0.41081684949616115, -0.41592960068338464, -0.39594261478962794, -0.30167776560466053, -0.08334485837466372, -0.19304090675344038, -0.13045603569701406, 0.05437339597468805, -0.24933930756692393, -0.19608714806652056, -0.09748545560789647, -0.11979949391622496, 0.025747297960473006, -0.2403358521443372, -0.0965254893030262, -0.024346403076956458, -0.000736834617923455, 0.005078160423995162, 0.009345497020420541, 0.007553076667202158, -0.015415078716477527, -0.13572236444691177, 0.10275460436773355, 0.21390396347778695, 0.050609595571420446, -0.07124549493586667, 0.08702320790824983, 0.1784963500322163, 0.13338818763455917, -0.07278602127213867, 0.00035125150389928993, -0.10628480850914826, -0.42801372899712853, -0.12371136169502195, -0.15776305184935718, -0.24235590607260274, -0.47481597902043593, -0.24796908358630798, -0.14879488846693498, -0.20356725931055497, -0.050556615220331204, -0.1940827896995456, -0.10968030447321768, -0.0164980735028493, -0.00655324872771261, 0.00951968273393525, 0.0014672055375849623, -0.0034319520104446246, -0.006364044197662585, -0.026360236568311636, 0.05240130705531788, 0.015998494912473564, -0.010630923567168613, 0.10705370322470459, 0.36123369607710776, 0.27952803035248797, 0.34533863014585753, 0.26114021344232263, -0.0901441648279447, -0.23936270806558166, -0.25054748038961183, 0.09220111634075204, -0.17404289073919355, -0.2279337872036904, 0.15664756548693995, -0.09055273656042026, 0.12306085406542348, -0.06623540508009283, 0.05197671690130911, -0.0856384376011402, -0.04229045701990447, 0.040926033650151114, 0.00930251174418696, 0.0020990749935830785, -0.005101978307058818, 0.006600604892562034, -0.026072344965808382, -0.025684513717746216, -0.10864229559763076, -0.08747654765716732, -0.06369195335444303, -0.05972386980349077, 0.20715184998346517, 0.07870695816690604, 0.09229877791899661, 0.3742751136958319, 0.2304276813660808, -0.19990691306176625, 0.2697791192770086, 0.14889830326088646, 0.05163647665967123, 0.17450448493638612, 0.15216795992922888, -0.06080265977134277, -0.142499956769418, 0.07402455178638918, 0.16111240692285003, 0.07504359122322747, -0.01733032079842537, 0.042044560279903886, -0.005166851792242833, 0.01045814718535565, 0.004140033616582603, 0.01041110217382914, -0.01833080638628569, 0.011471832524724267, -0.020523556053597448, 0.018596821949702875, 0.19194477770950408, -0.041555605852627055, 0.17724409925750625, 0.07759618142793732, 0.3053421639285, 0.22413489296897826, 0.057223448667091156, -0.1428024171698263, 0.25060276555963573, -0.09541043587468793, 0.14667130161163472, 0.228757190764196, 0.18875992592347338, 0.1143317844179046, -0.017653349260044946, 0.07682504810376721, 0.16249290259441668, 0.11095031744192517, 0.05723892526385952, 0.0326107032320794, -0.0052712733734154565, 0.004982940979620619, -0.006419485126011923, -0.000581009899506909, -0.007604560363362108, -0.013428587302232516, -0.07748122728056327, -0.00013696208287788646, -0.036230194920411886, 0.19390859981957045, 0.07291255052485385, 0.11131694654468711, 0.07258660696736828, -0.06154416750425882, 0.13612693401365855, 0.2632476186171725, 0.07357824772645798, -0.04100334078103244, -0.017279694166524338, 0.18042098340710613, 0.34444102610545296, 0.2303558070598426, 0.14272757332318922, 0.010075483315413823, 0.06035721550165034, 0.029626355952051528, 0.031209509363848517, -0.006836847934985117, -0.0017354900340952415, -0.0019805290904407764, 0.001036031972723118, -0.0036865617212240064, 0.012042377257366363, -0.003730526317339042, -0.019441877887792728, -0.11890467759546877, -0.19138615259305414, -0.1493134043233271, -0.09139089476890344, 0.1001692708310594, 0.0021790033130170677, 0.09622202324673837, 0.04466728576905282, 0.16437731846644751, -0.08602057459786706, 0.12763756199364998, -0.19982717871777952, -0.07606954064062564, 0.14728901470319522, 0.04557827751897113, -0.137340836985965, -0.08677031640260476, 0.02391227262946741, 0.04026741775124593, 0.03440287372603869, 0.00905911971304216, 0.016409560951833393, -0.007824830477868758, -0.005990048781000358, 0.013512584707634397, -0.01161005215293568, -0.001722913418796706, -0.005962303232766069, -0.0717534431345147, -0.042003715734847735, -0.016801041687386394, -0.0067071361719825305, 0.001857229447403762, 0.018762429069260993, 0.17692429441977328, 0.1774015099492428, -0.02428931261047522, -0.12841054089712114, 0.1218680564252866, 0.010445868763546631, -0.18377435283004234, -0.07125817292015575, 0.05831627101252864, -0.06774614983346121, -0.08972586313327596, -0.0063633094538493515, 0.005088794903403824, -0.0012712737390893152, -0.002160556044358738, -0.0016858540235132945, -0.00502960416478804, -0.0028268594706171, -0.006696616536437232, 0.00015533456221498252, -0.010624720985026115, 0.010265849323307995, 0.0013711525100157283, -0.0018489495952748885, -0.0002595893774925514, -0.0029073046157770707, 0.0077109530526831465, -0.00950586592758542, 0.012331843611516137, 0.01212993950537923, -0.0003222492448581783, -0.01420793053642201, -0.036520004890967274, -0.006063867402025311, -0.0005032328005785041, -0.028650177802549533, -0.004097729456310635, -0.0010305868006957057, -0.015878671856043552, -0.005192030562043653, 0.0025263371531468984, 0.004796617021560272, 0.001911911393524922, 0.0014995211016556925, -0.00294657864364228], [-8.121854289349102e-05, 0.00981302641673549, 0.006335742663374586, 0.0009640332615303853, 0.007899514572208232, -0.003609606810964361, -0.008845728330264572, -0.011038746326411218, 0.007836504084308622, 0.0014348598660847785, -0.0038445452224418054, 0.004737604474595387, 0.002622993398110711, -0.0019787106020135417, -0.0007046353034116924, 0.0006934996565587575, -0.0014921875556972069, 0.002033930283337518, -0.009426600194651727, -0.0010220960428193114, 0.00252995920461923, -0.003045820568634537, -0.010263652121102798, 0.0043570312627582534, 0.008627208581451388, -0.0075945225645072745, 0.00275358293170676, 0.011569840832630419, -0.008709973656342384, -0.0022736459702525063, 0.012813569627438815, -0.006928709634856031, -0.0006175801914558763, -0.01031684852139362, -0.0007035582821807133, -0.008843552781913757, 0.0029034524788702446, -1.8754857437475693e-05, 0.005863195687769457, -0.01041298220552279, 0.010495116178455447, 0.008151541503340264, 0.01613834490328553, 0.03236300822161176, -0.015074737981434069, 0.006704958273734874, 0.007495672145479408, 0.003772217273200297, -0.0014214154819318526, 0.007587741196162772, 0.010639744510203568, -0.006691737863399355, 0.0015534027364089676, 0.004814977274443531, 0.009195674627101353, -0.00473589461440229, -0.002955576334888082, -0.0003248048066642004, 0.0027750628530113794, 0.00464496857442678, 0.004352495388855016, -0.005068095685694274, -0.003682816386841754, 0.003459900113301709, 0.004544900519950761, -0.0016867198697949849, 0.0046052317522351826, 0.03237474007025134, -0.01718995708406283, -0.012435461719667754, -0.023096507841746963, 0.04463990717265344, 0.06675604880079175, 0.014326243388550725, -0.055259826411120844, 0.04017742401004124, 0.045516502076169606, 0.05257353960018236, 0.04971411199761747, 0.017798773573734612, 0.004590459933337089, 0.0012883488369135174, -0.007902272333570888, -0.007760494146186972, -1.7692002346116107e-06, -0.012305033160794036, 0.0006190671350299393, -0.004089756309520504, -0.0011663022760451905, 0.0096663924185711, 0.004845540906016138, 0.009264431179397487, 0.03632780919725016, 0.06119897124623827, 0.04385314300005216, 0.03534290984509611, -0.0374399263820081, -0.008433793431552873, 0.013104437620807877, 0.09817050484365335, 0.018932684890887105, 0.01587056683924629, 0.09661296405644088, 0.13546704789282296, 0.22512265096826603, 0.18446374859607526, 0.13250369043119908, 0.0536516646632708, 0.04243368823661487, -0.02320442177226549, 0.005324607039615973, -0.003416455521652232, 0.002814311358145312, 0.0033350362950001714, 0.00045231025292004297, 0.008082482994779996, 0.009194002912725903, 0.01976255729629196, 0.01709247103325836, 0.08925361524662143, 0.13371818179742262, 0.15765235198326905, 0.1538971985707941, 0.06779820490836037, 0.09828493110240968, 0.2525219445715408, 0.2697329321635592, 0.2996151787871318, 0.2984085905875167, 0.41166965057495564, 0.44267660986424834, 0.48100354702160697, 0.5697813525081543, 0.4796461712463916, 0.38300063468076684, 0.13665051566340508, 0.02562008948961474, -0.005632300996990483, -0.01209020621715497, 0.011312308988301715, 0.004634368967216658, 0.001198722076517485, -0.0028212291290277375, -0.011931937731288369, 0.020229892159269167, 0.037585525603983254, 0.09501294519192172, 0.18622513119236314, 0.27648844698401587, 0.20273142197146204, 0.2372242626114202, 0.27166558739798224, 0.36281762200214424, 0.4298745506981302, 0.5922957230686563, 0.7746985060677861, 0.8341592809085123, 0.8460172283845812, 0.5908871993186354, 0.31237974302346355, 0.27975461256791073, 0.26940425208732444, 0.24711129863294778, 0.2969245759990374, 0.24740729716188922, 0.11324427671723554, 0.03641606462982741, 0.034735068580323464, -0.011893175997569444, -0.003659551686677347, 0.0061757919070411, 0.02035410325355691, 0.04452119237901136, 0.12192277125028649, 0.18673830618129872, 0.3514164631082579, 0.34864822602083173, 0.07709307895048163, 0.1253226716686239, 0.399107931774397, 0.57874685895718, 0.3154106964010129, 0.008209764860758147, -0.11569749694975397, 0.10248464207398522, -0.2694949818900594, -0.12062486359203005, 0.013944533213377285, 0.09381832629576124, 0.09828488779353214, 0.42300549245309743, 0.3469528535589829, 0.029860604147831298, -0.11503900379395876, 0.0071774341166724286, -0.008903843839656991, -0.0007821349282331945, 0.008661421911649878, -0.006236856417510058, 0.004613573697542416, 0.08953259018868516, 0.24654472370592243, 0.3965736853994238, 0.5593523205501213, 0.07847710616451667, 0.17963817967648366, 0.34963563284951193, 0.21426247810798552, 0.033930335458734924, 0.31532418445521404, -0.066768309148609, -0.5844839975766983, -0.3818809107072163, -0.34795153409896984, -0.30167555432852916, -0.021370344894999525, 0.02085814992522414, -0.12802669631221847, 0.24193427517207916, 0.3250267706909948, 0.0751538199871526, -0.06498410501147535, 0.029185207252497767, -0.010938889136106902, 0.005373570987538283, 0.004115431691139415, -0.0011486123043449128, 0.0503298719283884, 0.14923473342691884, 0.37312945123541225, 0.38196387313294394, 0.23698849398392027, 0.09094617000710017, -0.08628251540118924, 0.21386241336900358, -0.11855065141322246, -0.09068976864230141, -0.0015742883607893455, 0.08400671849404029, -0.05019157654155355, -0.634404272279721, -0.66020380758711, -0.11213008769759014, -0.18967369098602124, -0.0002724359382748248, -0.06342910778424876, 0.00033979140393284625, -0.15711849957774696, -0.036338781204178494, 0.06361052989343761, -0.05232916518481959, -0.018303105534281442, 0.0005513599246305739, 0.005133768359918689, 0.030310348534127732, 0.030947713780603847, 0.17080195544625482, 0.29001435497267863, 0.015532871087616348, -0.06651934827532222, 0.10610256745630862, -0.03915703464684221, -0.30750512695567594, -0.5311012879023598, -0.6432453284006259, -0.3859260628128658, -0.026996001497062307, 0.2828225937196915, 0.15262806887962496, -0.2439133875361403, -0.09292439466331082, -0.29181711456276593, -0.09642547127649483, -0.01585052813439604, -0.18075275234111887, -0.036892513394476974, -0.11334173919639737, -0.20827476358600222, -0.10072933672320253, -0.002971221318675807, -0.0027486477367496824, 0.00852940089842256, -0.01941573873308443, -0.011756743343077983, 0.13979412464389704, 0.16088132327439345, -0.35389931457174645, -0.13552725707872706, -0.03825929114104582, -0.26786268080589326, -0.07541186063832823, -0.23790144033243563, -0.06578229404503788, -0.29941697639032905, -0.37659368668071846, -0.11025991202247613, 0.008853492802306588, 0.2697594418147595, -0.14053540138021398, 0.015399837794393818, 0.004096122554310539, -0.12331009974228137, 0.050916221539887396, -0.2071838226554077, -0.27794638527606735, -0.1921967869682733, -0.034462921034436475, -0.0018308734353550936, -0.016555076256303678, 0.00043323373504005914, -0.017591122271018087, 0.006287552472877471, -0.11990553567386003, -0.08966657911847153, -0.23812625971205353, 0.05399485024179468, -0.13555514787533343, 0.09448180311764741, 0.3327852237361717, -0.3339973307208567, -0.04914877729163934, -0.34823828927902917, -0.36427993515497215, -0.05629433490334852, -0.002331723886392964, 0.22262176502806022, -0.07308176581734559, -0.14480513098665804, -0.007696203637103367, -0.08232053194260966, -0.12707427313756403, -0.19059741274580885, -0.2746443691217481, -0.19124639245233185, -0.03840802074171791, -0.01337948706186501, 0.007066680650935419, 0.0016702273880707529, 0.024874601118486467, 0.014927583455744962, -0.2518618420030063, -0.1551176193439806, -0.30572185566345794, -0.12039673054182302, -0.026118184296878316, -0.1927676699307731, 0.10457935358787057, -0.08366235241124922, 0.1392335473413724, 0.09642769182474045, 0.0035304418943492635, -0.06318099568860924, 0.2652373688273323, 0.13126743713751293, -0.15027220492719753, -0.21697682028468185, 0.22579670749737105, 0.03175947025614636, -0.0075437313061771805, -0.0683738317275273, 0.023182102567910482, -0.1454382236950345, -0.14064398328397057, 0.00771190734457008, -0.00017879591124685614, -0.0012206411584311438, 0.025936803028657095, 0.017984951875004325, -0.04790029800155608, -0.02484845206507613, -0.3399832617717332, -0.18602323535226087, -0.11371011358209789, 0.042515402749783576, 0.11624587161803837, -0.21659900051901265, -0.029001066745443897, -0.13313240911374624, -0.010132606684299682, -0.07435166381913516, 0.3825218139745204, 0.43928303940143537, 0.3152338254941084, 0.15158504869819903, 0.1783802742370845, 0.006479376415803948, -0.036264181837307, 0.0177888526301547, 0.08855401362336202, -0.16913488246499025, -0.14897687645933355, -0.013203539183041894, 0.0002767251273941446, -0.008604356382400502, 0.017961882083433852, 0.04277454892373239, 0.023059683098356674, 0.25292620483025663, -0.22183078363476866, -0.04647064701697419, 0.1959439692337432, 0.1651376061134066, -0.1193567811282617, -0.20126324639120813, 0.08379813670577974, -0.17352158568003206, 0.279710119596779, -0.04675391069826587, 0.09676735896033363, 0.15159861044522294, 0.10982903493303468, 0.07302453039190306, -0.074742832165352, 0.07490997505624393, 0.13225381892599994, 0.2425841485502403, 0.016440879705324547, -0.06859738190712975, -0.13077199493265151, -0.010477779628291998, -0.008081698442767262, 0.009631195520705649, 0.012882046950543456, 0.06573107279430429, 0.07542233731473533, -0.08922127891020766, -0.40203869880881365, -0.2601422631860898, -0.11861602651745876, 0.08566699467126845, -0.05176221847848373, 0.02742958563170251, -0.0625477185289048, 0.007813892929554124, 0.33897461165914416, 0.13575693073978398, 0.0029942179377195014, -0.027643946164999815, -0.05075324194919537, 0.1685238155195011, -0.0037378872896972745, 0.22158439406441446, 0.39751170808364106, 0.24624892876534826, -0.17198594551669819, -0.08595587731600894, -0.06399774438035104, 0.01729630325923588, -0.0006982855449622597, 0.003623084935725119, 0.021394659423122155, 0.04390550117984559, 0.08531907478910566, -0.0708614964313757, -0.16815140109071414, -0.1700479729467434, -0.055103622236047325, -0.2619630702607116, -0.2538075554551061, -0.11264301704377186, 0.00905011336692701, 0.47887888420572583, 0.4289255475224797, 0.12773943443995955, 0.16669227313641777, 0.015611351261552948, 0.3463846721201725, 0.39474753129480594, 0.14036011710395366, 0.22649639942971383, 0.13655477103830596, 0.17211235472819028, -0.07645667498485319, -0.13683406630188555, -0.11834911609677948, -0.006489063958609954, -0.005185873969445115, -0.009073049541405103, 0.033688721942570554, -0.04979756110216845, 0.16819483677231503, 0.06527028049754065, -0.14104584685341853, -0.1096920046786437, -0.1407463867471781, -0.23685878780335864, -0.19960753360085537, 0.003715295468716947, 0.04972259341821651, 0.315869933395075, 0.06556165726782875, -0.14196430716099837, 0.057007586828284385, -0.05813403876225722, 0.2567519332119665, 0.11184698282496977, -0.025647030683611887, 0.13048411344156483, 0.19367683626099427, 0.1571343660878227, -0.1263854575817338, -0.16733119631455015, -0.0457694634520003, -0.034760290794640644, -0.009854604334619165, -0.006664412932587312, 0.021439691121938276, -0.045673509739294044, 0.15721945397435383, 0.06974805455220907, -0.2562820629732134, -0.20264982507515517, -0.1522185253118511, -0.1930324466603111, -0.1788080530658571, -0.29292382061721445, 0.3136209228612861, 0.22047041393989075, -0.18192912922282714, -0.24957387267950779, 0.2255552981332121, 0.057102711393456115, 0.14647846979829074, 0.14863486853534227, 0.12598138828374367, 0.1699043866560709, -0.08283234390903807, -0.007026458022004128, -0.2078965926898984, -0.086024699660618, -0.004933132021851506, -0.0028754945486597675, -0.015271426200230726, 0.00948123477528679, 0.004203803992906267, 0.05876392955815249, 0.16499354100104915, 0.1877034469827655, 0.15547847641625034, -0.15583618146084585, -0.0372445796975837, 0.12109865357941173, 0.04075764187036793, 0.20632985599582424, -0.04873236537116298, 0.031461803708695606, -0.03486215461575925, -0.10974300995939366, -0.06878582364018693, -0.03675679872378664, 0.2439155114581681, 0.1952527042628421, 0.12098526670299087, -0.0074307083794861355, -0.2325993812848333, -0.27283852841458484, -0.12207785051463974, -0.07255632875980349, -0.016184874913034553, 0.0007225470786354623, 0.009510353071269302, 0.004273277919752922, 0.019284203183169063, 0.09036348222417569, 0.18618614091053187, 0.22216457440341877, 0.31776947403750616, 0.2876048835688468, 0.08818816708454191, -0.008200310484967369, -0.018704487134659317, -0.18041403299606348, -0.2513521178811264, 0.08900489187192673, 0.11992798277691517, 0.04000136034261362, 0.07040588702295046, -0.08669754965965368, 0.3933041231828681, 0.056246906605594414, 0.18275521116327217, 0.0016750531926910562, -0.24225455354589007, -0.27357309274963926, -0.14279691156689883, -0.05651550627383625, -0.00015811865094096875, -0.003360760595832182, 0.012912676004434461, 0.0037869300789837765, -0.015235313635665772, 0.04085185315338611, 0.07338338701402412, 0.20287494101362916, 0.21501531638521051, 0.16109247568276377, 0.40148649266284475, 0.29036318187391763, 0.06151196048399793, 0.05680339968127108, 0.17407311584640264, 0.2154226967109235, 0.161344734833763, 0.0531265531230313, 0.24293301442756252, 0.20090145992414898, 0.3549981466996796, 0.13998374510929243, 0.2844080838531894, 0.07942100695366472, -0.10663961159418837, -0.18124561909654857, -0.20159704010303664, -0.041071069579306514, 0.008089174618877431, -0.01598281196234645, -0.008086048413776978, 0.013400285145439757, 0.008549512730282522, -0.03294376121881062, -0.057202739483043205, 0.07447811300906998, 0.1714268497431357, 0.22373692561662747, 0.293606839590428, 0.31151094505642746, 0.4068495740000892, 0.4329996561210313, 0.22502540667355425, 0.45059082718649124, 0.30626069497813724, 0.2623508205135765, 0.42451312035238525, 0.5608760318012865, 0.3609477048398048, 0.2958506992165593, 0.2949623068441972, 0.17522585812702224, -0.11134042659791624, -0.353095180096908, -0.21055625201197056, -0.05238461277706075, -0.0007900862094744645, -0.003963582568106493, 0.014360368370127084, -0.0015159723734631605, 0.0020910817110403553, -0.024312607283999484, -0.050078316022570346, -0.08940024664644235, 0.10469938642292971, 0.20197631563613735, -0.05133947519915191, 0.17360453770828355, 0.2518855458437565, 0.3868496295198502, 0.11530886701438056, 0.3472455650883445, 0.5880940751557332, 0.43970432951264854, 0.39747726764039926, 0.33116175070569914, 0.38466227715670104, 0.16255445480615163, 0.15678629521080895, 0.13219486556037793, -0.24446080171999357, -0.3457290588109679, -0.24488428236671037, -0.005797919724806063, 0.006744883533527278, -0.021967940861582096, 0.001831200922836952, -0.002268260754334101, -0.010989533705947751, 0.0072730431403331165, -0.06449592285828219, -0.0033345040430466646, 0.18771323697374795, 0.16308081396613378, 0.10759544471350489, 0.08334895488278574, -0.05365500198658004, 0.0038644830665885504, -0.07453556013138632, 0.2337598264483624, 0.29688509039739686, 0.25001590168634663, 0.3159922034060271, 0.049608870553008645, 0.1731139981590992, 0.060008641282894355, -0.06829467964927424, 0.05285202626712282, -0.040057599285255534, -0.120164479521045, -0.04844175403812132, -0.003332398272980366, 0.005419717813078897, 0.006664529965764916, 0.005712959000535057, -0.007593243965495456, 0.0146119196860149, -0.00010150598506035362, -0.023134523962328853, -0.02406674099167884, 0.11860961978947838, 0.08344284853187334, 0.018051814690275822, 0.0551832862619279, -0.06560615142236026, 0.04619705644150375, -0.014023866048318909, -0.09068779537100032, -0.009347492607039437, -0.12507358240567096, -0.26077884387455524, -0.14654444298799102, 0.14337897223271304, -0.3194208612521502, -0.3305187932288753, -0.1516283304298786, -0.02465150283107355, 0.05332572629351869, 0.01978001791616464, 0.0037755316688081303, 0.008258142068996069, -0.010551566274790862, 0.004230231291983817, 0.006424996392602279, 0.0004096447797647049, 0.008884004433728282, -0.023903475372029206, -0.02704985533835659, -0.031207477391479818, -0.08972578371232647, -0.11767311853386903, -0.16273809384227683, -0.2665029205910046, -0.28101700103857186, -0.2999798076992397, -0.3649998877675646, -0.47552078718590607, -0.40301825446983647, -0.25084603327693306, -0.13220632889773326, -0.14868846355409543, -0.13460062947675658, -0.13935661353547196, -0.09258746113621238, -0.027601568800886097, -0.017134900656221315, 0.0003846683613000343, -0.0013400899811562234, -0.008358690204639137, 0.0015953973856694624, -0.004254892823594576, -0.008547928777750863, -0.003476517611440102, -0.013674537524594603, 0.0002693653004631182, 0.0061098048278705325, 0.001193679335263033, -0.01743838037635434, -0.006956041679453725, 0.005560171513261374, -0.0030224976845848674, -0.03845181922345206, -0.06983302561584838, -0.029163676671972952, -0.09328177817408315, -0.0771847947039229, -0.040546338182529756, -0.018387343594328334, -0.12252499443439825, 0.0020428145503537747, 0.023132144736022254, -0.0007764032188947449, -0.004915169531450845, -0.0038047650647126067, 0.006434596753481464, 0.0054850263730472325, -0.002467130563011544, 0.004181900927526782], [-0.00692329702411955, -0.006843679216270652, 0.007001233693772092, 0.003521615641460382, 0.0009336543888392223, 0.0028398878906638818, -0.00843319285891165, -0.005148792936746339, -0.013509186867893744, 0.0032026993646979067, 0.013264965876571085, 0.004298070710355564, -0.012117379507489624, -0.010339669605076932, 0.0005173870664052729, -0.00039452604261880814, 0.006335043432898516, -0.010158545214019389, 0.0008458525715005196, 0.0029908296100320717, 0.006467516638419039, 0.009138941052167766, -5.690116928449431e-05, -0.008992785102881389, -0.0012647367029325512, -0.010066698096154283, -0.007893120228103657, 0.012749452217892488, -0.0010242244025011277, -0.00827648733004995, -0.011595715346800555, 0.016809331589479285, 0.0009406049648480044, -0.0060433579353265, 0.007940917843326954, -0.004526678935535007, 0.006446199547862156, 0.005887168004348172, -0.009016863654226537, -0.003753351131514535, 0.006690715539240609, 0.006780029938170148, 0.059436654746845896, 0.10115253756251585, -0.09351900265031268, -0.05453193370298595, -0.01028251864706918, -0.00549960244982514, -0.0028052011219601002, -0.0013804375472046605, -0.0033527676183969903, -0.008413068613172415, -0.010795537965461217, -0.01621976810954068, -0.014296998165899868, 0.0025251848141005094, 0.0024137660762213542, 0.012396787828639328, 0.003459248171429705, 0.011032755585665901, -0.004434718016683145, -0.004927503303565139, 0.0017003157009477317, 0.0006642683413552986, -0.026455323443142602, -0.044853718552616224, -0.02417788177130609, -0.02848159908154624, -0.006805997069496198, 0.05159750326553534, -0.0809719150204083, 0.11730735980312407, 0.05261242849038601, -0.0865488420854802, -0.03677342796571553, -0.005218974642556673, 0.0011108036737543436, 2.403609242421264e-05, 0.007806828266197125, 0.019162790194480736, -0.00751248685938159, 0.0030809246869837616, -0.0009368097734005574, -0.007875591355955273, 0.015583945162956867, 0.004522400713696473, 0.007302750295857414, 0.005471410081884174, 0.00726933285762516, 0.008945801333139094, -0.0013191173080397051, -0.0021744397087530873, -0.03981914944838596, -0.09205262258580778, -0.1044449190043033, -0.09338578480897941, 0.05082196849019658, 0.004350017116852493, -0.13213730220567563, -0.08834320227419046, -0.36121071561579865, -0.2717969849968626, -0.10731853214107823, -0.053926045914479095, -0.08319616529854838, -0.0990528090701533, -0.04008505453047527, -0.06570234130752495, -0.07938372107011894, 0.015128267000699355, 0.0066280866313821445, -0.016504100962483496, -0.004351556846368055, 0.013659653730574331, 0.004835663556785291, -0.008347637140711602, -0.012331533129426522, -0.029525968360646745, -0.04529476084226399, -0.1096646111876617, -0.15408858488836447, -0.17032510016941768, -0.2890301304416552, -0.39093467317920916, -0.3904109925301545, -0.17248976395341856, -0.2998961561388838, -0.38308289121763983, -0.19621403756316014, -0.004947396923447436, -0.07612774246017126, -0.22861675683725965, -0.2249666615738368, -0.31778391146088186, -0.2751596620354613, -0.024078896761383306, -0.013028693981349551, -0.002411109334819602, -0.0170436731907093, -0.01192808083534438, 0.017479562157841466, 0.0008570967418264343, -0.011036978368022301, -0.010169837962896076, -0.01546578385898181, -0.003705350433302845, -0.04025668853310227, -0.0978624392751472, -0.2596580727264259, -0.29009433893821907, -0.4830293055875649, -0.494634251163, -0.16822189190254877, -0.05708166662305435, -0.2188378128745294, -0.04051913207719258, -0.21824854241704103, -0.3407079730493599, -0.3859027968484197, -0.2564294145709135, 0.03296179557879921, -0.1311238071602232, -0.023819295386530413, 0.009939856211780857, -0.014409296255820143, -0.09048389499065007, -0.015033236325701804, -0.004581840276646451, -0.0034241729667926508, 0.003993797093656016, -0.002516574534955543, -0.03829426359938019, -0.01698255288618637, -0.13325461785122494, -0.26383853790325384, -0.45241840190803995, -0.5847709095891063, -0.5791245120526931, -0.5807617984670126, -0.2673566077495893, 0.0808615353552189, -0.4208138702355007, 0.093843708744558, -0.018886418022512442, -0.25915418516997424, -0.271674296610642, -0.04489337186185527, -0.23552103482821687, 0.03379055646116693, -0.053482171614785176, 0.03758570485873775, 0.15140892262061112, 0.2211967890556854, 0.019667797419237038, 0.03909797977456149, 0.005691899712431166, 0.005359099674866595, -0.013574559071253385, -0.02477318998611844, 0.0008474797546970705, -0.05703225945313306, -0.17804815623367015, -0.25794180934421135, -0.5624646004129038, -0.7754543529773823, -0.2749892081430171, 0.03410507957368531, 0.07997067394802133, 0.3955516355509121, -0.06891999814685784, -0.10226487446908723, -0.4225892972345281, -0.12226520322381625, -0.005858647710938804, -0.12919556274487456, 0.11511626752741591, 0.11792138240736777, 0.13350667551184892, 0.17921799560576016, 0.3154293175137201, 0.20186393766609972, 0.12583481335760022, 0.08412385363083957, -0.006815827288593909, 0.005032891306692919, 0.006384595484288777, -0.028750045417762864, -0.025692416700789592, -0.03680251292892359, -0.10049463832790974, -0.09535735978995948, -0.26088937657198535, -0.4187018983312799, -0.27050423276995805, -0.19271394375749548, 0.326515293447041, 0.45936429720274935, 0.2260035400307947, 0.1995491489371524, -0.36222742587334356, -0.2723259041350073, 0.14005188560136747, 0.12869053638839498, 0.16199914429447618, -0.0021909336048172036, 0.08893845095176124, 0.09242032393447873, 0.39595206376736164, 0.49918405324308873, 0.30191800667898944, 0.06176596941404992, 0.006134282165306749, -0.0009105462991082736, 0.006092877409286751, -0.023381598761117985, -0.007569780376736714, -0.05002525763126447, -0.13364018314721016, -0.16163968005002877, -0.3615983411923552, -0.6244104746137291, -0.5131787699854264, -0.1701046006339389, 0.42809413759371334, 0.38385228559740653, 0.6157370773648759, 0.4142231153326482, 0.23420297051622815, 0.06105217712344113, -0.16571933026355948, -0.010723683533070015, 0.16010050860188343, -0.0781201700879092, 0.23847728467792478, 0.17542541640311, -0.0004896275380872531, 0.24521779068378263, 0.23958248248571962, 0.07571732299886902, -0.00816126980718475, -0.009147243167634956, -0.000556161144997193, -0.013784879572035589, -0.029465683995827403, -0.07667945325717553, -0.15282348259545397, -0.1520321971667964, -0.3275884919411842, -0.5042098393291817, -0.5242826597664285, -0.003688854852393035, -0.09895372095605709, 0.2821146487924952, 0.2665484700968439, 0.5478637996399258, 0.3293740756971254, -0.05655430206614386, -0.17131032816846717, -0.18796763359354915, 0.27933590934134545, 0.1351186846168706, 0.3331107141466128, 0.2451758152844489, 0.2910239568321881, 0.32218056028994496, 0.2927383333374153, 0.05585079947090592, -0.0042364149453867055, 0.005113253895756927, -0.011492701848662457, -0.007103486260147551, -0.006712798062324734, -0.04507655122668377, -0.035880162388988834, -0.0953035011110072, -0.1218830257375265, -0.39046700111049853, -0.32832165485579456, -0.019105062837699152, 0.07143028601773213, 0.15662739820577967, 0.10168830759654313, 0.10115433468866153, 0.2715906009266277, 0.23117584988744072, -0.4881763041733611, -0.5196185671912179, -0.5506695454165372, -0.1358560673657208, 0.21705414970652798, 0.2683532778809729, 0.366617160166721, 0.35987029491174255, 0.13622981711160081, 0.03850392132617597, 0.002305112330290397, -0.01005727559555303, 0.000663095317180544, -0.0042040428246917835, 0.0014036763716239495, -0.010485158716402371, -0.03211623964942894, 0.031120886551544498, 0.01520395377265793, -0.14131550640014504, -0.02024813012668659, -0.07530149039825113, 0.3510389398875164, 0.4972903709831219, 0.5978130560446642, -0.012122420127649561, 0.20549926461976037, 0.14346284992254602, -0.0698847448515918, -0.46184227422656476, -0.6582509903464129, -0.13556017037910478, 0.0038958666203984986, -0.1722559930446343, -0.025168368187953358, -0.021153598720234916, -0.07025688093920046, -0.040766496911989, -0.012870798065996837, -0.0016401855317467354, 0.0036074800389884914, -0.007374576483635465, 0.0033771368692533076, -0.04270095929480667, -0.07273485569454187, -0.075821663168079, -0.09789090968170859, -0.20414017357122638, 0.2077720915582917, -0.17162221178594733, -0.11365199114603892, 0.4294391564370639, -0.11523346723376567, -0.07981133289671155, 0.4629268816027155, 0.013101319276723778, 0.2740637567965908, -0.2558443823353479, -0.49131218123327236, -0.15343726226634447, -0.335806868825676, -0.3317526448456926, -0.24107409209351544, -0.14361978775331816, -0.06757557800041218, -0.022822206109432842, -0.005997917966374981, 0.009671431276501939, 0.003100811190289689, 0.009218240117779277, 0.002082095897801825, -0.0560887425994583, -0.10323054899927861, -0.27432879618441713, -0.21768938969172175, -0.19014156041858307, -0.00637119012038851, 0.09675906186412939, -0.21848333618795246, -0.1274459782195507, 0.15215659006488125, 0.09821689058171422, 0.18735128265279163, 0.3268381425902027, 0.19117345079002349, -0.15340557862203105, -0.11461547497147985, -0.28310748623847615, -0.30595139279730843, -0.28178888442228717, -0.32851362505982995, -0.24919043002763266, -0.060113399448261835, -0.027404935612469938, 0.0013055065965969016, 0.007151889466183331, -0.0031472996640458193, -0.005536109314636717, 0.044666022975594515, -0.004291642223094448, 0.09292868558463054, -0.03307661097512124, -0.18265930975706662, -0.014249220373384379, 0.04110364207994706, -0.04977734906868561, -0.1706603427471064, -0.07531070868241405, 0.09857955858346922, 0.3615268626363831, 0.3558405949440035, 0.2577541321996345, -0.14617378244980261, -0.20497788177245227, -0.3693952687273975, -0.2978822628447082, -0.34428539334251385, -0.4063920414448461, -0.3681967955958242, -0.21487320646454006, -0.07328605120683299, -0.04617604976038918, -0.009090856374506733, 0.013748136897521607, 0.00014073019484348752, -0.02113284808517794, 0.05225900698153651, -0.06259033374026107, 0.2480706921792157, -0.03721378129610371, -0.2701073032580948, -0.08117913430431802, -0.17135810496424872, -0.14674802075683208, 0.012699440478227582, -0.042883978393053024, 0.15021885956118178, 0.32124411598736424, 0.09292762595685392, -0.05928387606432634, -0.5620560964082966, -0.41975521219052353, -0.4274939505267305, -0.5077404125197245, -0.39525269193553014, -0.403645178488907, -0.30968069040000784, -0.14069045551767037, -0.08856144961711276, -0.045171881913861615, 0.0004098582342906614, -0.0017922968832998658, 0.01071279067346353, -0.021564274479914103, 0.002917413914382316, -0.01606773924543888, 0.04320946765405361, 0.235606125424896, 0.10035623932209874, -0.060028894572372225, 0.24315284395296988, 0.26960034050997334, -0.05141885518412945, -0.05990129708820367, 0.25802182525708306, 0.433295684269122, -0.07330270827234009, -0.4996146199596551, -0.6794174993988157, -0.2545349501848828, -0.442457406817489, -0.4802994062216577, -0.3874857639153797, -0.31155591445318465, -0.24218521695841805, -0.07862118311166398, -0.007090838968533978, -0.031017246786423976, -0.019223224332944853, -0.0025328402102289434, 0.004619171470106967, -0.006998014194495376, -0.09675621340715868, -0.11815540999563867, -0.30514578875205256, -0.047531467305510236, 0.20857903349534093, -0.14444721814151068, 0.07481000948788682, -0.23212938806213437, -0.047883229416351425, -0.10499008284234648, 0.05557508952555085, 0.10738524332115963, -0.6216073708114968, -0.5042477452423565, -0.2665964235122031, -0.008036265033954855, -0.0992986213922942, -0.013686238503971429, -0.2800894151784607, -0.30514833666481916, -0.17046708713111886, -0.05433076179530148, 0.08599581029923697, 0.0043443316977307056, 0.007196043046277585, 0.000136502653790132, -0.005220084437436531, -0.025493067831814282, -0.1481629820848091, -0.3058381526695611, -0.5188329245541551, -0.23324522174855136, 0.008604602174093407, -0.16561993547145643, -0.0691030517454254, 0.2490301715324462, 0.15624329731467465, 0.020926267467159643, -0.0014700227217646392, -0.23366312222829783, -0.19860870724946125, 0.1257913329355134, -0.058714323212486284, -0.09641999468507342, 0.04187471419800404, -0.1792172073210706, -0.26764823319826825, -0.2881343444572267, -0.07680879525535972, 0.12880211156002674, 0.10456237240672389, -0.014216288794197654, 0.0008491756756054286, 0.0035389742485543393, 0.0064292775755435145, -0.009587469512689165, -0.2337288423688548, -0.4187268530378332, -0.3738755362714324, 0.07401613423135274, 0.052129763312383975, -0.014616001852480968, -0.03595026450452571, 0.0655816128294941, 0.17983980282699785, -0.011691637779409084, -0.4128194857655209, -0.25941843333987213, 0.1063053645643351, 0.03867259572111804, 0.21409616802542616, -0.11540202357269937, 0.3496489017301125, -0.062297896310520295, -0.3313045107444771, -0.19716835793572748, 0.01973603188825366, 0.18794947708921375, 0.05132305016549575, -0.00455332787205799, 2.164802894271909e-05, 0.001782405906365488, 0.012417108617143225, -0.025351342228210724, -0.19529557515533993, -0.4688468940075962, -0.29833829860714095, 0.09183361323217887, 0.08556090780818115, 0.12139929509520676, -0.009234534068318043, 0.042779338811891526, 0.12228605194870579, -0.23236202628881547, -0.3043102380318691, -0.37789572606389427, -0.15536577707781762, -0.3986903117400952, -0.07546384956782043, -0.1577308819816719, 0.28366209686125443, 0.08365055824802287, -0.2349938963133151, -0.1487355332257021, 0.014877571766944956, 0.11292855073917489, 0.01446031162600224, -0.004815190594547089, 0.002300042797181746, 0.001770673814735458, -0.003517974168129021, -0.003057997649729795, -0.05277892396268757, -0.28190261206093936, -0.16777561740074795, -0.11434451272713599, 0.1652380087540273, 0.10545151881955418, 0.13115430712923834, -0.04721976947972927, 0.19857239002452606, 0.16904497319248163, 0.028473668824501384, -0.039849576313806034, -0.28770515577757433, -0.07075259717167717, 0.1392234099054692, 0.20606108546665247, 0.19132395114880718, -0.03263260013112502, -0.1101515038831523, -0.014919732683786565, 0.025805252144905498, -0.0018218457017958028, -0.00389594517564137, 0.02008976883376413, -0.009892104772457165, 0.0010669507957253282, 0.006551494112746675, -0.010784199896879747, -0.09939533185766161, -0.12862634488964883, -0.17546194207006857, -0.09181531606347285, 0.0032240103683464825, -0.029249667120963684, 0.13782394460312097, 0.14765792192556337, 0.14367554810915073, 0.47206081867290295, -0.02748968488687504, 0.026693779539734966, -0.11038519692261121, 0.12613097788088315, 0.07420962635789591, 0.0459953006859691, 0.009856535707740513, -0.17723484518062999, -0.15130719229049447, -0.06881824456018859, -0.03470199871777166, -0.03814966127569151, -0.005014648118224908, 0.006111220257246266, 0.0004162290178942851, -0.008636318428678087, -0.011339327069776608, -0.018019736175819537, -0.06086726071134565, -0.17063483835717402, -0.2066189153739619, -0.2942094075128264, -0.1070231833278233, -0.16379136989218926, -0.15924860618909642, -0.1385956019131679, -0.08925290689012046, -0.17846649994202352, -0.13905494024964835, 0.05662783793871852, 0.041901117907953526, -0.12116836389501093, -0.04411826144261178, 0.22125320334674564, -0.04648292951368346, -0.15957330707639908, -0.07389227253930512, -0.03512693763690231, 0.026547293645640794, 0.008233320494706944, -0.01151223628149987, 9.079929295600994e-05, 0.0031705024256964316, 0.005582339607566597, -0.00783434224935561, 0.0002516495006602473, 0.016768028205829275, -0.03131750303167744, -0.15687681742909565, -0.2627393768328286, -0.1879509282937179, -0.17863969541616856, -0.23805865731013204, -0.16743567984293295, -0.03113215051319715, -0.17087252937298442, -0.10304367160584767, -0.09969543585842625, -0.3138978308149978, -0.36443471121897897, -0.09170835356484647, -0.05269825341854937, -0.21860403051538735, -0.030816364015113666, 0.0046742322670554936, 0.021764668101156716, 6.29780592105628e-05, 0.0014813320487509411, 0.003559681738978419, -0.00681384473150133, 0.006487391359950294, -0.0053507265282572965, 0.0016265440867255833, -0.0063904357472845084, -0.0004460863755136454, 0.0049997232968995355, 0.03678941041626767, 0.01725616284920862, -0.05877630080208747, -0.06562464536075005, -0.04900644718110843, -0.141795607300396, -0.04643210023016009, -0.004581294823874144, -0.1197702020021458, -0.07700579815201711, 0.0002913858236624296, -0.049954995151211566, -0.06231681156074751, -0.06806581535630493, -0.060324186409049615, -0.019387113273266518, 0.007936465247453622, 0.002419446406401721, -0.012432021824144119, 0.0048632830975801076, -0.00314837596291266, 0.003735950765595029, -0.007060985434168073, 0.004192379958979498, 0.003943273764078357, -0.0032419340632845795, 0.009417908604440644, -0.003675882900626011, -0.004705888828896857, 0.004594259959417252, -0.007687207277464762, -0.008715384270098143, -0.007840101017659133, -0.00647944795182195, -0.019955232605483694, 0.00041659313927002627, -0.018325982234649072, -0.0028520176739470957, 0.009418234542941786, 0.004520975793714699, -0.007505865800401261, 0.004176613995250951, -0.004425025559263289, 0.020328101239179545, -0.0019844374509035917, -0.0015317770465157591, 0.006121117937409379, 0.0028571104729086996, -0.013869522292388067, -0.0077663315174172345, -0.009915106650550022], [-0.010071978449896005, -0.0006301672778047981, -0.004823251452816646, 0.005033107684097267, -0.011348306551007797, -0.0005242349071610029, -0.007834036535497453, -0.0062340537646271765, -0.0036222537374837357, 0.006257664586940555, -0.008878668724269356, -0.01044193412368136, 0.0013677628582768496, 0.005172643134873657, 0.00033235625953340975, 0.004953141178258326, -0.010483243071322479, 0.0036873852029368744, -0.005388761637239969, -0.0012210257828039854, -0.004519166979719489, 0.0018390894424624553, 0.0004557989461220411, -0.008727989541213742, 0.007986362495570361, -0.003262641696341045, -0.0020218188683781783, 0.002815820783719711, -0.015114678390523722, -0.0041971335314402985, 0.0047860560121560395, -0.014605386609945932, 0.008643913875543302, -0.0018698792749658934, 0.0029526109765833776, 0.006134732645820744, -0.0015313414844515133, 0.0068305764766945455, -0.007611793745867449, -0.025512607561856065, -0.061625257216354506, -0.014597653596376025, 0.016975109953302026, 0.05173160385223014, -0.052861383881222516, -0.03299949150507299, -0.010266345194312604, -0.009061868239662289, -0.007158467146147163, -0.0029692978955414896, -0.010451013898887534, -0.005058771250087492, 0.008278812143357728, -0.00901400992421661, -0.0035799907050717253, -0.003614889855790307, -0.007874287992160197, 0.0006643887350636725, -0.0036131521805408753, -0.006126681231032396, -0.004114113895546679, -0.0023348284289178766, -0.0053560120477933, -0.01958641312139991, -0.0007017209941972892, 0.002915666562256992, -0.0016296299662761366, -0.02721378596267468, -0.08332831665881409, 0.11915697271884186, 0.1653997646107676, 0.21329014634863658, -0.0032559897207338003, -0.1513533380924407, -0.17796988246121065, -0.022607718562184603, -0.029233272056676713, -0.01131516764885376, -0.010733475758478656, -0.01678107711073484, 0.013897867982534045, -0.014433508344332576, -0.013632373186384106, -0.008667647710894306, -0.0013471923943410664, 0.0004365276516625261, 0.002318687457537253, -0.019592267286022192, 0.00044829507936916627, 0.013830345590907454, 0.005763651037598568, -0.0009158739703582611, -0.09612964439806786, -0.0281380779379596, -0.14720030697185996, -0.12807956221073005, -0.16549124804437826, -0.11577391380629311, 0.011033830077272605, -0.059579348669742564, -0.036024510276136054, -0.15601688722115561, -0.17553462377791193, -0.05660318902267691, -0.14279829666251231, -0.01259672860669359, -0.03426307662653726, -0.014782726250009957, -0.010477121839041667, 0.0008240032032543054, -0.011911304858566226, -0.01693698560304467, 0.0009514187640180768, 0.001476664354293801, -0.0065026464802404255, 0.005012231382170273, 0.007618400430885782, -0.028581048759978158, -0.09602643639918627, -0.19133785926795557, -0.19533316227180464, -0.13069022144645093, -0.24388464405593804, -0.304021868354648, -0.1929603820896112, -0.03762501363238888, 0.33290145695150286, 0.12405399537770342, 0.20118805256115654, 0.08018961493351329, -0.15937427528346856, 0.12944536150537483, -0.07463387933316591, -0.10345373712475323, 0.018202243912841035, 0.10233803498366145, 0.023664097383689485, 0.01693689995886907, 0.009197948619485297, 0.00770746874110736, 0.010390213534619858, -0.0024887339658140437, -0.0019119468628805408, -0.015584188619178981, -0.013394431287754943, -0.06040417212230974, -0.1488501103420174, -0.1740755394397039, 0.029396576326231976, 0.06911728896552101, 0.12146187445249057, -0.41829184374720363, -0.22664651283291518, 0.06196854221659738, 0.10117354451231761, 0.044885793678074534, -0.34467516786613617, -0.10415733913693781, -0.29420119013461504, -0.11747364595666593, -0.12384162247067103, -0.0795605832076965, -0.007494766285832229, 0.11284370516770448, 0.08412962698799821, -0.001327590257445396, -0.012375570624693365, 0.009675964209000534, 0.011638281713373451, 0.006872146593413383, -0.03402775759263372, -0.11377067367983426, -0.04117758361193262, 0.0445268269418396, 0.007058140579302335, 0.10088564029929732, -0.044647580406319186, -0.14828995528058947, -0.17228294507484865, -0.2642787160638953, -0.022797992901057575, -0.3395351011281312, -0.046440292745779925, 0.150737426220045, -0.2820772481151378, 0.034953892654667494, -0.2163714605364428, -0.08514079756841206, -0.39346118339777214, -0.37381791711154116, -0.12329420446865591, 0.13509993358974684, -0.12172700943222703, -0.042553477608357995, -0.020221591543134028, 0.005210881022877181, -0.0024759237780654147, 0.016680898184316638, -0.02683426670198112, -0.07487349086781647, -0.05505175740628563, -0.08051024497565262, 0.27008758588871784, 0.3157017040441566, -0.06626437569097605, 0.22370811187582207, 0.12656350466981686, -0.020592412348558166, -0.1139859266632329, -0.07205523904791147, -0.030894830476143435, -0.027896640244982004, -0.035411875916608, -0.26053985535134583, -0.11598047497867267, -0.05847033600656192, -0.20351860701681262, 0.041334119492847314, -0.11327073504627766, -0.24173398212679875, -0.0688359011240909, 0.061102223381318994, -0.003736065817347513, 0.0143522016263052, 0.0035408958683766445, 0.014230083258695422, -0.004153939266330615, -0.05684634279757016, -0.1004331497115873, -0.06770071655568694, 0.22178639400149439, 0.21934272863544965, 0.06317276249090996, -0.1194207173938624, 0.12470464689215906, -0.12801601832439294, -0.30483777951776997, -0.38433635348560063, -0.07296110583205068, -0.062415646244579195, -0.207214843416215, -0.20688605614887998, -0.036001289497318706, 0.04992616425480393, -0.09703377002400672, -0.07906689023490386, -0.11545760459051016, -0.15850444135020467, -0.006870200970241432, 0.017059886328295425, -0.052122601371399624, -0.015787868646916753, -0.007374026943362685, -0.004148547913080778, -0.006914439008336065, -0.05219356753495542, 0.08011665896121634, 0.15436381300221702, 0.09017649682609273, -0.11248842904581732, 0.16533997516484625, 0.021263954448252537, 0.09879409489307184, -0.09701039117742356, -0.19286659532098593, -0.1789621140633476, -0.17242530396839822, -0.2071909501689669, -0.4066602569433984, -0.06443494974190517, -0.07877977579131455, -0.2061097301039689, -0.09650005981310249, 0.08636605552028154, 0.028354925123868523, -0.18075560493648027, -0.2716420012826018, -0.12939354327699093, -0.06544557288911759, -0.008019329425006785, 0.004979052448203778, -0.0006907438557973966, 0.026488119995676865, -0.12883477553487668, 0.1450253418840996, 0.2690189743100014, 0.13854715751573607, -0.04895566053618448, -0.20194771958154126, -0.05666094228846211, -0.04795014252836399, -0.042722189165186775, 0.057531252508925844, -0.11501889613324005, -0.20690649883229498, -0.21868365847234153, -0.33932146251613726, 0.037702261992773795, -0.11321301970979018, 0.0017586769952540532, -0.11611518080874866, 0.023266213128809013, -0.025271468877332028, -0.24399741623774818, -0.29564506344239416, -0.12174388948122157, -0.04438694454628108, 0.0029614807273202993, 0.004967287118055627, 0.015724905149124023, 0.0021085427285704736, -0.012951411781521184, 0.1014715102406084, 0.2196544920071816, 0.28813930366880086, -0.010200516756802926, -0.3182310365886093, 0.08097667527766224, 0.10538933930030533, -0.3138540578572599, -0.27386001306682517, 0.128527094104243, -0.0005649237081631476, -0.027676360837546668, 0.01808139331308594, 0.1482621474989365, 0.15201886354655347, 0.09706095035800748, -0.19876028757804723, -0.04373176444738892, -0.1563257329991622, -0.18366852394316396, -0.3508441076960121, -0.0703576528889564, -0.024305211899526797, -0.002219383640945215, -0.0019898649961265086, -0.00015163364488540013, 0.012417446409285387, 0.09051752061978527, 0.1000708040405557, 0.12652249310392694, -0.11618648839924023, 0.04889019002158595, 0.1799377527622772, 0.0693144550340397, 0.18006813191564225, -0.0426643083171285, -0.16872933512124494, -0.3354582640971985, -0.2884580566110768, 0.014834535214130664, -0.04304037245833309, 0.08762510100840645, -0.03773455490168822, -0.0399404898583087, -0.11571959382729399, -0.035486481784956524, -0.21760784420261922, -0.44998450158867076, -0.13209849455756514, 0.01623136409594642, 0.025377048255044485, 0.01744695774876001, -0.0014702530432340174, 0.0065325261102294726, 0.03875655234749013, 0.08143523434128487, 0.05478389760170506, 0.07323842005783239, 0.022982239623451896, 0.07764986419258291, -0.039276443458385546, -0.07216105753090052, 0.12761151103601262, -0.020233193838065905, -0.15963754584856674, -0.6414136169791538, -0.0935367654996029, 0.03423756364580203, -0.1349016445585775, 0.08913957869375634, -0.1576094226469388, 0.21428199163319872, 0.11046458753283099, 0.15078863677095405, 0.05653967388312498, -0.24563365514060462, 0.03160509282955814, 0.04596534975836047, 0.008603870539066704, 0.00651267226131841, 0.0004259935533409143, -0.011541200140340662, 0.0072104556473531894, 0.09057375990405536, -0.22642117254848523, 0.02397747357126579, 0.10365498532830827, 0.026369343555462575, 0.1093468652559833, 0.16845333706703985, 0.1163859450793029, -0.023451544538193012, -0.31214184041102744, -0.5046145747499411, -0.036451138426898955, -0.20239389736105523, -0.041033821957846585, 0.2569793867663251, 0.06558033503812533, 0.4249707216401188, 0.19367928033138612, 0.1827573448948104, 0.23887613393007756, 0.021982602493154178, -0.03866917997644086, 0.03389566475023744, -0.0008168876844868372, -0.011479469335563899, -0.00016735073108731452, -0.03506045889588342, 0.010821006792405144, 0.09238881865184481, -0.26740787251665094, -0.2750941125116919, 0.2592053719937247, -0.030295088438925866, 0.08332066941753001, 0.17986198305714182, 0.13051376545938154, -0.11385987550575993, -0.7268265478044805, -0.13819039526391516, 0.19765692076405267, 0.023938133241620405, 0.26709455091195083, 0.43778385382513063, -0.06693127795585288, 0.14171823069627562, 0.0016805463032682304, 0.293948336469303, 0.12450592604451223, -0.3260867348366409, -0.15467099168571852, -0.005595592346320085, 0.0188736472561748, 0.00026404657330008605, 0.003906359378656187, -0.014401913641470265, -0.013493304410615395, -0.02763682222551243, -0.13152003277013458, -0.12154459218448438, 0.2418162261247239, 0.37777102924679007, -0.03184528935175419, -0.11801968153285505, -0.2323319708207189, -0.4764631584501701, -0.759982456565172, -0.31571087509700635, 0.22016208534847057, 0.2180450688565264, 0.503184358663195, 0.5236952101584482, 0.1507801180681304, 0.30522563786554785, 0.3239548717861673, 0.44210095142736006, -0.1784706881754561, -0.1889468558215898, -0.06189476495277056, 0.017287118736655276, -0.0353575247481773, -0.010313925420837816, -0.003100054972259772, 0.008586818084970324, 0.016212362455237172, -0.14652140255325533, 0.1905319104385293, 0.06474226238875835, 0.1864253514772231, 0.03418706614278788, 0.13362872013530547, -0.1192635466041328, -0.25805756874345204, -0.825389128281475, -0.8010077478590877, 0.40995658287489284, 0.8316318435577232, 0.7774787474822017, 0.410203779691232, 0.2788525692416285, 0.14575521169778793, -0.18022178637559422, 0.10726961172132458, 0.12389445334224244, -0.14744939385978365, -0.016261388545793194, 0.12725824335934433, 0.034313144768059196, -0.013289258487942952, -0.027084603072390828, -0.0010780197710867424, 0.0062596318370670406, -0.0066799947884017595, -0.03103620627418904, 0.27426115521951216, 0.30155590721845726, -0.13396704475502738, -2.743309460942776e-06, 0.07837539340216916, -0.5385091917496995, -1.1539754606802468, -1.3325407600243075, -0.05372157154617348, 0.7843163134109995, 0.5907502065930083, 0.3507107871654487, -0.009511873772858823, 0.24895617318658167, 0.06217056624851118, 0.32139999091276905, 0.18595164366557626, 0.17371380306890524, -0.07300710575071277, 0.19634850656019098, 0.20583642606001398, 0.07747347343695417, 0.040766195594544426, 0.04583781433456879, -8.543954653976048e-05, -0.006707649814777524, 0.014812773837686385, -0.007614447279719035, 0.210674460281863, 0.07978442599422668, 0.03201911283995288, -0.12316247413591362, -0.22530529888350814, -0.48018067615453996, -1.0958309008079918, -0.6311749361560579, 0.37338572553047367, 1.157881921021162, 0.6144991520919459, 0.5011920529919723, 0.2586819230921772, 0.1088277007263749, 0.08763082794857696, 0.258576047780004, -0.04594279597496229, 0.0787468124770283, -0.06459072661717181, 0.11093709161605057, 0.10040974628144268, 0.020160042766099007, 0.009826226512562368, 0.0005617268638689325, -0.006165822973206031, -0.0029465331118748235, 0.052482511186955634, -0.01612170050369108, 0.06533786611616475, -0.044283696240866414, 0.01717609142372046, -0.12255490456605447, -0.3141058651293878, -0.5675440880808589, -0.8949688297463353, -0.6139316500379945, 0.29135759875746936, 0.8435025314312008, 0.593710577554072, 0.544467689942365, 0.46344566354071537, 0.30151255042101266, 0.351604411479367, 0.16477057826018554, 0.003568510687500086, 0.21529254423170044, -0.009157661995314353, 0.028500188427426753, 0.027077281042170703, -0.043766404709835845, 0.015468814002656256, 0.0038957592256748876, 0.0013834593777535713, -0.004017470696297881, 0.017364315417196567, -0.021825141345827342, 0.036596318443923144, 0.0628813129280598, -0.05539382845003494, -0.38345900206999234, -0.15277563866966531, -0.4550135086299491, -0.5521753834932007, -0.45311982284489766, 0.025697993124402425, 0.22568066938173661, 0.31466023804114257, 0.28938389029313416, 0.5350740596792818, 0.20312718819119877, 0.14072378180792408, 0.20543072387442043, 0.05364358324107607, 0.14718130112375843, 0.09446025019975392, 0.10936845732241306, 0.015757462541631344, 0.018984405883349462, -0.02034394180941011, -0.0013209414373022955, 0.004358074543091965, -0.008988054694953508, 0.03785561579927159, 0.028558291119015793, 0.18493825319811866, 0.11867444692884066, -0.027533223519905066, -0.22275909512622194, -0.24275468997392124, -0.3511528392205068, -0.4381506776472425, -0.30444197588924865, -0.024758164166790116, -0.10896216295230116, 0.17419915089489915, 0.16442200367388266, 0.11562399728269578, 0.24973809369000258, 0.058973215549718905, 0.0698325664658535, 0.0354344057224092, 0.21423403222502355, 0.1234665681971189, -0.04474387929100465, -0.014859061660389099, 0.00599740947060259, -0.012473959141282858, 0.0021660055121260013, -0.0027738999954360155, 0.006399896213112386, -0.056545898938538786, -0.11938181196077248, -0.0348754405986155, -0.027794918125006, -0.1173724936054681, -0.2230392671039352, -0.325309605434324, -0.04419009696358609, -0.41569167105319726, -0.6122754134772073, -0.0476816572534247, -0.42820988539743354, -0.0785425299135606, -0.15924933200998748, 0.08115258907437499, 0.12654345093548436, 0.1052162956870341, 0.2329750819070296, 0.14150320657308638, 0.12713847100546014, 0.10873529841306058, -0.022797654155404298, -0.1425004211054796, 0.013273593814141687, 0.0029572321268248507, -0.00631010130224281, 0.010218129525570949, 0.00023369309233912925, -0.07173679555928816, -0.10523624402635277, -0.03562080750393379, -0.10794196342235167, -0.19216654631261104, -0.27514822666072986, -0.1252936664593379, -0.20622498095436378, -0.47909715666113595, -0.39272114306402, -0.3557206605754833, -0.31122642533770395, -0.35730679819453726, -0.12403988885178156, -0.11661369259672383, -0.1042275150010773, 0.32272651428966365, 0.5127422926827613, 0.11968816288358322, 0.23992674520176574, 0.13639693552857082, -0.0061478129420973245, -0.023116743776918, 0.008332423457562207, -0.0010915059700998381, 0.00529184214884746, 0.0015412021350418193, 0.007492221676446085, -0.009474242595270436, -0.0029731918038088893, -0.0066059387158201276, -0.12133177798067182, -0.19564751302398217, -0.21468737514982753, -0.14670921858114513, -0.15119054843363935, -0.5389917878482606, -0.28119790930340727, -0.16699380207316347, -0.4050169011021679, 0.06820375694175167, 0.011602724757169516, -0.2634995703458572, -0.2122808898192323, -0.0938371412179674, -0.23669089012031969, -0.01970577668240783, 0.038551138462570335, 0.05623026937219141, -0.032491976013341584, -0.03016746267248225, 0.0033377328182028834, -0.00033512561675105325, -0.0009126193878959782, 0.0003443128795507526, -0.010555019906570217, -0.002782717975497856, 0.003808809792900774, -0.002491794688970159, -0.06860304536603114, -0.10757653214165683, -0.06504567642559467, 0.007151933583521507, 0.12465470468765252, -0.17993619557085247, -0.28396178193192967, -0.25607410210957343, 0.003261247400451966, -0.10783202121144335, -0.0443974062187168, -0.10239249468904671, -0.13149345078720268, -0.1389003642300173, -0.11255732224130824, -0.1374345466832337, -0.028557631433119644, 0.008718489689838231, -0.0006894541191391879, -0.010382290759491854, -0.0005191181634014405, -0.011235291243536265, -0.0019613112296189526, 0.006256170722943643, 0.009371707314136068, 0.002132867881887055, 0.009863145281730443, -0.006114629487822017, 0.008857422143502554, 0.004387334425014845, -0.0021707278157993715, 0.01590558278461465, 0.017402927183100363, 0.024782564060091578, -0.004314517840852817, -0.016531487328076133, 0.03653245994980268, -0.0059558226853409025, -0.004599277507676194, 0.010847232963600016, 0.030387789555815666, 0.0033368773421796564, -0.001096839877119671, 0.002184058880182628, 0.012319728989689716, -0.0013457447366490005, -0.004499220883593901, -0.007225791804229143, -0.004397992478889323, 0.004325701594727283, 0.00121061874765438], [-0.011540520938915609, 0.0062306169411383075, -0.00023360770953466322, -0.001520922952771234, 0.012228008333389821, 1.4129953712019412e-06, -0.003789970249592039, -0.0058776767143343305, 0.010108540290900825, -0.0032518848732759655, 0.013039182163289394, 0.009838912356446633, -0.0009340640212378858, -0.003723839728635497, -0.0011513866469402547, -0.0023935562771126846, 0.005122226279228536, -0.00937664267493652, -0.009420281816615195, -0.008664553784311942, 0.010393288996723853, 0.00382613318855776, -0.007029593132097898, -0.019946277927155195, -0.0035229089758871323, -0.013226937248943886, 0.011245744819496202, 0.013744093334133968, 7.181999929626374e-05, -0.0034640184956345583, -0.008555261388508643, -0.009083170426481187, 0.018286744335278632, 0.008890556817446932, 0.006841086384792397, -0.022259232064890097, -0.009356944888838946, 0.010211828399407636, -0.007412542961234677, 0.002771012971142904, -0.05322980437996626, -0.014130484629122487, 0.018925360408870294, 0.029181487585763385, 0.01797720386485543, 0.00406309162212054, -0.0017121515037409492, -0.0071467177387149645, 0.002672609448771917, -0.002110457446624538, -0.00778034777323401, 0.013765601816731898, -0.010286526775981826, -0.011916114422797778, -0.0045018492855588435, 0.000970228810968957, -0.0016146297476987343, -0.002784575801053223, -0.012214543780757092, 0.010970282940437861, 0.0039841785637846185, -0.006085208593518321, -0.012673094284078742, -0.039753144774269396, -0.0279974323207709, -0.024036970076165207, -0.05278638017560798, -0.16848572629608796, -0.15798016176940638, -0.11209239102738203, -0.12073534332446273, -0.07820025694866206, -0.10614080897452705, -0.12673255398447988, -0.08394593486278218, -0.08394402365974139, -0.062253343852938736, -0.04108095218251693, -0.0011025838422548057, -0.005769309750188997, 0.008252114083697904, -0.007940459111945415, -0.012101237893657232, 0.0075438970082207, -0.019489919345232722, -0.0013811404184628517, -0.0036139390717400233, -0.020774588284698966, 0.007062864818077495, 0.00937400792053801, -0.05300045694567819, -0.04463358757850471, 0.04066468337526407, -0.0536067733262445, -0.013313313303610913, -0.0831306081882372, 0.10590072695446826, -0.0598773536249919, -0.27795613329802976, -0.21940787040418336, -0.1262723758272707, -0.1725771986299573, -0.3592692789884832, -0.31312638659582775, -0.18394187735287879, -0.1358867847271623, -0.05604455919361337, -0.028530137942279286, -0.00302089080917004, 0.01575016071723952, 0.006546966136725368, 0.01702920237093241, -0.000836768358870565, -0.009295780313292984, 0.0022457606950259056, 0.013304959169581673, 0.0014030401220262796, -0.005239989292195723, -0.0015284948266345983, -0.08963551227286821, 0.13993305925696828, 0.12183782282377648, 0.26856367681239895, 0.20137720447384003, 0.29328749412448896, 0.19394574613607585, -0.2790387810481976, -0.24950869030675635, -0.35648222851466305, -0.3847081776765173, -0.381749386345097, -0.4641669937328557, -0.5283432680444783, -0.32875549818227956, -0.12391124318348691, -0.06490786967264794, -0.010330382679602321, 0.0275678536033864, 0.012101528641271729, 0.02327486263780897, 0.006341625958717684, -0.008249544516956905, 0.007427766483944938, 0.04393145786150643, 0.12347905030885029, 0.2101240857381239, 0.19975775495101514, 0.13593137688772217, 0.10991836652856868, 0.07358738378462504, -0.0015823842520179467, -0.03988531101037646, -0.2001396145962805, -0.22404601427196275, -0.09598913238355274, 0.033466912572404604, -0.3976425868923308, -0.5058741320551389, -0.2925822833781888, -0.324881434650523, -0.6149120615106519, -0.3890212979258328, -0.19846332325070212, -0.12724658928602484, -0.029351763866278715, 0.03970793009920898, 0.005334345823595074, 5.5140715608069625e-05, -0.0068210292974676115, -0.0010108274188439666, 0.01512333718950178, 0.08061025057837029, 0.1646742325207175, 0.16143394886253232, 0.2808971712718618, 0.04239438046084862, 0.14978739340844657, 0.20911886656725498, 0.006927512650197913, 0.12493615920078642, -0.44299692186601386, -0.1395645934110821, -0.1046456974667854, -0.7167676744655193, -0.420229415590979, -0.2430813199184211, -0.025662796997390273, -0.3458019182909461, -0.20584389809338394, 0.014712316376899686, -0.4008586501843209, -0.4036607919345858, -0.2257529935760675, -0.0281666646987762, -0.0005329194599081651, -0.012370777219242915, -0.01167029084556829, 0.004375405427975016, 0.015540704658290832, 0.14556416471249187, 0.10447892404029852, -0.16839344563376268, 0.11278980116757004, -0.006105756138670129, -0.07209524064126188, 0.055440312490736395, -0.10418108868664389, 0.0050516414311451655, 0.3517343154413916, 0.26557143707571135, -0.046017329004678344, -0.17598276582318526, -0.3028998395915232, -0.18713078438278768, -0.2106884292137872, -0.23856703278641977, -0.19254886513243377, -0.10862520534757543, -0.2813772310391195, -0.4165859837465886, -0.3751397794721745, -0.13929857057222142, -0.02268999722614172, -0.003413238863436306, 0.003314088771183234, 0.024631012625517257, 0.016081534755204758, 0.08201948252939667, 0.08756527514385186, -0.10086716577823572, -0.1840203926318833, 0.0660567948578682, -0.036422356364121326, 0.009586667585025146, 0.6171715344583062, 0.2754235922888496, 0.30637511242256654, 0.35173445202088116, 0.4453875122190778, 0.6344148343688708, 0.5865064911774636, 0.20336819493104988, -0.12910000116640966, 0.039222183384594204, -0.10849145649014814, -0.08594114445302074, -0.14488440759036472, -0.3765505121966023, -0.4987888306821698, -0.2935774241815403, -0.030932357977113807, -0.003779783318988856, -0.012520983996656666, 0.038085811965660854, 0.01198911582393206, 0.08350963845767671, 0.19029035791240514, -0.004410658364587827, 0.08024465301343046, 0.208966955646859, -0.08480137850154926, -0.07277214868227491, 0.45280930591921115, 0.2492853674682522, 0.6218493079885187, 0.8518836439624782, 1.2595456518522006, 1.001658038165022, 0.4941840646503018, 0.17494872780542625, -0.338911900576396, 0.03954880101568816, -0.1131450768580997, -0.16332100181569972, 0.3080418454540985, -0.22678600569517718, -0.2267909890806273, -0.2738746658600233, -0.06443464538260399, 0.05225770461812635, -0.004465831918634562, 0.015627299597880746, 0.021248445153706347, 0.12224207720444227, 0.09421578768589146, -0.00041348452859847607, 0.2402402042063895, 0.20798056292257697, 0.36693980329511344, 0.15011726964145394, 0.43378858390277286, 0.39761315387079804, 0.07921945064724553, 0.7717541949446873, 0.7858463564557441, 0.4061344176658713, 0.20877284274197866, -0.3224123123659519, -0.29599041006033044, -0.018705006102135914, -0.12230260028643578, -0.3270473266443811, 0.2417851144371415, 0.025737051117525212, -0.2877573426567527, -0.209250983488157, -0.043356991144665895, 0.014725374786160636, -0.003868559069213943, 0.007171961429219144, 0.06981896459715566, 0.14405160282410764, 0.24084538232797048, 0.19182792280796238, -0.2209131017104732, -0.025625602196467315, 0.019349083283479163, 0.15200762555518385, 0.07238250874442761, 0.5325489076403569, 0.009888038638936576, 0.0504529074883887, 0.4441768500215539, -0.20591624760688662, -0.5000768469244627, -0.6546802992507947, -0.04408640706143314, 0.09071599025943272, -0.07281559940481452, -0.4006204912480106, -0.06597225189516318, 0.01885531617961469, -0.14003989757028815, -0.2315429710032243, -0.020751476220106146, 0.006050356855912284, -0.0029156443889517165, 0.010998528898948971, 0.06236621200708548, 0.20410242619762384, 0.29881635766829606, 0.29177821515570923, -0.15333080104287913, 0.08358428929543261, 0.013330991715410119, -0.08617910360077423, -0.08688328434775079, -0.05303610387833487, 0.02929581537324876, 0.23049093261732195, 0.15336779414031762, -0.2596038567765152, -0.2000462659573621, 0.05987010477871893, 0.09081853592981244, -0.32686970972903734, -0.15979494037906222, -0.2182491632045112, -0.010531689980987444, -0.014824470300586635, -0.08874417164695042, -0.029948622561967883, 0.05222853025766192, 0.027608045520116836, -0.007672972709855181, -0.0038811675585622703, 0.027382841625413396, 0.18193932590049153, 0.24268741263730412, 0.1177509611919555, 0.11593690994429359, -0.06421570281532064, 0.07947351900193012, -0.06496302603451626, -0.29811118031673617, -0.13021148881696806, -0.00017417951536747282, 0.2262520468494096, 0.2205327074688542, -0.09691802162521257, -0.22172737053413044, -0.088159559677098, 0.10933534417003755, -0.4518167842137828, -0.3153351070879438, 0.20542766751208794, 0.14333254049973515, -0.028004909618478742, -0.0068479820874383585, 0.04220934276270634, 0.1323973167945084, 0.03344384542741409, 0.00708277787992353, 0.01065942844825262, 0.01663519831995864, 0.09017120741932046, 0.01658673048745592, -0.05942391652434535, -0.028842001507584467, -0.12039877415778272, -0.18062826620130282, -0.009294534048998515, -0.26627518674851525, -0.25065152782154915, -0.20199260266718708, -0.24957507915844893, 0.06577260069216238, -0.2170603630299465, -0.34857110074856784, -0.09683010334980958, -0.1579918252940175, -0.09230006823062999, 0.03298166425263921, 0.22133710688139024, 0.006833673069269824, 0.1651428792886345, 0.36218611056530703, 0.009301591906161415, 0.1312258453064932, 0.0009901451942571525, -0.0017086196849216318, -0.000775916342506223, 0.008537265098322172, -0.013773450349863069, 0.006762590182482201, 0.230223465298574, 0.07689289788274928, -0.12670987673620157, -0.039273249370302285, -0.05931241741982747, -0.061146071411851244, -0.15375143443727385, -0.14556704543964968, 0.1348172682788121, 0.03268890888390865, -0.06101022297208868, 0.1343927572103866, 0.07480293364075023, 0.00045525418153022584, 0.10773522330673133, 0.23881779671558148, 0.16759822398312962, 0.05590403074756971, 0.2144277828401737, 0.45598856419306405, -0.08254958541099333, 0.032444763320034396, 0.00389315231705174, -0.001164677724265271, -0.004514200315543473, 0.00480509504137205, -0.046895071200887026, -0.0012989761174032127, 0.03702984501448856, -0.021948323479074345, 0.1946230624982144, -0.0702570924230184, 0.09692513267975383, 0.005974291556591966, -0.4029116232115929, -0.3524003629064213, 0.0681128752892612, 0.13685248451347085, -0.43795104245843525, -0.152590142294689, -0.333183258975628, 0.11150617942098479, 0.2999013899557939, 0.03405489081976974, 0.08198724714333029, 0.29054977124633513, 0.2000273729736852, 0.12009522526673223, -0.0627069661848536, 0.08907617059155969, 0.01834580271215789, -0.005629704577181654, -0.0008755758690403497, 0.00606019693188678, -0.05066490929293328, -0.12761328602124564, -0.025652101577291368, -0.1289548202012219, 0.0011915915255995323, -0.24009375869912905, -0.06073289841922245, 0.05538853370197119, -0.040203412195087204, 0.3001751467590436, -0.1660033669636564, -0.25947429064065464, -0.18234877374328542, -0.24013641998309151, 0.06467436244243178, -0.03362269129463767, 0.16957219268307466, -0.15632359198246853, -0.025806996036780164, 0.022380206908843365, 0.0036660967303129804, 0.035382556006682435, 0.08253502746251663, 0.0422139327066342, 0.04558120474634108, 0.005890431043285336, -0.003124885568248778, -0.0016418741652042775, -0.05661013078297906, -0.16263416211975376, -0.07124084272995904, -0.029286134545686408, -0.036902031155569524, 0.0360466693148084, 0.04947436966279383, -0.13090803530099018, 0.022705423889695212, 0.01766562245196583, -0.18011531575441658, -0.33018659187265936, -0.23903388853023236, -0.17609213645672525, 0.49448546230938734, -0.10643431703920776, -0.0806330822124567, 0.09911174055914077, 0.04895367537919923, 0.2784549800158797, -0.04167916731573188, 0.060983791730987724, 0.08168478874639312, 0.039462061110768394, 0.024906303626276924, 0.015687612407514206, -0.0023527589997647575, -0.026121360536826423, -0.14008845193750802, -0.1836576004044683, -0.07143732000923803, -0.05885468449632905, 0.07863258213979667, -0.11125469188302368, -0.23236899737393155, -0.10424182524467919, -0.2368885604213929, -0.1813322420351874, -0.049532461428913196, -0.04259498101635642, -0.29188176178222763, 0.03674625561022311, -0.00686909789678707, -0.2400984050303514, 0.1654010519370067, 0.014060669109670985, 0.00654413886918617, 0.22622778921437706, -0.04210355961769561, 0.006504764472649802, 0.004428775160225872, -0.005903402270147183, -0.0019270686980685252, 0.0012232194847603258, -0.0014074399591647304, -0.021807939298283525, -0.09613128687425725, -0.1555487554140314, -0.1460939965586318, 0.006068301827333073, 0.2447171614588775, -0.0726876571107146, -0.039073536120748424, -0.09127566841445381, -0.040780232156366426, -0.1510233588110944, 0.1765210295449933, -0.2139310590013163, -0.11480630968559767, -0.04629321387900687, -0.17706530641068563, -0.0012898144272160354, -0.016945500951799475, -0.0038688079629374027, 0.015453572154682748, 0.12171057216076549, 0.09668892636541261, -0.0046197646467016525, -0.025445693640712096, 0.0019285554746048812, 0.007143696278084575, 0.0053452740850761325, -0.013060660092512538, -0.05098469371734486, -0.07439534671194176, -0.14658143413597313, -0.20985642666275167, -0.1654040905215042, 0.06330222862857617, -0.03569219675864101, -0.027966086367725653, -0.07698889201493751, -0.1529664814158434, -0.06488904115925889, -0.21010083486812714, -0.05273288103348093, 0.05809733739249404, -0.0334850126039294, -0.21522422821879023, -0.20931698443527286, -0.2978821739238406, -0.2476635888071614, -0.1503167186523138, -0.025225049827162026, 0.08464213355080025, 0.07907396261649188, -0.007706243561955241, -0.007264145011343352, -0.01315910794111969, -0.00031792914700664215, 0.016567118248396268, -0.00530506205232316, -0.06189974643102613, -0.07394255366065204, -0.024342399000065823, 0.08251320965370648, -0.07232200065682091, -0.05689276909404165, 0.11251768311958216, -0.07991854136676252, -0.3412012909344417, 0.13440706093669594, -0.02304911490620723, -0.16198751108461262, 0.04025541976712954, -0.26051819407229243, -0.17977741451273177, -0.17675238836732038, -0.1633025737556743, 0.05554296207262047, -0.10593283354952861, -0.0049695815748310454, 0.09997191002394927, 0.12374579178335013, 0.042305293145460825, -0.004266697065314981, -0.004608166274334755, -0.003978815978836553, 0.003755499309736321, 0.011962768348706188, 0.009913321498220424, 0.022512370020656498, 0.08385896373458047, 0.19627831431529308, -0.0794062102574491, -0.2214337765926415, -0.08777389695128099, -0.1053913273930647, 0.2730281894922801, 0.19093813268951296, 0.28632627376012737, -0.09894004389480175, 0.0996071005793837, 0.057874573011153285, 0.19861217322974675, -0.022092629497076872, 